{"learner":{"attributes":{"scikit_learn":"{\"_estimator_type\": \"regressor\"}"},"feature_names":["Maximum Blood Glucose","Minimum Blood Glucose","Mean Blood Glucose in Previous 24h","Number of Hypoglycemia Episodes","Number of Hyperglycemia Episodes","Previous Blood Glucose Level","Second Previous Blood Glucose Level","Age","Gender"],"feature_types":["float","float","float","int","int","float","float","float","int"],"gradient_booster":{"model":{"gbtree_model_param":{"num_parallel_tree":"1","num_trees":"3101"},"iteration_indptr":[0,1,2,3,4,5,6,7,8,9,10,11,12,13,14,15,16,17,18,19,20,21,22,23,24,25,26,27,28,29,30,31,32,33,34,35,36,37,38,39,40,41,42,43,44,45,46,47,48,49,50,51,52,53,54,55,56,57,58,59,60,61,62,63,64,65,66,67,68,69,70,71,72,73,74,75,76,77,78,79,80,81,82,83,84,85,86,87,88,89,90,91,92,93,94,95,96,97,98,99,100,101,102,103,104,105,106,107,108,109,110,111,112,113,114,115,116,117,118,119,120,121,122,123,124,125,126,127,128,129,130,131,132,133,134,135,136,137,138,139,140,141,142,143,144,145,146,147,148,149,150,151,152,153,154,155,156,157,158,159,160,161,162,163,164,165,166,167,168,169,170,171,172,173,174,175,176,177,178,179,180,181,182,183,184,185,186,187,188,189,190,191,192,193,194,195,196,197,198,199,200,201,202,203,204,205,206,207,208,209,210,211,212,213,214,215,216,217,218,219,220,221,222,223,224,225,226,227,228,229,230,231,232,233,234,235,236,237,238,239,240,241,242,243,244,245,246,247,248,249,250,251,252,253,254,255,256,257,258,259,260,261,262,263,264,265,266,267,268,269,270,271,272,273,274,275,276,277,278,279,280,281,282,283,284,285,286,287,288,289,290,291,292,293,294,295,296,297,298,299,300,301,302,303,304,305,306,307,308,309,310,311,312,313,314,315,316,317,318,319,320,321,322,323,324,325,326,327,328,329,330,331,332,333,334,335,336,337,338,339,340,341,342,343,344,345,346,347,348,349,350,351,352,353,354,355,356,357,358,359,360,361,362,363,364,365,366,367,368,369,370,371,372,373,374,375,376,377,378,379,380,381,382,383,384,385,386,387,388,389,390,391,392,393,394,395,396,397,398,399,400,401,402,403,404,405,406,407,408,409,410,411,412,413,414,415,416,417,418,419,420,421,422,423,424,425,426,427,428,429,430,431,432,433,434,435,436,437,438,439,440,441,442,443,444,445,446,447,448,449,450,451,452,453,454,455,456,457,458,459,460,461,462,463,464,465,466,467,468,469,470,471,472,473,474,475,476,477,478,479,480,481,482,483,484,485,486,487,488,489,490,491,492,493,494,495,496,497,498,499,500,501,502,503,504,505,506,507,508,509,510,511,512,513,514,515,516,517,518,519,520,521,522,523,524,525,526,527,528,529,530,531,532,533,534,535,536,537,538,539,540,541,542,543,544,545,546,547,548,549,550,551,552,553,554,555,556,557,558,559,560,561,562,563,564,565,566,567,568,569,570,571,572,573,574,575,576,577,578,579,580,581,582,583,584,585,586,587,588,589,590,591,592,593,594,595,596,597,598,599,600,601,602,603,604,605,606,607,608,609,610,611,612,613,614,615,616,617,618,619,620,621,622,623,624,625,626,627,628,629,630,631,632,633,634,635,636,637,638,639,640,641,642,643,644,645,646,647,648,649,650,651,652,653,654,655,656,657,658,659,660,661,662,663,664,665,666,667,668,669,670,671,672,673,674,675,676,677,678,679,680,681,682,683,684,685,686,687,688,689,690,691,692,693,694,695,696,697,698,699,700,701,702,703,704,705,706,707,708,709,710,711,712,713,714,715,716,717,718,719,720,721,722,723,724,725,726,727,728,729,730,731,732,733,734,735,736,737,738,739,740,741,742,743,744,745,746,747,748,749,750,751,752,753,754,755,756,757,758,759,760,761,762,763,764,765,766,767,768,769,770,771,772,773,774,775,776,777,778,779,780,781,782,783,784,785,786,787,788,789,790,791,792,793,794,795,796,797,798,799,800,801,802,803,804,805,806,807,808,809,810,811,812,813,814,815,816,817,818,819,820,821,822,823,824,825,826,827,828,829,830,831,832,833,834,835,836,837,838,839,840,841,842,843,844,845,846,847,848,849,850,851,852,853,854,855,856,857,858,859,860,861,862,863,864,865,866,867,868,869,870,871,872,873,874,875,876,877,878,879,880,881,882,883,884,885,886,887,888,889,890,891,892,893,894,895,896,897,898,899,900,901,902,903,904,905,906,907,908,909,910,911,912,913,914,915,916,917,918,919,920,921,922,923,924,925,926,927,928,929,930,931,932,933,934,935,936,937,938,939,940,941,942,943,944,945,946,947,948,949,950,951,952,953,954,955,956,957,958,959,960,961,962,963,964,965,966,967,968,969,970,971,972,973,974,975,976,977,978,979,980,981,982,983,984,985,986,987,988,989,990,991,992,993,994,995,996,997,998,999,1000,1001,1002,1003,1004,1005,1006,1007,1008,1009,1010,1011,1012,1013,1014,1015,1016,1017,1018,1019,1020,1021,1022,1023,1024,1025,1026,1027,1028,1029,1030,1031,1032,1033,1034,1035,1036,1037,1038,1039,1040,1041,1042,1043,1044,1045,1046,1047,1048,1049,1050,1051,1052,1053,1054,1055,1056,1057,1058,1059,1060,1061,1062,1063,1064,1065,1066,1067,1068,1069,1070,1071,1072,1073,1074,1075,1076,1077,1078,1079,1080,1081,1082,1083,1084,1085,1086,1087,1088,1089,1090,1091,1092,1093,1094,1095,1096,1097,1098,1099,1100,1101,1102,1103,1104,1105,1106,1107,1108,1109,1110,1111,1112,1113,1114,1115,1116,1117,1118,1119,1120,1121,1122,1123,1124,1125,1126,1127,1128,1129,1130,1131,1132,1133,1134,1135,1136,1137,1138,1139,1140,1141,1142,1143,1144,1145,1146,1147,1148,1149,1150,1151,1152,1153,1154,1155,1156,1157,1158,1159,1160,1161,1162,1163,1164,1165,1166,1167,1168,1169,1170,1171,1172,1173,1174,1175,1176,1177,1178,1179,1180,1181,1182,1183,1184,1185,1186,1187,1188,1189,1190,1191,1192,1193,1194,1195,1196,1197,1198,1199,1200,1201,1202,1203,1204,1205,1206,1207,1208,1209,1210,1211,1212,1213,1214,1215,1216,1217,1218,1219,1220,1221,1222,1223,1224,1225,1226,1227,1228,1229,1230,1231,1232,1233,1234,1235,1236,1237,1238,1239,1240,1241,1242,1243,1244,1245,1246,1247,1248,1249,1250,1251,1252,1253,1254,1255,1256,1257,1258,1259,1260,1261,1262,1263,1264,1265,1266,1267,1268,1269,1270,1271,1272,1273,1274,1275,1276,1277,1278,1279,1280,1281,1282,1283,1284,1285,1286,1287,1288,1289,1290,1291,1292,1293,1294,1295,1296,1297,1298,1299,1300,1301,1302,1303,1304,1305,1306,1307,1308,1309,1310,1311,1312,1313,1314,1315,1316,1317,1318,1319,1320,1321,1322,1323,1324,1325,1326,1327,1328,1329,1330,1331,1332,1333,1334,1335,1336,1337,1338,1339,1340,1341,1342,1343,1344,1345,1346,1347,1348,1349,1350,1351,1352,1353,1354,1355,1356,1357,1358,1359,1360,1361,1362,1363,1364,1365,1366,1367,1368,1369,1370,1371,1372,1373,1374,1375,1376,1377,1378,1379,1380,1381,1382,1383,1384,1385,1386,1387,1388,1389,1390,1391,1392,1393,1394,1395,1396,1397,1398,1399,1400,1401,1402,1403,1404,1405,1406,1407,1408,1409,1410,1411,1412,1413,1414,1415,1416,1417,1418,1419,1420,1421,1422,1423,1424,1425,1426,1427,1428,1429,1430,1431,1432,1433,1434,1435,1436,1437,1438,1439,1440,1441,1442,1443,1444,1445,1446,1447,1448,1449,1450,1451,1452,1453,1454,1455,1456,1457,1458,1459,1460,1461,1462,1463,1464,1465,1466,1467,1468,1469,1470,1471,1472,1473,1474,1475,1476,1477,1478,1479,1480,1481,1482,1483,1484,1485,1486,1487,1488,1489,1490,1491,1492,1493,1494,1495,1496,1497,1498,1499,1500,1501,1502,1503,1504,1505,1506,1507,1508,1509,1510,1511,1512,1513,1514,1515,1516,1517,1518,1519,1520,1521,1522,1523,1524,1525,1526,1527,1528,1529,1530,1531,1532,1533,1534,1535,1536,1537,1538,1539,1540,1541,1542,1543,1544,1545,1546,1547,1548,1549,1550,1551,1552,1553,1554,1555,1556,1557,1558,1559,1560,1561,1562,1563,1564,1565,1566,1567,1568,1569,1570,1571,1572,1573,1574,1575,1576,1577,1578,1579,1580,1581,1582,1583,1584,1585,1586,1587,1588,1589,1590,1591,1592,1593,1594,1595,1596,1597,1598,1599,1600,1601,1602,1603,1604,1605,1606,1607,1608,1609,1610,1611,1612,1613,1614,1615,1616,1617,1618,1619,1620,1621,1622,1623,1624,1625,1626,1627,1628,1629,1630,1631,1632,1633,1634,1635,1636,1637,1638,1639,1640,1641,1642,1643,1644,1645,1646,1647,1648,1649,1650,1651,1652,1653,1654,1655,1656,1657,1658,1659,1660,1661,1662,1663,1664,1665,1666,1667,1668,1669,1670,1671,1672,1673,1674,1675,1676,1677,1678,1679,1680,1681,1682,1683,1684,1685,1686,1687,1688,1689,1690,1691,1692,1693,1694,1695,1696,1697,1698,1699,1700,1701,1702,1703,1704,1705,1706,1707,1708,1709,1710,1711,1712,1713,1714,1715,1716,1717,1718,1719,1720,1721,1722,1723,1724,1725,1726,1727,1728,1729,1730,1731,1732,1733,1734,1735,1736,1737,1738,1739,1740,1741,1742,1743,1744,1745,1746,1747,1748,1749,1750,1751,1752,1753,1754,1755,1756,1757,1758,1759,1760,1761,1762,1763,1764,1765,1766,1767,1768,1769,1770,1771,1772,1773,1774,1775,1776,1777,1778,1779,1780,1781,1782,1783,1784,1785,1786,1787,1788,1789,1790,1791,1792,1793,1794,1795,1796,1797,1798,1799,1800,1801,1802,1803,1804,1805,1806,1807,1808,1809,1810,1811,1812,1813,1814,1815,1816,1817,1818,1819,1820,1821,1822,1823,1824,1825,1826,1827,1828,1829,1830,1831,1832,1833,1834,1835,1836,1837,1838,1839,1840,1841,1842,1843,1844,1845,1846,1847,1848,1849,1850,1851,1852,1853,1854,1855,1856,1857,1858,1859,1860,1861,1862,1863,1864,1865,1866,1867,1868,1869,1870,1871,1872,1873,1874,1875,1876,1877,1878,1879,1880,1881,1882,1883,1884,1885,1886,1887,1888,1889,1890,1891,1892,1893,1894,1895,1896,1897,1898,1899,1900,1901,1902,1903,1904,1905,1906,1907,1908,1909,1910,1911,1912,1913,1914,1915,1916,1917,1918,1919,1920,1921,1922,1923,1924,1925,1926,1927,1928,1929,1930,1931,1932,1933,1934,1935,1936,1937,1938,1939,1940,1941,1942,1943,1944,1945,1946,1947,1948,1949,1950,1951,1952,1953,1954,1955,1956,1957,1958,1959,1960,1961,1962,1963,1964,1965,1966,1967,1968,1969,1970,1971,1972,1973,1974,1975,1976,1977,1978,1979,1980,1981,1982,1983,1984,1985,1986,1987,1988,1989,1990,1991,1992,1993,1994,1995,1996,1997,1998,1999,2000,2001,2002,2003,2004,2005,2006,2007,2008,2009,2010,2011,2012,2013,2014,2015,2016,2017,2018,2019,2020,2021,2022,2023,2024,2025,2026,2027,2028,2029,2030,2031,2032,2033,2034,2035,2036,2037,2038,2039,2040,2041,2042,2043,2044,2045,2046,2047,2048,2049,2050,2051,2052,2053,2054,2055,2056,2057,2058,2059,2060,2061,2062,2063,2064,2065,2066,2067,2068,2069,2070,2071,2072,2073,2074,2075,2076,2077,2078,2079,2080,2081,2082,2083,2084,2085,2086,2087,2088,2089,2090,2091,2092,2093,2094,2095,2096,2097,2098,2099,2100,2101,2102,2103,2104,2105,2106,2107,2108,2109,2110,2111,2112,2113,2114,2115,2116,2117,2118,2119,2120,2121,2122,2123,2124,2125,2126,2127,2128,2129,2130,2131,2132,2133,2134,2135,2136,2137,2138,2139,2140,2141,2142,2143,2144,2145,2146,2147,2148,2149,2150,2151,2152,2153,2154,2155,2156,2157,2158,2159,2160,2161,2162,2163,2164,2165,2166,2167,2168,2169,2170,2171,2172,2173,2174,2175,2176,2177,2178,2179,2180,2181,2182,2183,2184,2185,2186,2187,2188,2189,2190,2191,2192,2193,2194,2195,2196,2197,2198,2199,2200,2201,2202,2203,2204,2205,2206,2207,2208,2209,2210,2211,2212,2213,2214,2215,2216,2217,2218,2219,2220,2221,2222,2223,2224,2225,2226,2227,2228,2229,2230,2231,2232,2233,2234,2235,2236,2237,2238,2239,2240,2241,2242,2243,2244,2245,2246,2247,2248,2249,2250,2251,2252,2253,2254,2255,2256,2257,2258,2259,2260,2261,2262,2263,2264,2265,2266,2267,2268,2269,2270,2271,2272,2273,2274,2275,2276,2277,2278,2279,2280,2281,2282,2283,2284,2285,2286,2287,2288,2289,2290,2291,2292,2293,2294,2295,2296,2297,2298,2299,2300,2301,2302,2303,2304,2305,2306,2307,2308,2309,2310,2311,2312,2313,2314,2315,2316,2317,2318,2319,2320,2321,2322,2323,2324,2325,2326,2327,2328,2329,2330,2331,2332,2333,2334,2335,2336,2337,2338,2339,2340,2341,2342,2343,2344,2345,2346,2347,2348,2349,2350,2351,2352,2353,2354,2355,2356,2357,2358,2359,2360,2361,2362,2363,2364,2365,2366,2367,2368,2369,2370,2371,2372,2373,2374,2375,2376,2377,2378,2379,2380,2381,2382,2383,2384,2385,2386,2387,2388,2389,2390,2391,2392,2393,2394,2395,2396,2397,2398,2399,2400,2401,2402,2403,2404,2405,2406,2407,2408,2409,2410,2411,2412,2413,2414,2415,2416,2417,2418,2419,2420,2421,2422,2423,2424,2425,2426,2427,2428,2429,2430,2431,2432,2433,2434,2435,2436,2437,2438,2439,2440,2441,2442,2443,2444,2445,2446,2447,2448,2449,2450,2451,2452,2453,2454,2455,2456,2457,2458,2459,2460,2461,2462,2463,2464,2465,2466,2467,2468,2469,2470,2471,2472,2473,2474,2475,2476,2477,2478,2479,2480,2481,2482,2483,2484,2485,2486,2487,2488,2489,2490,2491,2492,2493,2494,2495,2496,2497,2498,2499,2500,2501,2502,2503,2504,2505,2506,2507,2508,2509,2510,2511,2512,2513,2514,2515,2516,2517,2518,2519,2520,2521,2522,2523,2524,2525,2526,2527,2528,2529,2530,2531,2532,2533,2534,2535,2536,2537,2538,2539,2540,2541,2542,2543,2544,2545,2546,2547,2548,2549,2550,2551,2552,2553,2554,2555,2556,2557,2558,2559,2560,2561,2562,2563,2564,2565,2566,2567,2568,2569,2570,2571,2572,2573,2574,2575,2576,2577,2578,2579,2580,2581,2582,2583,2584,2585,2586,2587,2588,2589,2590,2591,2592,2593,2594,2595,2596,2597,2598,2599,2600,2601,2602,2603,2604,2605,2606,2607,2608,2609,2610,2611,2612,2613,2614,2615,2616,2617,2618,2619,2620,2621,2622,2623,2624,2625,2626,2627,2628,2629,2630,2631,2632,2633,2634,2635,2636,2637,2638,2639,2640,2641,2642,2643,2644,2645,2646,2647,2648,2649,2650,2651,2652,2653,2654,2655,2656,2657,2658,2659,2660,2661,2662,2663,2664,2665,2666,2667,2668,2669,2670,2671,2672,2673,2674,2675,2676,2677,2678,2679,2680,2681,2682,2683,2684,2685,2686,2687,2688,2689,2690,2691,2692,2693,2694,2695,2696,2697,2698,2699,2700,2701,2702,2703,2704,2705,2706,2707,2708,2709,2710,2711,2712,2713,2714,2715,2716,2717,2718,2719,2720,2721,2722,2723,2724,2725,2726,2727,2728,2729,2730,2731,2732,2733,2734,2735,2736,2737,2738,2739,2740,2741,2742,2743,2744,2745,2746,2747,2748,2749,2750,2751,2752,2753,2754,2755,2756,2757,2758,2759,2760,2761,2762,2763,2764,2765,2766,2767,2768,2769,2770,2771,2772,2773,2774,2775,2776,2777,2778,2779,2780,2781,2782,2783,2784,2785,2786,2787,2788,2789,2790,2791,2792,2793,2794,2795,2796,2797,2798,2799,2800,2801,2802,2803,2804,2805,2806,2807,2808,2809,2810,2811,2812,2813,2814,2815,2816,2817,2818,2819,2820,2821,2822,2823,2824,2825,2826,2827,2828,2829,2830,2831,2832,2833,2834,2835,2836,2837,2838,2839,2840,2841,2842,2843,2844,2845,2846,2847,2848,2849,2850,2851,2852,2853,2854,2855,2856,2857,2858,2859,2860,2861,2862,2863,2864,2865,2866,2867,2868,2869,2870,2871,2872,2873,2874,2875,2876,2877,2878,2879,2880,2881,2882,2883,2884,2885,2886,2887,2888,2889,2890,2891,2892,2893,2894,2895,2896,2897,2898,2899,2900,2901,2902,2903,2904,2905,2906,2907,2908,2909,2910,2911,2912,2913,2914,2915,2916,2917,2918,2919,2920,2921,2922,2923,2924,2925,2926,2927,2928,2929,2930,2931,2932,2933,2934,2935,2936,2937,2938,2939,2940,2941,2942,2943,2944,2945,2946,2947,2948,2949,2950,2951,2952,2953,2954,2955,2956,2957,2958,2959,2960,2961,2962,2963,2964,2965,2966,2967,2968,2969,2970,2971,2972,2973,2974,2975,2976,2977,2978,2979,2980,2981,2982,2983,2984,2985,2986,2987,2988,2989,2990,2991,2992,2993,2994,2995,2996,2997,2998,2999,3000,3001,3002,3003,3004,3005,3006,3007,3008,3009,3010,3011,3012,3013,3014,3015,3016,3017,3018,3019,3020,3021,3022,3023,3024,3025,3026,3027,3028,3029,3030,3031,3032,3033,3034,3035,3036,3037,3038,3039,3040,3041,3042,3043,3044,3045,3046,3047,3048,3049,3050,3051,3052,3053,3054,3055,3056,3057,3058,3059,3060,3061,3062,3063,3064,3065,3066,3067,3068,3069,3070,3071,3072,3073,3074,3075,3076,3077,3078,3079,3080,3081,3082,3083,3084,3085,3086,3087,3088,3089,3090,3091,3092,3093,3094,3095,3096,3097,3098,3099,3100,3101],"tree_info":[0,0,0,0,0,0,0,0,0,0,0,0,0,0,0,0,0,0,0,0,0,0,0,0,0,0,0,0,0,0,0,0,0,0,0,0,0,0,0,0,0,0,0,0,0,0,0,0,0,0,0,0,0,0,0,0,0,0,0,0,0,0,0,0,0,0,0,0,0,0,0,0,0,0,0,0,0,0,0,0,0,0,0,0,0,0,0,0,0,0,0,0,0,0,0,0,0,0,0,0,0,0,0,0,0,0,0,0,0,0,0,0,0,0,0,0,0,0,0,0,0,0,0,0,0,0,0,0,0,0,0,0,0,0,0,0,0,0,0,0,0,0,0,0,0,0,0,0,0,0,0,0,0,0,0,0,0,0,0,0,0,0,0,0,0,0,0,0,0,0,0,0,0,0,0,0,0,0,0,0,0,0,0,0,0,0,0,0,0,0,0,0,0,0,0,0,0,0,0,0,0,0,0,0,0,0,0,0,0,0,0,0,0,0,0,0,0,0,0,0,0,0,0,0,0,0,0,0,0,0,0,0,0,0,0,0,0,0,0,0,0,0,0,0,0,0,0,0,0,0,0,0,0,0,0,0,0,0,0,0,0,0,0,0,0,0,0,0,0,0,0,0,0,0,0,0,0,0,0,0,0,0,0,0,0,0,0,0,0,0,0,0,0,0,0,0,0,0,0,0,0,0,0,0,0,0,0,0,0,0,0,0,0,0,0,0,0,0,0,0,0,0,0,0,0,0,0,0,0,0,0,0,0,0,0,0,0,0,0,0,0,0,0,0,0,0,0,0,0,0,0,0,0,0,0,0,0,0,0,0,0,0,0,0,0,0,0,0,0,0,0,0,0,0,0,0,0,0,0,0,0,0,0,0,0,0,0,0,0,0,0,0,0,0,0,0,0,0,0,0,0,0,0,0,0,0,0,0,0,0,0,0,0,0,0,0,0,0,0,0,0,0,0,0,0,0,0,0,0,0,0,0,0,0,0,0,0,0,0,0,0,0,0,0,0,0,0,0,0,0,0,0,0,0,0,0,0,0,0,0,0,0,0,0,0,0,0,0,0,0,0,0,0,0,0,0,0,0,0,0,0,0,0,0,0,0,0,0,0,0,0,0,0,0,0,0,0,0,0,0,0,0,0,0,0,0,0,0,0,0,0,0,0,0,0,0,0,0,0,0,0,0,0,0,0,0,0,0,0,0,0,0,0,0,0,0,0,0,0,0,0,0,0,0,0,0,0,0,0,0,0,0,0,0,0,0,0,0,0,0,0,0,0,0,0,0,0,0,0,0,0,0,0,0,0,0,0,0,0,0,0,0,0,0,0,0,0,0,0,0,0,0,0,0,0,0,0,0,0,0,0,0,0,0,0,0,0,0,0,0,0,0,0,0,0,0,0,0,0,0,0,0,0,0,0,0,0,0,0,0,0,0,0,0,0,0,0,0,0,0,0,0,0,0,0,0,0,0,0,0,0,0,0,0,0,0,0,0,0,0,0,0,0,0,0,0,0,0,0,0,0,0,0,0,0,0,0,0,0,0,0,0,0,0,0,0,0,0,0,0,0,0,0,0,0,0,0,0,0,0,0,0,0,0,0,0,0,0,0,0,0,0,0,0,0,0,0,0,0,0,0,0,0,0,0,0,0,0,0,0,0,0,0,0,0,0,0,0,0,0,0,0,0,0,0,0,0,0,0,0,0,0,0,0,0,0,0,0,0,0,0,0,0,0,0,0,0,0,0,0,0,0,0,0,0,0,0,0,0,0,0,0,0,0,0,0,0,0,0,0,0,0,0,0,0,0,0,0,0,0,0,0,0,0,0,0,0,0,0,0,0,0,0,0,0,0,0,0,0,0,0,0,0,0,0,0,0,0,0,0,0,0,0,0,0,0,0,0,0,0,0,0,0,0,0,0,0,0,0,0,0,0,0,0,0,0,0,0,0,0,0,0,0,0,0,0,0,0,0,0,0,0,0,0,0,0,0,0,0,0,0,0,0,0,0,0,0,0,0,0,0,0,0,0,0,0,0,0,0,0,0,0,0,0,0,0,0,0,0,0,0,0,0,0,0,0,0,0,0,0,0,0,0,0,0,0,0,0,0,0,0,0,0,0,0,0,0,0,0,0,0,0,0,0,0,0,0,0,0,0,0,0,0,0,0,0,0,0,0,0,0,0,0,0,0,0,0,0,0,0,0,0,0,0,0,0,0,0,0,0,0,0,0,0,0,0,0,0,0,0,0,0,0,0,0,0,0,0,0,0,0,0,0,0,0,0,0,0,0,0,0,0,0,0,0,0,0,0,0,0,0,0,0,0,0,0,0,0,0,0,0,0,0,0,0,0,0,0,0,0,0,0,0,0,0,0,0,0,0,0,0,0,0,0,0,0,0,0,0,0,0,0,0,0,0,0,0,0,0,0,0,0,0,0,0,0,0,0,0,0,0,0,0,0,0,0,0,0,0,0,0,0,0,0,0,0,0,0,0,0,0,0,0,0,0,0,0,0,0,0,0,0,0,0,0,0,0,0,0,0,0,0,0,0,0,0,0,0,0,0,0,0,0,0,0,0,0,0,0,0,0,0,0,0,0,0,0,0,0,0,0,0,0,0,0,0,0,0,0,0,0,0,0,0,0,0,0,0,0,0,0,0,0,0,0,0,0,0,0,0,0,0,0,0,0,0,0,0,0,0,0,0,0,0,0,0,0,0,0,0,0,0,0,0,0,0,0,0,0,0,0,0,0,0,0,0,0,0,0,0,0,0,0,0,0,0,0,0,0,0,0,0,0,0,0,0,0,0,0,0,0,0,0,0,0,0,0,0,0,0,0,0,0,0,0,0,0,0,0,0,0,0,0,0,0,0,0,0,0,0,0,0,0,0,0,0,0,0,0,0,0,0,0,0,0,0,0,0,0,0,0,0,0,0,0,0,0,0,0,0,0,0,0,0,0,0,0,0,0,0,0,0,0,0,0,0,0,0,0,0,0,0,0,0,0,0,0,0,0,0,0,0,0,0,0,0,0,0,0,0,0,0,0,0,0,0,0,0,0,0,0,0,0,0,0,0,0,0,0,0,0,0,0,0,0,0,0,0,0,0,0,0,0,0,0,0,0,0,0,0,0,0,0,0,0,0,0,0,0,0,0,0,0,0,0,0,0,0,0,0,0,0,0,0,0,0,0,0,0,0,0,0,0,0,0,0,0,0,0,0,0,0,0,0,0,0,0,0,0,0,0,0,0,0,0,0,0,0,0,0,0,0,0,0,0,0,0,0,0,0,0,0,0,0,0,0,0,0,0,0,0,0,0,0,0,0,0,0,0,0,0,0,0,0,0,0,0,0,0,0,0,0,0,0,0,0,0,0,0,0,0,0,0,0,0,0,0,0,0,0,0,0,0,0,0,0,0,0,0,0,0,0,0,0,0,0,0,0,0,0,0,0,0,0,0,0,0,0,0,0,0,0,0,0,0,0,0,0,0,0,0,0,0,0,0,0,0,0,0,0,0,0,0,0,0,0,0,0,0,0,0,0,0,0,0,0,0,0,0,0,0,0,0,0,0,0,0,0,0,0,0,0,0,0,0,0,0,0,0,0,0,0,0,0,0,0,0,0,0,0,0,0,0,0,0,0,0,0,0,0,0,0,0,0,0,0,0,0,0,0,0,0,0,0,0,0,0,0,0,0,0,0,0,0,0,0,0,0,0,0,0,0,0,0,0,0,0,0,0,0,0,0,0,0,0,0,0,0,0,0,0,0,0,0,0,0,0,0,0,0,0,0,0,0,0,0,0,0,0,0,0,0,0,0,0,0,0,0,0,0,0,0,0,0,0,0,0,0,0,0,0,0,0,0,0,0,0,0,0,0,0,0,0,0,0,0,0,0,0,0,0,0,0,0,0,0,0,0,0,0,0,0,0,0,0,0,0,0,0,0,0,0,0,0,0,0,0,0,0,0,0,0,0,0,0,0,0,0,0,0,0,0,0,0,0,0,0,0,0,0,0,0,0,0,0,0,0,0,0,0,0,0,0,0,0,0,0,0,0,0,0,0,0,0,0,0,0,0,0,0,0,0,0,0,0,0,0,0,0,0,0,0,0,0,0,0,0,0,0,0,0,0,0,0,0,0,0,0,0,0,0,0,0,0,0,0,0,0,0,0,0,0,0,0,0,0,0,0,0,0,0,0,0,0,0,0,0,0,0,0,0,0,0,0,0,0,0,0,0,0,0,0,0,0,0,0,0,0,0,0,0,0,0,0,0,0,0,0,0,0,0,0,0,0,0,0,0,0,0,0,0,0,0,0,0,0,0,0,0,0,0,0,0,0,0,0,0,0,0,0,0,0,0,0,0,0,0,0,0,0,0,0,0,0,0,0,0,0,0,0,0,0,0,0,0,0,0,0,0,0,0,0,0,0,0,0,0,0,0,0,0,0,0,0,0,0,0,0,0,0,0,0,0,0,0,0,0,0,0,0,0,0,0,0,0,0,0,0,0,0,0,0,0,0,0,0,0,0,0,0,0,0,0,0,0,0,0,0,0,0,0,0,0,0,0,0,0,0,0,0,0,0,0,0,0,0,0,0,0,0,0,0,0,0,0,0,0,0,0,0,0,0,0,0,0,0,0,0,0,0,0,0,0,0,0,0,0,0,0,0,0,0,0,0,0,0,0,0,0,0,0,0,0,0,0,0,0,0,0,0,0,0,0,0,0,0,0,0,0,0,0,0,0,0,0,0,0,0,0,0,0,0,0,0,0,0,0,0,0,0,0,0,0,0,0,0,0,0,0,0,0,0,0,0,0,0,0,0,0,0,0,0,0,0,0,0,0,0,0,0,0,0,0,0,0,0,0,0,0,0,0,0,0,0,0,0,0,0,0,0,0,0,0,0,0,0,0,0,0,0,0,0,0,0,0,0,0,0,0,0,0,0,0,0,0,0,0,0,0,0,0,0,0,0,0,0,0,0,0,0,0,0,0,0,0,0,0,0,0,0,0,0,0,0,0,0,0,0,0,0,0,0,0,0,0,0,0,0,0,0,0,0,0,0,0,0,0,0,0,0,0,0,0,0,0,0,0,0,0,0,0,0,0,0,0,0,0,0,0,0,0,0,0,0,0,0,0,0,0,0,0,0,0,0,0,0,0,0,0,0,0,0,0,0,0,0,0,0,0,0,0,0,0,0,0,0,0,0,0,0,0,0,0,0,0,0,0,0,0,0,0,0,0,0,0,0,0,0,0,0,0,0,0,0,0,0,0,0,0,0,0,0,0,0,0,0,0,0,0,0,0,0,0,0,0,0,0,0,0,0,0,0,0,0,0,0,0,0,0,0,0,0,0,0,0,0,0,0,0,0,0,0,0,0,0,0,0,0,0,0,0,0,0,0,0,0,0,0,0,0,0,0,0,0,0,0,0,0,0,0,0,0,0,0,0,0,0,0,0,0,0,0,0,0,0,0,0,0,0,0,0,0,0,0,0,0,0,0,0,0,0,0,0,0,0,0,0,0,0,0,0,0,0,0,0,0,0,0,0,0,0,0,0,0,0,0,0,0,0,0,0,0,0,0,0,0,0,0,0,0,0,0,0,0,0,0,0,0,0,0,0,0,0,0,0,0,0,0,0,0,0,0,0,0,0,0,0,0,0,0,0,0,0,0,0,0,0,0,0,0,0,0,0,0,0,0,0,0,0,0,0,0,0,0,0,0,0,0,0,0,0,0,0,0,0,0,0,0,0,0,0,0,0,0,0,0,0,0,0,0,0,0,0,0,0,0,0,0,0,0,0,0,0,0,0,0,0,0,0,0,0,0,0,0,0,0,0,0,0,0,0,0,0,0,0,0,0,0,0,0,0,0,0,0,0,0,0,0,0,0,0,0,0,0,0,0,0,0,0,0,0,0,0,0,0,0,0,0,0,0,0,0,0,0,0,0,0,0,0,0,0,0,0,0,0,0,0,0,0,0,0,0,0,0,0,0,0,0,0,0,0,0,0,0,0,0,0,0,0,0,0,0,0,0,0,0,0,0,0,0,0,0,0,0,0,0,0,0,0,0,0,0,0,0,0,0,0,0,0,0,0,0,0,0,0,0,0,0,0,0,0,0,0,0,0,0,0,0,0,0,0,0,0,0,0,0,0,0,0,0,0,0,0,0,0,0,0,0,0,0,0,0,0,0,0,0,0,0,0,0,0,0,0,0,0,0,0,0,0,0,0,0,0,0,0,0,0,0,0,0,0,0,0,0,0,0,0,0,0,0,0,0,0,0,0,0,0,0,0,0,0,0,0,0,0,0,0,0,0,0,0,0,0,0,0,0,0,0,0,0,0,0,0,0,0,0,0,0,0,0,0,0,0,0,0,0,0,0,0,0,0,0,0,0,0,0,0,0,0,0,0,0,0,0,0,0,0,0,0,0,0,0,0,0,0,0,0,0,0,0,0,0,0,0,0,0,0,0,0,0,0,0,0,0,0,0,0,0,0,0,0,0,0,0,0,0,0,0,0,0,0,0,0,0,0,0,0,0,0,0,0,0,0,0,0,0,0,0,0,0,0,0,0,0,0,0,0,0,0,0,0,0,0,0,0,0,0,0,0,0,0,0,0,0,0,0,0,0,0,0,0,0,0,0,0,0,0,0,0,0,0,0,0,0,0,0,0,0,0,0,0,0,0,0,0,0,0,0,0,0,0,0,0,0,0,0,0,0,0,0,0,0,0,0,0,0,0,0,0,0,0,0,0,0,0,0,0,0,0,0,0,0,0,0,0,0,0,0,0,0,0,0,0,0,0,0,0,0,0,0,0,0,0,0,0,0,0,0,0,0,0,0,0,0,0,0,0,0,0,0,0,0,0,0,0,0,0,0,0,0,0,0,0,0,0,0,0,0,0,0,0,0,0,0,0,0,0,0,0,0,0,0,0,0,0,0,0,0,0,0,0,0,0,0,0,0,0,0,0,0,0,0,0,0,0,0,0,0,0,0,0,0,0,0,0,0,0,0,0,0,0],"trees":[{"base_weights":[-2.8249228E-3,-2.576449E0,3.9679813E0,-4.5693803E0,-1.1339048E0,2.5348523E0,7.168196E0,-9.656982E-1,-6.492212E-1,1.6271986E-2,-4.8016766E-1,6.338087E-1,8.676422E-2,1.0714092E0,1.6919637E0],"categories":[],"categories_nodes":[],"categories_segments":[],"categories_sizes":[],"default_left":[0,0,0,0,0,0,0,0,0,0,0,0,0,0,0],"id":0,"left_children":[1,3,5,7,9,11,13,-1,-1,-1,-1,-1,-1,-1,-1],"loss_changes":[2.8078672E5,4.792547E4,4.9552047E4,5.8193438E3,1.9774059E4,1.754061E4,8.3144375E3,0E0,0E0,0E0,0E0,0E0,0E0,0E0,0E0],"parents":[2147483647,0,0,1,1,2,2,3,3,4,4,5,5,6,6],"right_children":[2,4,6,8,10,12,14,-1,-1,-1,-1,-1,-1,-1,-1],"split_conditions":[1.2066667E1,8.2E0,1.6433332E1,6.5333333E0,1.08E1,1.54E1,1.98E1,-9.656982E-1,-6.492212E-1,1.6271986E-2,-4.8016766E-1,6.338087E-1,8.676422E-2,1.0714092E0,1.6919637E0],"split_indices":[2,2,2,2,6,6,2,0,0,0,0,0,0,0,0],"split_type":[0,0,0,0,0,0,0,0,0,0,0,0,0,0,0],"sum_hessian":[2.7476E4,1.6671E4,1.0805E4,7E3,9.671E3,7.463E3,3.342E3,2.985E3,4.015E3,5.563E3,4.108E3,4.751E3,2.712E3,2.487E3,8.55E2],"tree_param":{"num_deleted":"0","num_feature":"9","num_nodes":"15","size_leaf_vector":"1"}},{"base_weights":[-8.390582E-4,-1.3827332E0,2.6287491E0,-3.0757444E0,-9.662946E-1,2.0670557E0,5.4895535E0,-5.598175E-1,-1.9377048E-1,-2.2872666E-1,9.5965475E-2,2.4258734E-1,5.1841503E-1,8.305408E-1,1.343489E0],"categories":[],"categories_nodes":[],"categories_segments":[],"categories_sizes":[],"default_left":[0,0,0,0,0,0,0,0,0,0,0,0,0,0,0],"id":1,"left_children":[1,3,5,7,9,11,13,-1,-1,-1,-1,-1,-1,-1,-1],"loss_changes":[9.963147E4,1.2670293E4,1.51746875E4,1.2850977E3,8.0646113E3,4.91925E3,2.3525078E3,0E0,0E0,0E0,0E0,0E0,0E0,0E0,0E0],"parents":[2147483647,0,0,1,1,2,2,3,3,4,4,5,5,6,6],"right_children":[2,4,6,8,10,12,14,-1,-1,-1,-1,-1,-1,-1,-1],"split_conditions":[1.32E1,1.5E1,2.01E1,6.1E0,5.7E0,1.63E1,2.42E1,-5.598175E-1,-1.9377048E-1,-2.2872666E-1,9.5965475E-2,2.4258734E-1,5.1841503E-1,8.305408E-1,1.343489E0],"split_indices":[5,0,5,1,1,5,5,0,0,0,0,0,0,0,0],"split_type":[0,0,0,0,0,0,0,0,0,0,0,0,0,0,0],"sum_hessian":[2.7418E4,1.7973E4,9.445E3,3.548E3,1.4425E4,7.895E3,1.55E3,3.238E3,3.1E2,1.1631E4,2.794E3,4.685E3,3.21E3,1.213E3,3.37E2],"tree_param":{"num_deleted":"0","num_feature":"9","num_nodes":"15","size_leaf_vector":"1"}},{"base_weights":[-2.9677239E-3,-2.3854055E0,2.478176E0,-3.7488601E0,-1.4858649E0,1.1202024E0,4.652131E0,-8.223543E-1,-5.6487775E-1,7.1759626E-2,-3.4079963E-1,5.443319E-1,1.0245669E-1,6.646524E-1,1.1277161E0],"categories":[],"categories_nodes":[],"categories_segments":[],"categories_sizes":[],"default_left":[0,0,0,0,0,0,0,0,0,0,0,0,0,0,0],"id":2,"left_children":[1,3,5,7,9,11,13,-1,-1,-1,-1,-1,-1,-1,-1],"loss_changes":[1.6248627E5,1.7197281E4,3.974915E4,2.6561719E3,8.0431387E3,8.894919E3,7.738164E3,0E0,0E0,0E0,0E0,0E0,0E0,0E0,0E0],"parents":[2147483647,0,0,1,1,2,2,3,3,4,4,5,5,6,6],"right_children":[2,4,6,8,10,12,14,-1,-1,-1,-1,-1,-1,-1,-1],"split_conditions":[1.0866667E1,7.633333E0,1.51E1,5.8333335E0,6.7E0,1.05E1,1.85E1,-8.223543E-1,-5.6487775E-1,7.1759626E-2,-3.4079963E-1,5.443319E-1,1.0245669E-1,6.646524E-1,1.1277161E0],"split_indices":[2,2,2,2,5,5,2,0,0,0,0,0,0,0,0],"split_type":[0,0,0,0,0,0,0,0,0,0,0,0,0,0,0],"sum_hessian":[2.7488E4,1.4023E4,1.3465E4,5.574E3,8.449E3,8.288E3,5.177E3,1.699E3,3.875E3,1.757E3,6.692E3,1.684E3,6.604E3,3.682E3,1.495E3],"tree_param":{"num_deleted":"0","num_feature":"9","num_nodes":"15","size_leaf_vector":"1"}},{"base_weights":[2.0457208E-3,-1.4583827E0,2.8673985E0,-2.6912062E0,-2.5025585E-1,2.0921984E0,4.756487E0,-3.7673634E-1,-6.427343E-1,1.3629843E-1,-4.057739E-1,5.1118493E-1,-2.9931346E-2,1.08623E0,6.3524276E-1],"categories":[],"categories_nodes":[],"categories_segments":[],"categories_sizes":[],"default_left":[0,0,0,0,0,0,0,0,0,0,0,0,0,0,0],"id":3,"left_children":[1,3,5,7,9,11,13,-1,-1,-1,-1,-1,-1,-1,-1],"loss_changes":[1.1472662E5,2.7046688E4,1.3552477E4,4.6965977E3,2.0253623E4,1.3187311E4,4.465426E3,0E0,0E0,0E0,0E0,0E0,0E0,0E0,0E0],"parents":[2147483647,0,0,1,1,2,2,3,3,4,4,5,5,6,6],"right_children":[2,4,6,8,10,12,14,-1,-1,-1,-1,-1,-1,-1,-1],"split_conditions":[1.2766666E1,8.933333E0,1.7033333E1,8.3E0,1.25E1,1.68E1,1.83E1,-3.7673634E-1,-6.427343E-1,1.3629843E-1,-4.057739E-1,5.1118493E-1,-2.9931346E-2,1.08623E0,6.3524276E-1],"split_indices":[2,2,2,6,6,6,6,0,0,0,0,0,0,0,0],"split_type":[0,0,0,0,0,0,0,0,0,0,0,0,0,0,0],"sum_hessian":[2.7416E4,1.816E4,9.256E3,8.988E3,9.172E3,6.563E3,2.693E3,6.112E3,2.876E3,6.139E3,3.033E3,4.718E3,1.845E3,1.081E3,1.612E3],"tree_param":{"num_deleted":"0","num_feature":"9","num_nodes":"15","size_leaf_vector":"1"}},{"base_weights":[-4.0432834E-4,-1.0233167E0,2.8831582E0,-2.0981894E0,1.5372708E-1,2.4671438E0,4.9864597E0,-5.247103E-1,-2.711159E-1,1.8810199E-1,-3.464282E-1,5.571682E-1,7.301705E-2,1.1127172E0,6.803706E-1],"categories":[],"categories_nodes":[],"categories_segments":[],"categories_sizes":[],"default_left":[0,0,0,0,0,0,0,0,0,0,0,0,0,0,0],"id":4,"left_children":[1,3,5,7,9,11,13,-1,-1,-1,-1,-1,-1,-1,-1],"loss_changes":[8.0913695E4,2.5619098E4,6.2827383E3,5.261883E3,1.9784504E4,9.542152E3,1.8114277E3,0E0,0E0,0E0,0E0,0E0,0E0,0E0,0E0],"parents":[2147483647,0,0,1,1,2,2,3,3,4,4,5,5,6,6],"right_children":[2,4,6,8,10,12,14,-1,-1,-1,-1,-1,-1,-1,-1],"split_conditions":[1.3833333E1,9.5E0,1.9066668E1,6.866667E0,1.36E1,1.81E1,2.03E1,-5.247103E-1,-2.711159E-1,1.8810199E-1,-3.464282E-1,5.571682E-1,7.301705E-2,1.1127172E0,6.803706E-1],"split_indices":[2,2,2,2,6,6,6,0,0,0,0,0,0,0,0],"split_type":[0,0,0,0,0,0,0,0,0,0,0,0,0,0,0],"sum_hessian":[2.7432E4,2.0249E4,7.183E3,1.0584E4,9.665E3,5.997E3,1.186E3,3.713E3,6.871E3,6.741E3,2.924E3,4.34E3,1.657E3,4.81E2,7.05E2],"tree_param":{"num_deleted":"0","num_feature":"9","num_nodes":"15","size_leaf_vector":"1"}},{"base_weights":[-1.4582017E-2,-1.5285246E0,1.404422E0,-1.0803033E0,-2.6157048E0,5.3508836E-1,2.6695921E0,-4.0581205E-1,-1.6030889E-2,-5.2392715E-1,-2.9022932E-1,2.569239E-1,-2.3839603E-1,9.72588E-1,4.1138765E-1],"categories":[],"categories_nodes":[],"categories_segments":[],"categories_sizes":[],"default_left":[0,0,0,0,0,0,0,0,0,0,0,0,0,0,0],"id":5,"left_children":[1,3,5,7,9,11,13,-1,-1,-1,-1,-1,-1,-1,-1],"loss_changes":[5.888254E4,6.4608555E3,1.5559713E4,1.1901015E4,1.5631191E3,1.5523025E4,4.703508E3,0E0,0E0,0E0,0E0,0E0,0E0,0E0,0E0],"parents":[2147483647,0,0,1,1,2,2,3,3,4,4,5,5,6,6],"right_children":[2,4,6,8,10,12,14,-1,-1,-1,-1,-1,-1,-1,-1],"split_conditions":[1.0566667E1,9.7E0,1.4666667E1,7.133333E0,9.7E0,1.42E1,1.33E1,-4.0581205E-1,-1.6030889E-2,-5.2392715E-1,-2.9022932E-1,2.569239E-1,-2.3839603E-1,9.72588E-1,4.1138765E-1],"split_indices":[2,6,2,2,2,6,5,0,0,0,0,0,0,0,0],"split_type":[0,0,0,0,0,0,0,0,0,0,0,0,0,0,0],"sum_hessian":[2.7409E4,1.3261E4,1.4148E4,9.39E3,3.871E3,8.386E3,5.762E3,4.08E3,5.31E3,2.628E3,1.243E3,5.591E3,2.795E3,4.8E2,5.282E3],"tree_param":{"num_deleted":"0","num_feature":"9","num_nodes":"15","size_leaf_vector":"1"}},{"base_weights":[-6.851625E-3,-1.1098696E0,1.3508276E0,-1.8633754E0,-6.2722206E-1,7.616058E-1,2.6539216E0,-2.5193384E-1,-4.6374017E-1,2.1165645E-1,-2.2779186E-1,3.8427866E-1,-1.3440248E-2,7.178446E-1,3.5997456E-1],"categories":[],"categories_nodes":[],"categories_segments":[],"categories_sizes":[],"default_left":[0,0,0,0,0,0,0,0,0,0,0,0,0,0,0],"id":6,"left_children":[1,3,5,7,9,11,13,-1,-1,-1,-1,-1,-1,-1,-1],"loss_changes":[4.1106023E4,5.5070957E3,9.446045E3,1.9596562E3,1.2025291E4,1.0515953E4,3.2568027E3,0E0,0E0,0E0,0E0,0E0,0E0,0E0,0E0],"parents":[2147483647,0,0,1,1,2,2,3,3,4,4,5,5,6,6],"right_children":[2,4,6,8,10,12,14,-1,-1,-1,-1,-1,-1,-1,-1],"split_conditions":[1.1333333E1,7.766667E0,1.6E1,7.4E0,7.5E0,1.23E1,1.6E1,-2.5193384E-1,-4.6374017E-1,2.1165645E-1,-2.2779186E-1,3.8427866E-1,-1.3440248E-2,7.178446E-1,3.5997456E-1],"split_indices":[2,2,2,6,6,6,6,0,0,0,0,0,0,0,0],"split_type":[0,0,0,0,0,0,0,0,0,0,0,0,0,0,0],"sum_hessian":[2.7449E4,1.5145E4,1.2304E4,5.913E3,9.232E3,8.473E3,3.831E3,4.019E3,1.894E3,2.524E3,6.708E3,3.071E3,5.402E3,1.022E3,2.809E3],"tree_param":{"num_deleted":"0","num_feature":"9","num_nodes":"15","size_leaf_vector":"1"}},{"base_weights":[5.6235767E-3,-6.8842083E-1,1.6340336E0,-1.2674963E0,-1.7824838E-2,3.9083858E0,1.3051398E0,-1.4917791E-1,-3.6471114E-1,3.4792292E-1,-1.2634954E-1,8.313363E-1,2.9568473E-1,1.2150127E-1,4.808916E-1],"categories":[],"categories_nodes":[],"categories_segments":[],"categories_sizes":[],"default_left":[0,0,0,0,0,0,0,0,0,0,0,0,0,0,0],"id":7,"left_children":[1,3,5,7,9,11,13,-1,-1,-1,-1,-1,-1,-1,-1],"loss_changes":[3.1045463E4,7.4787393E3,6.1388145E3,3.5290195E3,1.311256E4,2.1185781E3,6.4101875E3,0E0,0E0,0E0,0E0,0E0,0E0,0E0,0E0],"parents":[2147483647,0,0,1,1,2,2,3,3,4,4,5,5,6,6],"right_children":[2,4,6,8,10,12,14,-1,-1,-1,-1,-1,-1,-1,-1],"split_conditions":[1.33E1,9.433333E0,1.28E1,8.7E0,9.3E0,1.75E1,1.7733334E1,-1.4917791E-1,-3.6471114E-1,3.4792292E-1,-1.2634954E-1,8.313363E-1,2.9568473E-1,1.2150127E-1,4.808916E-1],"split_indices":[2,2,5,6,5,6,2,0,0,0,0,0,0,0,0],"split_type":[0,0,0,0,0,0,0,0,0,0,0,0,0,0,0],"sum_hessian":[2.7469E4,1.926E4,8.209E3,1.0335E4,8.925E3,1.037E3,7.172E3,7.058E3,3.277E3,2.32E3,6.605E3,7.26E2,3.11E2,5.127E3,2.045E3],"tree_param":{"num_deleted":"0","num_feature":"9","num_nodes":"15","size_leaf_vector":"1"}},{"base_weights":[6.689476E-3,-5.070006E-1,1.5024371E0,-9.9681365E-1,1.4552496E-1,3.3961604E0,1.17601E0,-1.0856732E-1,-3.4900534E-1,2.3579414E-1,-1.5572253E-1,9.967575E-1,4.5665762E-1,1.5928882E-1,7.406634E-1],"categories":[],"categories_nodes":[],"categories_segments":[],"categories_sizes":[],"default_left":[0,0,0,0,0,0,0,0,0,0,0,0,0,0,0],"id":8,"left_children":[1,3,5,7,9,11,13,-1,-1,-1,-1,-1,-1,-1,-1],"loss_changes":[2.1099234E4,6.5332173E3,4.3380225E3,4.408087E3,1.1335716E4,1.8273408E3,4.6580615E3,0E0,0E0,0E0,0E0,0E0,0E0,0E0,0E0],"parents":[2147483647,0,0,1,1,2,2,3,3,4,4,5,5,6,6],"right_children":[2,4,6,8,10,12,14,-1,-1,-1,-1,-1,-1,-1,-1],"split_conditions":[1.3966666E1,9.933333E0,1.37E1,8.9E0,1.17E1,1.43E1,2.1233334E1,-1.0856732E-1,-3.4900534E-1,2.3579414E-1,-1.5572253E-1,9.967575E-1,4.5665762E-1,1.5928882E-1,7.406634E-1],"split_indices":[2,2,5,5,6,6,2,0,0,0,0,0,0,0,0],"split_type":[0,0,0,0,0,0,0,0,0,0,0,0,0,0,0],"sum_hessian":[2.746E4,2.044E4,7.02E3,1.1676E4,8.764E3,1.032E3,5.988E3,8.641E3,3.035E3,4.045E3,4.719E3,2.41E2,7.91E2,5.55E3,4.38E2],"tree_param":{"num_deleted":"0","num_feature":"9","num_nodes":"15","size_leaf_vector":"1"}},{"base_weights":[-5.0031426E-3,-5.4214114E-1,1.0284662E0,-3.605394E-1,-2.1243846E0,3.15674E0,7.730348E-1,-1.848611E-1,4.988232E-2,-1.9026724E-1,-5.44168E-1,6.695512E-1,5.7670403E-2,-5.2607665E-3,2.524221E-1],"categories":[],"categories_nodes":[],"categories_segments":[],"categories_sizes":[],"default_left":[0,0,0,0,0,0,0,0,0,0,0,0,0,0,0],"id":9,"left_children":[1,3,5,7,9,11,13,-1,-1,-1,-1,-1,-1,-1,-1],"loss_changes":[1.5225556E4,5.1850757E3,5.097962E3,7.5556533E3,1.9734541E3,2.109662E3,4.697348E3,0E0,0E0,0E0,0E0,0E0,0E0,0E0,0E0],"parents":[2147483647,0,0,1,1,2,2,3,3,4,4,5,5,6,6],"right_children":[2,4,6,8,10,12,14,-1,-1,-1,-1,-1,-1,-1,-1],"split_conditions":[1.27E1,1.32E1,1.19E1,8.466666E0,8.9E0,1.83E1,1.5466666E1,-1.848611E-1,4.988232E-2,-1.9026724E-1,-5.44168E-1,6.695512E-1,5.7670403E-2,-5.2607665E-3,2.524221E-1],"split_indices":[2,5,5,2,6,6,2,0,0,0,0,0,0,0,0],"split_type":[0,0,0,0,0,0,0,0,0,0,0,0,0,0,0],"sum_hessian":[2.7428E4,1.8048E4,9.38E3,1.619E4,1.858E3,1.005E3,8.375E3,7.708E3,8.482E3,9.43E2,9.15E2,7.95E2,2.1E2,3.892E3,4.483E3],"tree_param":{"num_deleted":"0","num_feature":"9","num_nodes":"15","size_leaf_vector":"1"}},{"base_weights":[1.5404114E-3,-5.873217E-1,7.094573E-1,-2.6551887E-1,-1.5332727E0,2.4632103E0,4.6207884E-1,-2.417251E-1,3.8818955E-2,-2.2001931E-1,-4.1684997E-1,7.026504E-1,3.2487965E-1,-5.7616718E-2,1.832874E-1],"categories":[],"categories_nodes":[],"categories_segments":[],"categories_sizes":[],"default_left":[0,0,0,0,0,0,0,0,0,0,0,0,0,0,0],"id":10,"left_children":[1,3,5,7,9,11,13,-1,-1,-1,-1,-1,-1,-1,-1],"loss_changes":[1.1444662E4,4.561606E3,5.4077456E3,6.285525E3,8.548076E2,1.4311641E3,5.281969E3,0E0,0E0,0E0,0E0,0E0,0E0,0E0,0E0],"parents":[2147483647,0,0,1,1,2,2,3,3,4,4,5,5,6,6],"right_children":[2,4,6,8,10,12,14,-1,-1,-1,-1,-1,-1,-1,-1],"split_conditions":[1.13E1,9.9E0,1.09E1,6.733333E0,1.32E1,8.4E0,1.4333333E1,-2.417251E-1,3.8818955E-2,-2.2001931E-1,-4.1684997E-1,7.026504E-1,3.2487965E-1,-5.7616718E-2,1.832874E-1],"split_indices":[2,5,5,2,5,5,2,0,0,0,0,0,0,0,0],"split_type":[0,0,0,0,0,0,0,0,0,0,0,0,0,0,0],"sum_hessian":[2.7454E4,1.4987E4,1.2467E4,1.1183E4,3.804E3,1.541E3,1.0926E4,3.364E3,7.819E3,2.971E3,8.33E2,3.99E2,1.142E3,4.716E3,6.21E3],"tree_param":{"num_deleted":"0","num_feature":"9","num_nodes":"15","size_leaf_vector":"1"}},{"base_weights":[2.458386E-3,-5.9796584E-1,5.2726656E-1,-1.7425437E-1,-1.2604549E0,2.7017581E0,3.7631828E-1,-2.55797E-1,5.256944E-2,-1.7827642E-1,-3.5462078E-1,7.7116185E-1,3.7024543E-1,4.399456E-2,4.823835E-1],"categories":[],"categories_nodes":[],"categories_segments":[],"categories_sizes":[],"default_left":[0,0,0,0,0,0,0,0,0,0,0,0,0,0,0],"id":11,"left_children":[1,3,5,7,9,11,13,-1,-1,-1,-1,-1,-1,-1,-1],"loss_changes":[8.634554E3,3.586936E3,4.798468E3,4.9311577E3,8.8945605E2,9.2347217E2,3.9922744E3,0E0,0E0,0E0,0E0,0E0,0E0,0E0,0E0],"parents":[2147483647,0,0,1,1,2,2,3,3,4,4,5,5,6,6],"right_children":[2,4,6,8,10,12,14,-1,-1,-1,-1,-1,-1,-1,-1],"split_conditions":[1.0366667E1,8.1E0,8.6E0,6.1E0,1.15E1,6.1E0,2.04E1,-2.55797E-1,5.256944E-2,-1.7827642E-1,-3.5462078E-1,7.7116185E-1,3.7024543E-1,4.399456E-2,4.823835E-1],"split_indices":[2,5,5,2,5,5,2,0,0,0,0,0,0,0,0],"split_type":[0,0,0,0,0,0,0,0,0,0,0,0,0,0,0],"sum_hessian":[2.7402E4,1.278E4,1.4622E4,7.795E3,4.985E3,9.49E2,1.3673E4,2.085E3,5.71E3,3.91E3,1.075E3,2.21E2,7.28E2,1.3031E4,6.42E2],"tree_param":{"num_deleted":"0","num_feature":"9","num_nodes":"15","size_leaf_vector":"1"}},{"base_weights":[7.5318404E-3,-3.1530458E-1,7.167579E-1,1.2061287E-1,-1.2620313E0,1.7397149E0,8.57197E-2,-9.9954955E-2,1.6247319E-1,-1.7423294E-1,-5.9088343E-1,6.108383E-1,2.3045197E-1,-8.4450535E-2,2.0553738E-1],"categories":[],"categories_nodes":[],"categories_segments":[],"categories_sizes":[],"default_left":[0,0,0,0,0,0,0,0,0,0,0,0,0,0,0],"id":12,"left_children":[1,3,5,7,9,11,13,-1,-1,-1,-1,-1,-1,-1,-1],"loss_changes":[6.291145E3,7.7924565E3,5.5476963E3,7.5085435E3,3.202748E3,2.3664316E3,3.4156567E3,0E0,0E0,0E0,0E0,0E0,0E0,0E0,0E0],"parents":[2147483647,0,0,1,1,2,2,3,3,4,4,5,5,6,6],"right_children":[2,4,6,8,10,12,14,-1,-1,-1,-1,-1,-1,-1,-1],"split_conditions":[1.31E1,1.09E1,1.49E1,8.4E0,1.67E1,9.8E0,1.7733334E1,-9.9954955E-2,1.6247319E-1,-1.7423294E-1,-5.9088343E-1,6.108383E-1,2.3045197E-1,-8.4450535E-2,2.0553738E-1],"split_indices":[2,6,6,2,6,6,2,0,0,0,0,0,0,0,0],"split_type":[0,0,0,0,0,0,0,0,0,0,0,0,0,0,0],"sum_hessian":[2.7476E4,1.8881E4,8.595E3,1.2928E4,5.953E3,3.279E3,5.316E3,6.984E3,5.944E3,5.348E3,6.05E2,5.87E2,2.692E3,3.498E3,1.818E3],"tree_param":{"num_deleted":"0","num_feature":"9","num_nodes":"15","size_leaf_vector":"1"}},{"base_weights":[7.1750893E-3,9.072521E-1,-1.566447E-1,3.702373E-1,1.343222E0,-3.3907327E-1,2.2108477E-1,-1.7581937E-1,9.0276316E-2,-2.909057E-2,2.480191E-1,-4.4721395E-2,-2.5523794E-1,3.3666328E-2,8.400491E-1],"categories":[],"categories_nodes":[],"categories_segments":[],"categories_sizes":[],"default_left":[0,0,0,0,0,0,0,0,0,0,0,0,0,0,0],"id":13,"left_children":[1,3,5,7,9,11,13,-1,-1,-1,-1,-1,-1,-1,-1],"loss_changes":[4.0448079E3,9.883794E2,1.5991321E3,4.1117316E2,3.5996338E2,1.4096443E3,8.7830566E2,0E0,0E0,0E0,0E0,0E0,0E0,0E0,0E0],"parents":[2147483647,0,0,1,1,2,2,3,3,4,4,5,5,6,6],"right_children":[2,4,6,8,10,12,14,-1,-1,-1,-1,-1,-1,-1,-1],"split_conditions":[6E0,1.84E1,5.5E0,3.9E0,3.9E0,1.92E1,2.06E1,-1.7581937E-1,9.0276316E-2,-2.909057E-2,2.480191E-1,-4.4721395E-2,-2.5523794E-1,3.3666328E-2,8.400491E-1],"split_indices":[6,0,1,5,5,6,1,0,0,0,0,0,0,0,0],"split_type":[0,0,0,0,0,0,0,0,0,0,0,0,0,0,0],"sum_hessian":[2.743E4,4.224E3,2.3206E4,1.893E3,2.331E3,1.5649E4,7.557E3,1.9E2,1.703E3,1.47E2,2.184E3,1.4648E4,1.001E3,7.517E3,4E1],"tree_param":{"num_deleted":"0","num_feature":"9","num_nodes":"15","size_leaf_vector":"1"}},{"base_weights":[-6.6490634E-3,-3.770684E-1,5.128227E-1,9.286598E-2,-1.0765184E0,1.5680077E0,1.052321E-1,-1.20287575E-1,1.4612292E-1,-1.4488627E-1,-4.2732504E-1,8.1117153E-1,2.0817462E-1,-1.1509348E-1,1.3046086E-1],"categories":[],"categories_nodes":[],"categories_segments":[],"categories_sizes":[],"default_left":[0,0,0,0,0,0,0,0,0,0,0,0,0,0,0],"id":14,"left_children":[1,3,5,7,9,11,13,-1,-1,-1,-1,-1,-1,-1,-1],"loss_changes":[5.2894546E3,5.2748965E3,4.9204746E3,5.779397E3,2.1162397E3,3.5727236E3,4.194387E3,0E0,0E0,0E0,0E0,0E0,0E0,0E0,0E0],"parents":[2147483647,0,0,1,1,2,2,3,3,4,4,5,5,6,6],"right_children":[2,4,6,8,10,12,14,-1,-1,-1,-1,-1,-1,-1,-1],"split_conditions":[1.1766666E1,9.2E0,1.33E1,7.5E0,1.17E1,1.01E1,1.5366667E1,-1.20287575E-1,1.4612292E-1,-1.4488627E-1,-4.2732504E-1,8.1117153E-1,2.0817462E-1,-1.1509348E-1,1.3046086E-1],"split_indices":[2,6,5,2,5,6,2,0,0,0,0,0,0,0,0],"split_type":[0,0,0,0,0,0,0,0,0,0,0,0,0,0,0],"sum_hessian":[2.7489E4,1.6047E4,1.1442E4,9.598E3,6.449E3,3.188E3,8.254E3,4.69E3,4.908E3,5.539E3,9.1E2,3.22E2,2.866E3,3.778E3,4.476E3],"tree_param":{"num_deleted":"0","num_feature":"9","num_nodes":"15","size_leaf_vector":"1"}},{"base_weights":[1.9214199E-3,-4.394871E-1,3.4841484E-1,2.5752684E-1,-8.8907045E-1,1.732767E0,7.367721E-2,-2.0541391E-1,1.3936415E-1,-5.5982817E-2,-2.5256425E-1,6.5348303E-1,1.853814E-1,-4.9520645E-2,1.2219761E-1],"categories":[],"categories_nodes":[],"categories_segments":[],"categories_sizes":[],"default_left":[0,0,0,0,0,0,0,0,0,0,0,0,0,0,0],"id":15,"left_children":[1,3,5,7,9,11,13,-1,-1,-1,-1,-1,-1,-1,-1],"loss_changes":[4.19755E3,3.7822168E3,5.847426E3,3.8164775E3,2.4054058E3,3.4459307E3,2.9668552E3,0E0,0E0,0E0,0E0,0E0,0E0,0E0,0E0],"parents":[2147483647,0,0,1,1,2,2,3,3,4,4,5,5,6,6],"right_children":[2,4,6,8,10,12,14,-1,-1,-1,-1,-1,-1,-1,-1],"split_conditions":[1.01E1,6.7E0,9.6E0,5.766667E0,7.4E0,1.11E1,1.5366667E1,-2.0541391E-1,1.3936415E-1,-5.5982817E-2,-2.5256425E-1,6.5348303E-1,1.853814E-1,-4.9520645E-2,1.2219761E-1],"split_indices":[2,6,6,2,5,5,2,0,0,0,0,0,0,0,0],"split_type":[0,0,0,0,0,0,0,0,0,0,0,0,0,0,0],"sum_hessian":[2.7445E4,1.2069E4,1.5376E4,4.732E3,7.337E3,2.546E3,1.283E4,1.306E3,3.426E3,3.732E3,3.605E3,6.09E2,1.937E3,8.185E3,4.645E3],"tree_param":{"num_deleted":"0","num_feature":"9","num_nodes":"15","size_leaf_vector":"1"}},{"base_weights":[2.960157E-3,-4.6262595E-1,2.47699E-1,4.2194272E-3,-1.071391E0,2.005136E0,5.716454E-2,-1.9962381E-1,6.634339E-2,-1.4978197E-1,-3.6575672E-1,6.0574603E-1,1.5387811E-1,3.131747E-1,-1.0440822E-2],"categories":[],"categories_nodes":[],"categories_segments":[],"categories_sizes":[],"default_left":[0,0,0,0,0,0,0,0,0,0,0,0,0,0,0],"id":16,"left_children":[1,3,5,7,9,11,13,-1,-1,-1,-1,-1,-1,-1,-1],"loss_changes":[3.1246992E3,2.6854583E3,6.0183037E3,2.386489E3,8.623286E2,2.9694282E3,3.3832832E3,0E0,0E0,0E0,0E0,0E0,0E0,0E0,0E0],"parents":[2147483647,0,0,1,1,2,2,3,3,4,4,5,5,6,6],"right_children":[2,4,6,8,10,12,14,-1,-1,-1,-1,-1,-1,-1,-1],"split_conditions":[9.1E0,7E0,7.4E0,5.633333E0,1.06E1,1.22E1,7.4E0,-1.9962381E-1,6.634339E-2,-1.4978197E-1,-3.6575672E-1,6.0574603E-1,1.5387811E-1,3.131747E-1,-1.0440822E-2],"split_indices":[2,5,6,2,5,5,5,0,0,0,0,0,0,0,0],"split_type":[0,0,0,0,0,0,0,0,0,0,0,0,0,0,0],"sum_hessian":[2.7423E4,9.448E3,1.7975E4,5.347E3,4.101E3,1.758E3,1.6217E4,1.319E3,4.028E3,3.454E3,6.47E2,7.4E2,1.018E3,1.015E3,1.5202E4],"tree_param":{"num_deleted":"0","num_feature":"9","num_nodes":"15","size_leaf_vector":"1"}},{"base_weights":[-4.164771E-3,-1.918009E-1,6.058647E-1,-1.3720137E-2,-1.7866683E0,1.215521E0,-6.0961294E-1,1.7342197E-2,-2.8433627E-1,-2.5912935E-1,-6.3022035E-1,4.0880123E-1,7.622943E-2,-2.178125E-1,2.3974678E-1],"categories":[],"categories_nodes":[],"categories_segments":[],"categories_sizes":[],"default_left":[0,0,0,0,0,0,0,0,0,0,0,0,0,0,0],"id":17,"left_children":[1,3,5,7,9,11,13,-1,-1,-1,-1,-1,-1,-1,-1],"loss_changes":[3.1337642E3,5.9464126E3,4.7723867E3,3.5525942E3,1.0957075E3,3.858289E3,2.8467651E3,0E0,0E0,0E0,0E0,0E0,0E0,0E0,0E0],"parents":[2147483647,0,0,1,1,2,2,3,3,4,4,5,5,6,6],"right_children":[2,4,6,8,10,12,14,-1,-1,-1,-1,-1,-1,-1,-1],"split_conditions":[1.4266666E1,1.51E1,1.87E1,1.53E1,1.45E1,1.61E1,2.04E1,1.7342197E-2,-2.8433627E-1,-2.5912935E-1,-6.3022035E-1,4.0880123E-1,7.622943E-2,-2.178125E-1,2.3974678E-1],"split_indices":[2,6,6,5,5,5,2,0,0,0,0,0,0,0,0],"split_type":[0,0,0,0,0,0,0,0,0,0,0,0,0,0,0],"sum_hessian":[2.7379E4,2.0939E4,6.44E3,1.8836E4,2.103E3,4.289E3,2.151E3,1.7606E4,1.23E3,1.834E3,2.69E2,1.707E3,2.582E3,1.619E3,5.32E2],"tree_param":{"num_deleted":"0","num_feature":"9","num_nodes":"15","size_leaf_vector":"1"}},{"base_weights":[-2.2752243E-3,-2.9919738E-1,3.4710228E-1,-7.060626E-2,-1.3950272E0,8.8212514E-1,-3.6811346E-1,2.2560962E-2,-2.3237251E-1,-1.8542013E-1,-3.919656E-1,3.776926E-1,9.390955E-2,-1.5955897E-1,1.21866E-1],"categories":[],"categories_nodes":[],"categories_segments":[],"categories_sizes":[],"default_left":[0,0,0,0,0,0,0,0,0,0,0,0,0,0,0],"id":18,"left_children":[1,3,5,7,9,11,13,-1,-1,-1,-1,-1,-1,-1,-1],"loss_changes":[2.8553706E3,3.726921E3,4.8388604E3,3.193331E3,7.170659E2,3.1939927E3,3.2767197E3,0E0,0E0,0E0,0E0,0E0,0E0,0E0,0E0],"parents":[2147483647,0,0,1,1,2,2,3,3,4,4,5,5,6,6],"right_children":[2,4,6,8,10,12,14,-1,-1,-1,-1,-1,-1,-1,-1],"split_conditions":[1.1233334E1,1.17E1,1.57E1,1.14E1,1.46E1,1.15E1,1.76E1,2.2560962E-2,-2.3237251E-1,-1.8542013E-1,-3.919656E-1,3.776926E-1,9.390955E-2,-1.5955897E-1,1.21866E-1],"split_indices":[2,6,6,5,6,5,2,0,0,0,0,0,0,0,0],"split_type":[0,0,0,0,0,0,0,0,0,0,0,0,0,0,0],"sum_hessian":[2.7525E4,1.488E4,1.2645E4,1.2312E4,2.568E3,7.234E3,5.411E3,1.0637E4,1.675E3,1.897E3,6.71E2,1.465E3,5.769E3,3.558E3,1.853E3],"tree_param":{"num_deleted":"0","num_feature":"9","num_nodes":"15","size_leaf_vector":"1"}},{"base_weights":[1.3398475E-4,8.720632E-1,-1.1044086E-1,-3.9409176E-1,1.8018441E0,-6.312798E-1,1.6453382E-1,-2.5685522E-1,2.7782666E-2,5.708073E-1,2.4273793E-1,-7.977369E-2,-2.7297616E-1,7.078447E-2,-1.0996049E-1],"categories":[],"categories_nodes":[],"categories_segments":[],"categories_sizes":[],"default_left":[0,0,0,0,0,0,0,0,0,0,0,0,0,0,0],"id":19,"left_children":[1,3,5,7,9,11,13,-1,-1,-1,-1,-1,-1,-1,-1],"loss_changes":[2.6547974E3,3.6487427E3,3.499528E3,8.047055E2,1.0537295E3,1.3474763E3,3.192416E3,0E0,0E0,0E0,0E0,0E0,0E0,0E0,0E0],"parents":[2147483647,0,0,1,1,2,2,3,3,4,4,5,5,6,6],"right_children":[2,4,6,8,10,12,14,-1,-1,-1,-1,-1,-1,-1,-1],"split_conditions":[5.4E0,6.4333334E0,9.666667E0,4.8E0,3.9E0,1.14E1,1.73E1,-2.5685522E-1,2.7782666E-2,5.708073E-1,2.4273793E-1,-7.977369E-2,-2.7297616E-1,7.078447E-2,-1.0996049E-1],"split_indices":[6,2,2,2,6,6,6,0,0,0,0,0,0,0,0],"split_type":[0,0,0,0,0,0,0,0,0,0,0,0,0,0,0],"sum_hessian":[2.7533E4,3.099E3,2.4434E4,1.312E3,1.787E3,8.443E3,1.5991E4,4.4E2,8.72E2,3.62E2,1.425E3,7.195E3,1.248E3,1.2227E4,3.764E3],"tree_param":{"num_deleted":"0","num_feature":"9","num_nodes":"15","size_leaf_vector":"1"}},{"base_weights":[-4.559858E-3,-1.1676335E-1,7.4813974E-1,2.0188594E-2,-1.3279171E0,2.7359061E0,1.6855772E-1,-2.8165255E-2,1.2322814E-1,-1.3584848E-1,-4.193884E-1,6.091749E-1,1.4499618E-1,-2.0697977E-2,3.892488E-1],"categories":[],"categories_nodes":[],"categories_segments":[],"categories_sizes":[],"default_left":[0,0,0,0,0,0,0,0,0,0,0,0,0,0,0],"id":20,"left_children":[1,3,5,7,9,11,13,-1,-1,-1,-1,-1,-1,-1,-1],"loss_changes":[2.3189448E3,3.9643806E3,4.1027476E3,2.7616067E3,1.4520181E3,1.2357314E3,1.675123E3,0E0,0E0,0E0,0E0,0E0,0E0,0E0,0E0],"parents":[2147483647,0,0,1,1,2,2,3,3,4,4,5,5,6,6],"right_children":[2,4,6,8,10,12,14,-1,-1,-1,-1,-1,-1,-1,-1],"split_conditions":[1.6233334E1,1.58E1,1.65E1,1.2366667E1,1.44E1,2.03E1,2.1866667E1,-2.8165255E-2,1.2322814E-1,-1.3584848E-1,-4.193884E-1,6.091749E-1,1.4499618E-1,-2.0697977E-2,3.892488E-1],"split_indices":[2,5,5,2,6,6,2,0,0,0,0,0,0,0,0],"split_type":[0,0,0,0,0,0,0,0,0,0,0,0,0,0,0],"sum_hessian":[2.746E4,2.3898E4,3.562E3,2.147E4,2.428E3,8.04E2,2.758E3,1.6984E4,4.486E3,1.64E3,7.88E2,5.62E2,2.42E2,2.424E3,3.34E2],"tree_param":{"num_deleted":"0","num_feature":"9","num_nodes":"15","size_leaf_vector":"1"}},{"base_weights":[3.583787E-3,-4.8218858E-1,1.558521E-1,-1.2656148E-2,-9.023104E-1,1.4776416E0,-1.743058E-2,-1.9044207E-1,5.0063446E-2,-1.3052508E-1,-2.8468668E-1,2.0406939E-1,4.802909E-1,-3.5407856E-2,9.550033E-2],"categories":[],"categories_nodes":[],"categories_segments":[],"categories_sizes":[],"default_left":[0,0,0,0,0,0,0,0,0,0,0,0,0,0,0],"id":21,"left_children":[1,3,5,7,9,11,13,-1,-1,-1,-1,-1,-1,-1,-1],"loss_changes":[2.0298652E3,1.2915652E3,4.78633E3,1.0330382E3,3.6983862E2,9.218833E2,2.0024285E3,0E0,0E0,0E0,0E0,0E0,0E0,0E0,0E0],"parents":[2147483647,0,0,1,1,2,2,3,3,4,4,5,5,6,6],"right_children":[2,4,6,8,10,12,14,-1,-1,-1,-1,-1,-1,-1,-1],"split_conditions":[8E0,6.3E0,7.1E0,5.1E0,1.02E1,1.1766666E1,1.5466666E1,-1.9044207E-1,5.0063446E-2,-1.3052508E-1,-2.8468668E-1,2.0406939E-1,4.802909E-1,-3.5407856E-2,9.550033E-2],"split_indices":[2,6,6,2,6,2,2,0,0,0,0,0,0,0,0],"split_type":[0,0,0,0,0,0,0,0,0,0,0,0,0,0,0],"sum_hessian":[2.7444E4,6.549E3,2.0895E4,3.093E3,3.456E3,2.422E3,1.8473E4,6.72E2,2.421E3,2.911E3,5.45E2,1.988E3,4.34E2,1.3899E4,4.574E3],"tree_param":{"num_deleted":"0","num_feature":"9","num_nodes":"15","size_leaf_vector":"1"}},{"base_weights":[6.5886215E-3,6.6609286E-2,-1.4365819E0,7.231823E-1,-4.515273E-2,-1.5784152E0,3.4027803E0,2.5075166E-2,1.5272202E-1,1.1840449E-1,-1.535804E-2,-6.5189767E-1,-2.3331644E-1,3.786951E-1,9.5217144E-1],"categories":[],"categories_nodes":[],"categories_segments":[],"categories_sizes":[],"default_left":[0,0,0,0,0,0,0,0,0,0,0,0,0,0,0],"id":22,"left_children":[1,3,5,7,9,11,13,-1,-1,-1,-1,-1,-1,-1,-1],"loss_changes":[2.3667966E3,1.9255614E3,7.4825415E2,3.668899E2,7.305474E2,5.1347754E2,7.704932E1,0E0,0E0,0E0,0E0,0E0,0E0,0E0,0E0],"parents":[2147483647,0,0,1,1,2,2,3,3,4,4,5,5,6,6],"right_children":[2,4,6,8,10,12,14,-1,-1,-1,-1,-1,-1,-1,-1],"split_conditions":[2.12E1,5.8E0,2.08E1,3.9E0,4.8E0,4E0,2.3E1,2.5075166E-2,1.5272202E-1,1.1840449E-1,-1.535804E-2,-6.5189767E-1,-2.3331644E-1,3.786951E-1,9.5217144E-1],"split_indices":[6,5,1,5,6,4,1,0,0,0,0,0,0,0,0],"split_type":[0,0,0,0,0,0,0,0,0,0,0,0,0,0,0],"sum_hessian":[2.7329E4,2.6238E4,1.091E3,3.817E3,2.2421E4,1.06E3,3.1E1,8.56E2,2.961E3,1.275E3,2.1146E4,9.5E1,9.65E2,2E1,1.1E1],"tree_param":{"num_deleted":"0","num_feature":"9","num_nodes":"15","size_leaf_vector":"1"}},{"base_weights":[4.9811596E-4,-6.165639E-1,1.13188535E-1,-2.4047203E-1,-1.2259724E0,1.4696023E0,-3.8743455E-2,-1.5080991E-1,2.7151009E-2,-1.7054096E-1,-3.1113747E-1,5.291703E-1,1.3858463E-1,-5.2006625E-2,6.558377E-2],"categories":[],"categories_nodes":[],"categories_segments":[],"categories_sizes":[],"default_left":[0,0,0,0,0,0,0,0,0,0,0,0,0,0,0],"id":23,"left_children":[1,3,5,7,9,11,13,-1,-1,-1,-1,-1,-1,-1,-1],"loss_changes":[1.9084187E3,9.7084863E2,4.7834346E3,6.672016E2,2.1953418E2,2.4968652E3,2.3216763E3,0E0,0E0,0E0,0E0,0E0,0E0,0E0,0E0],"parents":[2147483647,0,0,1,1,2,2,3,3,4,4,5,5,6,6],"right_children":[2,4,6,8,10,12,14,-1,-1,-1,-1,-1,-1,-1,-1],"split_conditions":[7.1E0,6.1E0,6.5E0,5.4666667E0,8E0,7.8E0,1.3366667E1,-1.5080991E-1,2.7151009E-2,-1.7054096E-1,-3.1113747E-1,5.291703E-1,1.3858463E-1,-5.2006625E-2,6.558377E-2],"split_indices":[2,5,5,2,5,6,2,0,0,0,0,0,0,0,0],"split_type":[0,0,0,0,0,0,0,0,0,0,0,0,0,0,0],"sum_hessian":[2.7447E4,4.238E3,2.3209E4,2.621E3,1.617E3,2.338E3,2.0871E4,1.008E3,1.613E3,1.159E3,4.58E2,6.8E2,1.658E3,1.2821E4,8.05E3],"tree_param":{"num_deleted":"0","num_feature":"9","num_nodes":"15","size_leaf_vector":"1"}},{"base_weights":[3.4247814E-3,-5.6183793E-2,1.0242529E0,7.2442494E-2,-1.0559812E0,3.473379E0,4.1774788E-1,-2.0521892E-2,1.1640391E-1,-4.1246617E-1,-1.259548E-1,5.0232285E-1,1.0053384E0,2.2915732E-3,3.8563848E-1],"categories":[],"categories_nodes":[],"categories_segments":[],"categories_sizes":[],"default_left":[0,0,0,0,0,0,0,0,0,0,0,0,0,0,0],"id":24,"left_children":[1,3,5,7,9,11,13,-1,-1,-1,-1,-1,-1,-1,-1],"loss_changes":[1.6731431E3,3.34058E3,2.2521055E3,2.6773635E3,1.2838882E3,3.8934375E2,8.988365E2,0E0,0E0,0E0,0E0,0E0,0E0,0E0,0E0],"parents":[2147483647,0,0,1,1,2,2,3,3,4,4,5,5,6,6],"right_children":[2,4,6,8,10,12,14,-1,-1,-1,-1,-1,-1,-1,-1],"split_conditions":[1.85E1,1.66E1,1.84E1,1.2533334E1,1.41E1,2.04E1,2.28E1,-2.0521892E-2,1.1640391E-1,-4.1246617E-1,-1.259548E-1,5.0232285E-1,1.0053384E0,2.2915732E-3,3.8563848E-1],"split_indices":[2,5,5,2,2,2,2,0,0,0,0,0,0,0,0],"split_type":[0,0,0,0,0,0,0,0,0,0,0,0,0,0,0],"sum_hessian":[2.7491E4,2.5974E4,1.517E3,2.3013E4,2.961E3,3.01E2,1.216E3,1.7474E4,5.539E3,5.71E2,2.39E3,2.45E2,5.6E1,9.96E2,2.2E2],"tree_param":{"num_deleted":"0","num_feature":"9","num_nodes":"15","size_leaf_vector":"1"}},{"base_weights":[-3.954895E-3,-3.5492232E-1,1.4043713E-1,-1.4243908E-1,-1.2316343E0,1.2499285E0,-7.589927E-2,-1.0245641E-1,2.7192274E-2,-1.9053796E-1,-4.9639642E-1,4.405016E-1,1.653666E-1,-6.7178026E-2,4.578991E-2],"categories":[],"categories_nodes":[],"categories_segments":[],"categories_sizes":[],"default_left":[0,0,0,0,0,0,0,0,0,0,0,0,0,0,0],"id":25,"left_children":[1,3,5,7,9,11,13,-1,-1,-1,-1,-1,-1,-1,-1],"loss_changes":[1.3895792E3,1.4885449E3,4.6630737E3,8.801387E2,3.129983E2,1.1941943E3,1.7579727E3,0E0,0E0,0E0,0E0,0E0,0E0,0E0,0E0],"parents":[2147483647,0,0,1,1,2,2,3,3,4,4,5,5,6,6],"right_children":[2,4,6,8,10,12,14,-1,-1,-1,-1,-1,-1,-1,-1],"split_conditions":[8.566667E0,8.4E0,8.8E0,6.366667E0,1.23E1,5.7E0,1.35E1,-1.0245641E-1,2.7192274E-2,-1.9053796E-1,-4.9639642E-1,4.405016E-1,1.653666E-1,-6.7178026E-2,4.578991E-2],"split_indices":[2,5,5,2,5,5,2,0,0,0,0,0,0,0,0],"split_type":[0,0,0,0,0,0,0,0,0,0,0,0,0,0,0],"sum_hessian":[2.7419E4,7.993E3,1.9426E4,6.434E3,1.559E3,3.17E3,1.6256E4,2.563E3,3.871E3,1.453E3,1.06E2,5.66E2,2.604E3,8.464E3,7.792E3],"tree_param":{"num_deleted":"0","num_feature":"9","num_nodes":"15","size_leaf_vector":"1"}},{"base_weights":[-2.6659765E-3,2.261578E-1,-4.2506853E-1,1.2073221E0,1.5541369E-1,-3.31754E-1,-1.9470066E0,6.1790027E-2,2.3137763E-1,-1.7700213E-4,5.5623796E-2,-7.7190764E-2,2.359342E-2,-3.6966705E-1,4.1966456E-1],"categories":[],"categories_nodes":[],"categories_segments":[],"categories_sizes":[],"default_left":[0,0,0,0,0,0,0,0,0,0,0,0,0,0,0],"id":26,"left_children":[1,3,5,7,9,11,13,-1,-1,-1,-1,-1,-1,-1,-1],"loss_changes":[2.6530713E3,1.2352944E3,1.3690365E3,1.4234521E2,4.383797E2,5.034278E2,5.0637793E2,0E0,0E0,0E0,0E0,0E0,0E0,0E0,0E0],"parents":[2147483647,0,0,1,1,2,2,3,3,4,4,5,5,6,6],"right_children":[2,4,6,8,10,12,14,-1,-1,-1,-1,-1,-1,-1,-1],"split_conditions":[1.32E1,4.2E0,2.31E1,3.9E0,2.07E1,8.8E0,2.1E1,6.1790027E-2,2.3137763E-1,-1.7700213E-4,5.5623796E-2,-7.7190764E-2,2.359342E-2,-3.6966705E-1,4.1966456E-1],"split_indices":[6,6,6,5,0,1,1,0,0,0,0,0,0,0,0],"split_type":[0,0,0,0,0,0,0,0,0,0,0,0,0,0,0],"sum_hessian":[2.7448E4,1.7803E4,9.645E3,1.197E3,1.6606E4,9.088E3,5.57E2,1.71E2,1.026E3,8.615E3,7.991E3,7.262E3,1.826E3,5.32E2,2.5E1],"tree_param":{"num_deleted":"0","num_feature":"9","num_nodes":"15","size_leaf_vector":"1"}},{"base_weights":[1.2160902E-3,7.089417E-2,-1.0226191E0,-1.479069E-2,1.3699678E0,-1.9459623E0,4.490363E-1,2.1481752E-2,-1.16135344E-1,5.262547E-1,1.0204067E-1,-2.8353137E-1,-7.983408E-1,5.664111E-1,1.4245227E-3],"categories":[],"categories_nodes":[],"categories_segments":[],"categories_sizes":[],"default_left":[0,0,0,0,0,0,0,0,0,0,0,0,0,0,0],"id":27,"left_children":[1,3,5,7,9,11,13,-1,-1,-1,-1,-1,-1,-1,-1],"loss_changes":[1.9548055E3,2.8566765E3,2.3730234E3,2.2303193E3,2.0877087E3,8.511294E2,8.446987E2,0E0,0E0,0E0,0E0,0E0,0E0,0E0,0E0],"parents":[2147483647,0,0,1,1,2,2,3,3,4,4,5,5,6,6],"right_children":[2,4,6,8,10,12,14,-1,-1,-1,-1,-1,-1,-1,-1],"split_conditions":[1.99E1,1.69E1,1.9533333E1,1.46E1,1.78E1,2.45E1,1.84E1,2.1481752E-2,-1.16135344E-1,5.262547E-1,1.0204067E-1,-2.8353137E-1,-7.983408E-1,5.664111E-1,1.4245227E-3],"split_indices":[6,2,2,5,5,6,5,0,0,0,0,0,0,0,0],"split_type":[0,0,0,0,0,0,0,0,0,0,0,0,0,0,0],"sum_hessian":[2.7406E4,2.566E4,1.746E3,2.4072E4,1.588E3,1.073E3,6.73E2,1.987E4,4.202E3,4.98E2,1.09E3,9.68E2,1.05E2,9E1,5.83E2],"tree_param":{"num_deleted":"0","num_feature":"9","num_nodes":"15","size_leaf_vector":"1"}},{"base_weights":[-3.1586492E-3,1.7407006E-1,-3.3166474E-1,-1.3454436E-1,8.800467E-1,-8.0999506E-1,2.3393664E-1,1.2048796E-2,-1.9204305E-1,2.9737934E-1,6.786552E-2,-1.0425326E-1,-3.634479E-1,2.8488085E-1,-2.8986126E-2],"categories":[],"categories_nodes":[],"categories_segments":[],"categories_sizes":[],"default_left":[0,0,0,0,0,0,0,0,0,0,0,0,0,0,0],"id":28,"left_children":[1,3,5,7,9,11,13,-1,-1,-1,-1,-1,-1,-1,-1],"loss_changes":[1.5965209E3,3.8808047E3,2.6001167E3,2.498435E3,2.2382852E3,1.3782053E3,2.5298381E3,0E0,0E0,0E0,0E0,0E0,0E0,0E0,0E0],"parents":[2147483647,0,0,1,1,2,2,3,3,4,4,5,5,6,6],"right_children":[2,4,6,8,10,12,14,-1,-1,-1,-1,-1,-1,-1,-1],"split_conditions":[1.32E1,1.06E1,1.5233334E1,1.04E1,1.24E1,1.81E1,1.54E1,1.2048796E-2,-1.9204305E-1,2.9737934E-1,6.786552E-2,-1.0425326E-1,-3.634479E-1,2.8488085E-1,-2.8986126E-2],"split_indices":[6,2,2,5,5,6,5,0,0,0,0,0,0,0,0],"split_type":[0,0,0,0,0,0,0,0,0,0,0,0,0,0,0],"sum_hessian":[2.7421E4,1.7811E4,9.61E3,1.2393E4,5.418E3,5.207E3,4.403E3,1.0259E4,2.134E3,1.963E3,3.455E3,4.509E3,6.98E2,9.7E2,3.433E3],"tree_param":{"num_deleted":"0","num_feature":"9","num_nodes":"15","size_leaf_vector":"1"}},{"base_weights":[4.892309E-3,5.987127E-1,-9.156899E-2,-1.7200015E-1,1.3099746E0,-5.947318E-1,6.5872185E-2,-2.0035867E-1,1.5445002E-2,4.795075E-1,1.3706993E-1,-1.8122174E-2,-1.422987E-1,1.312624E-1,-2.1087475E-2],"categories":[],"categories_nodes":[],"categories_segments":[],"categories_sizes":[],"default_left":[0,0,0,0,0,0,0,0,0,0,0,0,0,0,0],"id":29,"left_children":[1,3,5,7,9,11,13,-1,-1,-1,-1,-1,-1,-1,-1],"loss_changes":[1.5690819E3,2.0987957E3,1.8667184E3,4.794586E2,1.5095659E3,6.4367847E2,2.367847E3,0E0,0E0,0E0,0E0,0E0,0E0,0E0,0E0],"parents":[2147483647,0,0,1,1,2,2,3,3,4,4,5,5,6,6],"right_children":[2,4,6,8,10,12,14,-1,-1,-1,-1,-1,-1,-1,-1],"split_conditions":[5.8E0,6.866667E0,8.733334E0,4.6E0,7.7E0,5.6E0,9.7E0,-2.0035867E-1,1.5445002E-2,4.795075E-1,1.3706993E-1,-1.8122174E-2,-1.422987E-1,1.312624E-1,-2.1087475E-2],"split_indices":[6,2,2,2,5,5,5,0,0,0,0,0,0,0,0],"split_type":[0,0,0,0,0,0,0,0,0,0,0,0,0,0,0],"sum_hessian":[2.739E4,3.828E3,2.3562E4,1.837E3,1.991E3,5.616E3,1.7946E4,3.83E2,1.454E3,5.1E2,1.481E3,1.82E3,3.796E3,3.816E3,1.413E4],"tree_param":{"num_deleted":"0","num_feature":"9","num_nodes":"15","size_leaf_vector":"1"}},{"base_weights":[-8.2218915E-4,9.2442185E-2,-5.5275124E-1,-1.1685985E-1,6.925613E-1,-1.0085542E0,4.7254077E-1,5.0524496E-3,-2.1085319E-1,3.0065706E-1,7.190423E-2,-1.4217792E-1,-6.0296607E-1,4.6074015E-1,1.31834345E-2],"categories":[],"categories_nodes":[],"categories_segments":[],"categories_sizes":[],"default_left":[0,0,0,0,0,0,0,0,0,0,0,0,0,0,0],"id":30,"left_children":[1,3,5,7,9,11,13,-1,-1,-1,-1,-1,-1,-1,-1],"loss_changes":[1.4119108E3,2.9470322E3,1.8531415E3,2.8295461E3,1.7576145E3,1.2369087E3,1.0670945E3,0E0,0E0,0E0,0E0,0E0,0E0,0E0,0E0],"parents":[2147483647,0,0,1,1,2,2,3,3,4,4,5,5,6,6],"right_children":[2,4,6,8,10,12,14,-1,-1,-1,-1,-1,-1,-1,-1],"split_conditions":[1.71E1,1.2566667E1,1.85E1,1.28E1,1.1E1,1.94E1,1.77E1,5.0524496E-3,-2.1085319E-1,3.0065706E-1,7.190423E-2,-1.4217792E-1,-6.0296607E-1,4.6074015E-1,1.31834345E-2],"split_indices":[6,2,2,5,6,5,5,0,0,0,0,0,0,0,0],"split_type":[0,0,0,0,0,0,0,0,0,0,0,0,0,0,0],"sum_hessian":[2.7426E4,2.3461E4,3.965E3,1.7394E4,6.067E3,2.745E3,1.22E3,1.5371E4,2.023E3,1.245E3,4.822E3,2.561E3,1.84E2,1.85E2,1.035E3],"tree_param":{"num_deleted":"0","num_feature":"9","num_nodes":"15","size_leaf_vector":"1"}},{"base_weights":[-4.616538E-3,3.1523475E-1,-1.6529532E-1,-2.8355092E-1,8.5987914E-1,-7.207507E-1,3.475045E-2,2.1514503E-2,-1.3063213E-1,3.3742478E-1,8.201949E-2,-9.377794E-2,-2.9636136E-1,1.3352668E-1,-2.8810967E-2],"categories":[],"categories_nodes":[],"categories_segments":[],"categories_sizes":[],"default_left":[0,0,0,0,0,0,0,0,0,0,0,0,0,0,0],"id":31,"left_children":[1,3,5,7,9,11,13,-1,-1,-1,-1,-1,-1,-1,-1],"loss_changes":[1.4102355E3,2.9923853E3,2.0298756E3,8.537136E2,2.0295547E3,8.475852E2,2.0228003E3,0E0,0E0,0E0,0E0,0E0,0E0,0E0,0E0],"parents":[2147483647,0,0,1,1,2,2,3,3,4,4,5,5,6,6],"right_children":[2,4,6,8,10,12,14,-1,-1,-1,-1,-1,-1,-1,-1],"split_conditions":[8.5E0,7.5E0,1.0233334E1,6.1E0,8E0,1.33E1,1.11E1,2.1514503E-2,-1.3063213E-1,3.3742478E-1,8.201949E-2,-9.377794E-2,-2.9636136E-1,1.3352668E-1,-2.8810967E-2],"split_indices":[6,2,2,5,5,6,5,0,0,0,0,0,0,0,0],"split_type":[0,0,0,0,0,0,0,0,0,0,0,0,0,0,0],"sum_hessian":[2.7441E4,9.175E3,1.8266E4,4.37E3,4.805E3,4.837E3,1.3429E4,2.354E3,2.016E3,1.233E3,3.572E3,4.123E3,7.14E2,2.877E3,1.0552E4],"tree_param":{"num_deleted":"0","num_feature":"9","num_nodes":"15","size_leaf_vector":"1"}},{"base_weights":[2.4814336E-4,-1.0905171E-1,3.9859566E-1,2.8508116E-2,-1.0499024E0,9.8583573E-1,-2.0911701E-1,-3.486322E-2,6.630397E-2,-1.06557555E-1,-2.7886245E-1,4.8403174E-1,1.2053234E-1,-1.15320444E-1,1.1952995E-1],"categories":[],"categories_nodes":[],"categories_segments":[],"categories_sizes":[],"default_left":[0,0,0,0,0,0,0,0,0,0,0,0,0,0,0],"id":32,"left_children":[1,3,5,7,9,11,13,-1,-1,-1,-1,-1,-1,-1,-1],"loss_changes":[1.1975121E3,2.7932842E3,2.1136543E3,1.5607212E3,6.783794E2,1.5654299E3,1.2197416E3,0E0,0E0,0E0,0E0,0E0,0E0,0E0,0E0],"parents":[2147483647,0,0,1,1,2,2,3,3,4,4,5,5,6,6],"right_children":[2,4,6,8,10,12,14,-1,-1,-1,-1,-1,-1,-1,-1],"split_conditions":[1.46E1,1.41E1,1.76E1,9.866667E0,1.18E1,1.36E1,1.93E1,-3.486322E-2,6.630397E-2,-1.06557555E-1,-2.7886245E-1,4.8403174E-1,1.2053234E-1,-1.15320444E-1,1.1952995E-1],"split_indices":[2,5,5,2,6,6,2,0,0,0,0,0,0,0,0],"split_type":[0,0,0,0,0,0,0,0,0,0,0,0,0,0,0],"sum_hessian":[2.7502E4,2.158E4,5.922E3,1.8827E4,2.753E3,3.012E3,2.91E3,1.1428E4,7.399E3,1.577E3,1.176E3,4.03E2,2.609E3,1.926E3,9.84E2],"tree_param":{"num_deleted":"0","num_feature":"9","num_nodes":"15","size_leaf_vector":"1"}},{"base_weights":[8.090382E-4,4.780079E-2,-1.1066492E0,6.443126E-1,-1.620754E-2,-1.2183051E0,8.605558E-1,2.0129687E-1,8.5997716E-2,6.560876E-2,-1.00645535E-2,-3.7816855E-1,-1.5093516E-1,1.0198529E-1,9.9751914E-1],"categories":[],"categories_nodes":[],"categories_segments":[],"categories_sizes":[],"default_left":[0,0,0,0,0,0,0,0,0,0,0,0,0,0,0],"id":33,"left_children":[1,3,5,7,9,11,13,-1,-1,-1,-1,-1,-1,-1,-1],"loss_changes":[1.4319412E3,1.0082768E3,2.461239E2,1.9318872E2,4.0312076E2,3.528545E2,7.705026E1,0E0,0E0,0E0,0E0,0E0,0E0,0E0,0E0],"parents":[2147483647,0,0,1,1,2,2,3,3,4,4,5,5,6,6],"right_children":[2,4,6,8,10,12,14,-1,-1,-1,-1,-1,-1,-1,-1],"split_conditions":[2.12E1,5.1E0,1.86E1,3.6E0,5.4E0,9E0,2.84E1,2.0129687E-1,8.5997716E-2,6.560876E-2,-1.00645535E-2,-3.7816855E-1,-1.5093516E-1,1.0198529E-1,9.9751914E-1],"split_indices":[6,6,1,6,5,4,1,0,0,0,0,0,0,0,0],"split_type":[0,0,0,0,0,0,0,0,0,0,0,0,0,0,0],"sum_hessian":[2.7522E4,2.6402E4,1.12E3,2.559E3,2.3843E4,1.06E3,6E1,5.45E2,2.014E3,2.294E3,2.1549E4,2.71E2,7.89E2,5.7E1,3E0],"tree_param":{"num_deleted":"0","num_feature":"9","num_nodes":"15","size_leaf_vector":"1"}},{"base_weights":[-3.1412593E-3,-1.3853316E-1,3.111568E-1,-2.864803E-2,-1.2004545E0,1.3831153E0,8.411941E-2,-6.071695E-2,2.8417282E-2,-1.6029806E-1,-3.1430826E-1,3.9533946E-1,1.7621598E-1,4.445156E-2,-1.6774373E-1],"categories":[],"categories_nodes":[],"categories_segments":[],"categories_sizes":[],"default_left":[0,0,0,0,0,0,0,0,0,0,0,0,0,0,0],"id":34,"left_children":[1,3,5,7,9,11,13,-1,-1,-1,-1,-1,-1,-1,-1],"loss_changes":[1.1687588E3,2.2398054E3,2.0119911E3,1.0988143E3,3.0169287E2,4.7286963E2,1.26672E3,0E0,0E0,0E0,0E0,0E0,0E0,0E0,0E0],"parents":[2147483647,0,0,1,1,2,2,3,3,4,4,5,5,6,6],"right_children":[2,4,6,8,10,12,14,-1,-1,-1,-1,-1,-1,-1,-1],"split_conditions":[1.3266666E1,1.46E1,1.25E1,8E0,1.71E1,9.2E0,2.15E1,-6.071695E-2,2.8417282E-2,-1.6029806E-1,-3.1430826E-1,3.9533946E-1,1.7621598E-1,4.445156E-2,-1.6774373E-1],"split_indices":[2,6,6,2,6,6,6,0,0,0,0,0,0,0,0],"split_type":[0,0,0,0,0,0,0,0,0,0,0,0,0,0,0],"sum_hessian":[2.7467E4,1.9198E4,8.269E3,1.7398E4,1.8E3,1.445E3,6.824E3,6.507E3,1.0891E4,1.266E3,5.34E2,4.03E2,1.042E3,5.859E3,9.65E2],"tree_param":{"num_deleted":"0","num_feature":"9","num_nodes":"15","size_leaf_vector":"1"}},{"base_weights":[-5.207962E-3,-7.043819E-2,7.59018E-1,-1.3018707E-2,-1.8124255E0,1.7887007E0,1.2435684E-1,5.8384575E-3,-2.4928631E-1,-2.0577309E-1,-4.812039E-1,4.6800512E-1,1.1732427E-1,-4.0116612E-2,3.4468818E-1],"categories":[],"categories_nodes":[],"categories_segments":[],"categories_sizes":[],"default_left":[0,0,0,0,0,0,0,0,0,0,0,0,0,0,0],"id":35,"left_children":[1,3,5,7,9,11,13,-1,-1,-1,-1,-1,-1,-1,-1],"loss_changes":[1.3717666E3,2.5358188E3,1.413555E3,1.6627963E3,4.9073706E2,8.5434985E2,9.040323E2,0E0,0E0,0E0,0E0,0E0,0E0,0E0,0E0],"parents":[2147483647,0,0,1,1,2,2,3,3,4,4,5,5,6,6],"right_children":[2,4,6,8,10,12,14,-1,-1,-1,-1,-1,-1,-1,-1],"split_conditions":[1.76E1,1.9E1,1.92E1,1.95E1,1.37E1,2.03E1,2.28E1,5.8384575E-3,-2.4928631E-1,-2.0577309E-1,-4.812039E-1,4.6800512E-1,1.1732427E-1,-4.0116612E-2,3.4468818E-1],"split_indices":[2,5,5,6,6,6,2,0,0,0,0,0,0,0,0],"split_type":[0,0,0,0,0,0,0,0,0,0,0,0,0,0,0],"sum_hessian":[2.7522E4,2.5358E4,2.164E3,2.4549E4,8.09E2,8.25E2,1.339E3,2.3772E4,7.77E2,5E2,3.09E2,4.46E2,3.79E2,1.125E3,2.14E2],"tree_param":{"num_deleted":"0","num_feature":"9","num_nodes":"15","size_leaf_vector":"1"}},{"base_weights":[7.1840407E-3,-8.106525E-2,4.7648162E-1,3.1189928E-2,-9.810792E-1,1.7982197E0,1.8968621E-1,-2.1754956E-2,8.431386E-2,-3.8447642E-1,-1.348196E-1,3.3259872E-1,-2.6312605E-1,2.1972954E-1,-1.8761123E-2],"categories":[],"categories_nodes":[],"categories_segments":[],"categories_sizes":[],"default_left":[0,0,0,0,0,0,0,0,0,0,0,0,0,0,0],"id":36,"left_children":[1,3,5,7,9,11,13,-1,-1,-1,-1,-1,-1,-1,-1],"loss_changes":[1.1332057E3,2.3268538E3,1.6411029E3,1.4880637E3,6.2775366E2,3.59698E2,1.1610182E3,0E0,0E0,0E0,0E0,0E0,0E0,0E0,0E0],"parents":[2147483647,0,0,1,1,2,2,3,3,4,4,5,5,6,6],"right_children":[2,4,6,8,10,12,14,-1,-1,-1,-1,-1,-1,-1,-1],"split_conditions":[1.5666667E1,1.52E1,1.55E1,1.1566667E1,1.1833333E1,2.45E1,1.49E1,-2.1754956E-2,8.431386E-2,-3.8447642E-1,-1.348196E-1,3.3259872E-1,-2.6312605E-1,2.1972954E-1,-1.8761123E-2],"split_indices":[2,5,5,2,2,6,6,0,0,0,0,0,0,0,0],"split_type":[0,0,0,0,0,0,0,0,0,0,0,0,0,0,0],"sum_hessian":[2.7359E4,2.3028E4,4.331E3,2.0474E4,2.554E3,7.72E2,3.559E3,1.5241E4,5.233E3,3.43E2,2.211E3,7.41E2,3.1E1,7.66E2,2.793E3],"tree_param":{"num_deleted":"0","num_feature":"9","num_nodes":"15","size_leaf_vector":"1"}},{"base_weights":[2.7292022E-3,2.4476291E-1,-1.8298806E-1,-9.1667175E-2,7.8149325E-1,-4.949809E-1,1.5181272E-1,1.1761373E-2,-1.7507425E-1,3.2401234E-1,7.7590145E-2,-5.363395E-2,-2.3875177E-1,1.5308918E-1,-2.5360739E-2],"categories":[],"categories_nodes":[],"categories_segments":[],"categories_sizes":[],"default_left":[0,0,0,0,0,0,0,0,0,0,0,0,0,0,0],"id":37,"left_children":[1,3,5,7,9,11,13,-1,-1,-1,-1,-1,-1,-1,-1],"loss_changes":[1.2323646E3,2.149755E3,1.6204238E3,1.0886516E3,1.6710273E3,1.3125312E3,1.6594695E3,0E0,0E0,0E0,0E0,0E0,0E0,0E0,0E0],"parents":[2147483647,0,0,1,1,2,2,3,3,4,4,5,5,6,6],"right_children":[2,4,6,8,10,12,14,-1,-1,-1,-1,-1,-1,-1,-1],"split_conditions":[9.9E0,8.833333E0,1.3433333E1,9.3E0,9.2E0,1.3E1,1.46E1,1.1761373E-2,-1.7507425E-1,3.2401234E-1,7.7590145E-2,-5.363395E-2,-2.3875177E-1,1.5308918E-1,-2.5360739E-2],"split_indices":[6,2,2,5,5,5,5,0,0,0,0,0,0,0,0],"split_type":[0,0,0,0,0,0,0,0,0,0,0,0,0,0,0],"sum_hessian":[2.7416E4,1.1904E4,1.5512E4,7.317E3,4.587E3,8.03E3,7.482E3,6.24E3,1.077E3,1.052E3,3.535E3,6.672E3,1.358E3,2.156E3,5.326E3],"tree_param":{"num_deleted":"0","num_feature":"9","num_nodes":"15","size_leaf_vector":"1"}},{"base_weights":[2.4146E-4,3.9233908E-1,-9.8205715E-2,9.331414E-1,3.040954E-1,-6.991679E-2,-1.1591187E0,1.727166E-1,-4.203687E-2,9.990051E-2,4.1359615E-2,5.378658E-2,-1.7740246E-2,-2.508447E-1,9.667291E-2],"categories":[],"categories_nodes":[],"categories_segments":[],"categories_sizes":[],"default_left":[0,0,0,0,0,0,0,0,0,0,0,0,0,0,0],"id":38,"left_children":[1,3,5,7,9,11,13,-1,-1,-1,-1,-1,-1,-1,-1],"loss_changes":[1.060539E3,2.6274158E2,6.5860815E2,6.696576E1,8.289972E1,2.7421033E2,2.97313E2,0E0,0E0,0E0,0E0,0E0,0E0,0E0,0E0],"parents":[2147483647,0,0,1,1,2,2,3,3,4,4,5,5,6,6],"right_children":[2,4,6,8,10,12,14,-1,-1,-1,-1,-1,-1,-1,-1],"split_conditions":[6.7E0,3.8E0,2.31E1,1.35E1,5.2E0,5.4E0,2.51E1,1.727166E-1,-4.203687E-2,9.990051E-2,4.1359615E-2,5.378658E-2,-1.7740246E-2,-2.508447E-1,9.667291E-2],"split_indices":[6,6,6,5,5,5,5,0,0,0,0,0,0,0,0],"split_type":[0,0,0,0,0,0,0,0,0,0,0,0,0,0,0],"sum_hessian":[2.7472E4,5.514E3,2.1958E4,7.73E2,4.741E3,2.1388E4,5.7E2,7.28E2,4.5E1,8.76E2,3.865E3,1.716E3,1.9672E4,4.85E2,8.5E1],"tree_param":{"num_deleted":"0","num_feature":"9","num_nodes":"15","size_leaf_vector":"1"}},{"base_weights":[1.9759038E-3,-2.689442E-2,1.4337837E0,1.2694763E-3,-2.0785625E0,2.362393E0,-1.4001064E-1,-1.09263934E-1,1.065798E-2,-2.8719357E-1,-6.028318E-1,8.775494E-1,3.222075E-1,5.803339E-1,-9.861714E-2],"categories":[],"categories_nodes":[],"categories_segments":[],"categories_sizes":[],"default_left":[0,0,0,0,0,0,0,0,0,0,0,0,0,0,0],"id":39,"left_children":[1,3,5,7,9,11,13,-1,-1,-1,-1,-1,-1,-1,-1],"loss_changes":[1.1335363E3,1.5532417E3,7.928185E2,1.0284315E3,2.0979443E2,4.5263855E2,3.0673557E2,0E0,0E0,0E0,0E0,0E0,0E0,0E0,0E0],"parents":[2147483647,0,0,1,1,2,2,3,3,4,4,5,5,6,6],"right_children":[2,4,6,8,10,12,14,-1,-1,-1,-1,-1,-1,-1,-1],"split_conditions":[2.08E1,2.27E1,2.45E1,6.2E0,2.55E1,2.03E1,1.92E1,-1.09263934E-1,1.065798E-2,-2.8719357E-1,-6.028318E-1,8.775494E-1,3.222075E-1,5.803339E-1,-9.861714E-2],"split_indices":[2,6,6,2,6,5,5,0,0,0,0,0,0,0,0],"split_type":[0,0,0,0,0,0,0,0,0,0,0,0,0,0,0],"sum_hessian":[2.7411E4,2.6869E4,5.42E2,2.6505E4,3.64E2,3.41E2,2.01E2,2.307E3,2.4198E4,2.84E2,8E1,5.1E1,2.9E2,2.2E1,1.79E2],"tree_param":{"num_deleted":"0","num_feature":"9","num_nodes":"15","size_leaf_vector":"1"}},{"base_weights":[2.0483516E-3,-4.534975E-2,7.6144105E-1,5.836664E-2,-6.70472E-1,1.7617512E0,1.7801875E-1,-1.9519687E-2,7.463345E-2,-8.779737E-2,-3.1921935E-1,6.401305E-1,2.1671481E-1,-1.1460444E-2,3.9292803E-1],"categories":[],"categories_nodes":[],"categories_segments":[],"categories_sizes":[],"default_left":[0,0,0,0,0,0,0,0,0,0,0,0,0,0,0],"id":40,"left_children":[1,3,5,7,9,11,13,-1,-1,-1,-1,-1,-1,-1,-1],"loss_changes":[9.882244E2,1.6752858E3,9.407254E2,1.4360277E3,6.9421204E2,5.817506E2,5.2744055E2,0E0,0E0,0E0,0E0,0E0,0E0,0E0,0E0],"parents":[2147483647,0,0,1,1,2,2,3,3,4,4,5,5,6,6],"right_children":[2,4,6,8,10,12,14,-1,-1,-1,-1,-1,-1,-1,-1],"split_conditions":[1.83E1,1.62E1,1.99E1,1.1533334E1,1.83E1,1.78E1,2.4066668E1,-1.9519687E-2,7.463345E-2,-8.779737E-2,-3.1921935E-1,6.401305E-1,2.1671481E-1,-1.1460444E-2,3.9292803E-1],"split_indices":[2,6,5,2,5,6,2,0,0,0,0,0,0,0,0],"split_type":[0,0,0,0,0,0,0,0,0,0,0,0,0,0,0],"sum_hessian":[2.7449E4,2.5836E4,1.613E3,2.2159E4,3.677E3,5.94E2,1.019E3,1.5207E4,6.952E3,3.244E3,4.33E2,1.2E2,4.74E2,9.13E2,1.06E2],"tree_param":{"num_deleted":"0","num_feature":"9","num_nodes":"15","size_leaf_vector":"1"}},{"base_weights":[-1.718571E-3,-5.854551E-2,5.64293E-1,-1.4272621E-2,-1.5924782E0,1.58026E0,1.5123296E-1,2.0454654E-2,-4.875441E-2,-1.8957736E-1,-4.4230017E-1,4.638119E-1,2.2980975E-1,-1.7171659E-2,2.2045773E-1],"categories":[],"categories_nodes":[],"categories_segments":[],"categories_sizes":[],"default_left":[0,0,0,0,0,0,0,0,0,0,0,0,0,0,0],"id":41,"left_children":[1,3,5,7,9,11,13,-1,-1,-1,-1,-1,-1,-1,-1],"loss_changes":[8.8452686E2,1.6970001E3,1.0523561E3,8.749084E2,3.3556824E2,1.9493774E2,5.0847025E2,0E0,0E0,0E0,0E0,0E0,0E0,0E0,0E0],"parents":[2147483647,0,0,1,1,2,2,3,3,4,4,5,5,6,6],"right_children":[2,4,6,8,10,12,14,-1,-1,-1,-1,-1,-1,-1,-1],"split_conditions":[1.7233334E1,1.9E1,1.8E1,1.22E1,2.08E1,1.46E1,2.1866667E1,2.0454654E-2,-4.875441E-2,-1.8957736E-1,-4.4230017E-1,4.638119E-1,2.2980975E-1,-1.7171659E-2,2.2045773E-1],"split_indices":[2,5,5,5,5,5,2,0,0,0,0,0,0,0,0],"split_type":[0,0,0,0,0,0,0,0,0,0,0,0,0,0,0],"sum_hessian":[2.7505E4,2.4996E4,2.509E3,2.4295E4,7.01E2,7.25E2,1.784E3,1.6254E4,8.041E3,4.69E2,2.32E2,1.28E2,5.97E2,1.46E3,3.24E2],"tree_param":{"num_deleted":"0","num_feature":"9","num_nodes":"15","size_leaf_vector":"1"}},{"base_weights":[-1.2732784E-3,2.8928152E-1,-1.2037456E-1,-3.8256773E-1,5.9857523E-1,-3.8583338E-1,1.3698387E-1,-3.1157836E-2,-1.9663945E-1,3.1943464E-1,6.8262644E-2,-4.1107215E-2,-2.0979902E-1,1.6724613E-1,-9.019256E-3],"categories":[],"categories_nodes":[],"categories_segments":[],"categories_sizes":[],"default_left":[0,0,0,0,0,0,0,0,0,0,0,0,0,0,0],"id":42,"left_children":[1,3,5,7,9,11,13,-1,-1,-1,-1,-1,-1,-1,-1],"loss_changes":[9.516645E2,1.6614209E3,1.3327609E3,3.861908E2,1.3876047E3,1.1749906E3,1.5725305E3,0E0,0E0,0E0,0E0,0E0,0E0,0E0,0E0],"parents":[2147483647,0,0,1,1,2,2,3,3,4,4,5,5,6,6],"right_children":[2,4,6,8,10,12,14,-1,-1,-1,-1,-1,-1,-1,-1],"split_conditions":[7.9E0,6.4666667E0,1.23E1,6.6E0,5.9E0,1.21E1,1.26E1,-3.1157836E-2,-1.9663945E-1,3.1943464E-1,6.8262644E-2,-4.1107215E-2,-2.0979902E-1,1.6724613E-1,-9.019256E-3],"split_indices":[6,2,2,5,5,5,5,0,0,0,0,0,0,0,0],"split_type":[0,0,0,0,0,0,0,0,0,0,0,0,0,0,0],"sum_hessian":[2.7502E4,7.995E3,1.9507E4,2.52E3,5.475E3,9.603E3,9.904E3,1.995E3,5.25E2,7.51E2,4.724E3,8.174E3,1.429E3,1.828E3,8.076E3],"tree_param":{"num_deleted":"0","num_feature":"9","num_nodes":"15","size_leaf_vector":"1"}},{"base_weights":[-1.4664561E-3,1.6120136E-1,-1.7652549E-1,-9.687373E-2,6.845831E-1,-3.8288057E-1,3.1405354E-1,1.2780852E-2,-1.4612362E-1,2.74794E-1,7.638656E-2,-5.006197E-2,-2.9727906E-1,1.7529427E-1,-9.359453E-3],"categories":[],"categories_nodes":[],"categories_segments":[],"categories_sizes":[],"default_left":[0,0,0,0,0,0,0,0,0,0,0,0,0,0,0],"id":43,"left_children":[1,3,5,7,9,11,13,-1,-1,-1,-1,-1,-1,-1,-1],"loss_changes":[7.791781E2,1.9157783E3,1.3342794E3,1.2282894E3,1.0275532E3,1.1407617E3,1.01768384E3,0E0,0E0,0E0,0E0,0E0,0E0,0E0,0E0],"parents":[2147483647,0,0,1,1,2,2,3,3,4,4,5,5,6,6],"right_children":[2,4,6,8,10,12,14,-1,-1,-1,-1,-1,-1,-1,-1],"split_conditions":[1.11E1,9.633333E0,1.5833333E1,9.5E0,9.8E0,1.69E1,1.71E1,1.2780852E-2,-1.4612362E-1,2.74794E-1,7.638656E-2,-5.006197E-2,-2.9727906E-1,1.7529427E-1,-9.359453E-3],"split_indices":[6,2,2,5,5,5,5,0,0,0,0,0,0,0,0],"split_type":[0,0,0,0,0,0,0,0,0,0,0,0,0,0,0],"sum_hessian":[2.7362E4,1.4182E4,1.318E4,9.498E3,4.684E3,9.278E3,3.902E3,7.74E3,1.758E3,9.7E2,3.714E3,8.691E3,5.87E2,1.337E3,2.565E3],"tree_param":{"num_deleted":"0","num_feature":"9","num_nodes":"15","size_leaf_vector":"1"}},{"base_weights":[-4.9301605E-5,5.273229E-1,-5.395308E-2,-5.4244155E-1,8.912128E-1,-2.5708804E-1,1.422479E-1,-2.3097603E-1,-3.67966E-2,3.8873917E-1,1.0188909E-1,-1.989596E-2,-1.6299632E-1,1.3751505E-1,-1.8836329E-3],"categories":[],"categories_nodes":[],"categories_segments":[],"categories_sizes":[],"default_left":[0,0,0,0,0,0,0,0,0,0,0,0,0,0,0],"id":44,"left_children":[1,3,5,7,9,11,13,-1,-1,-1,-1,-1,-1,-1,-1],"loss_changes":[7.804906E2,9.912108E2,9.930312E2,1.6975063E2,7.757296E2,1.1966254E3,1.2799851E3,0E0,0E0,0E0,0E0,0E0,0E0,0E0,0E0],"parents":[2147483647,0,0,1,1,2,2,3,3,4,4,5,5,6,6],"right_children":[2,4,6,8,10,12,14,-1,-1,-1,-1,-1,-1,-1,-1],"split_conditions":[5.1E0,5.4E0,1.11E1,4.1E0,5.5E0,1.08E1,1.17E1,-2.3097603E-1,-3.67966E-2,3.8873917E-1,1.0188909E-1,-1.989596E-2,-1.6299632E-1,1.3751505E-1,-1.8836329E-3],"split_indices":[6,2,2,2,5,5,5,0,0,0,0,0,0,0,0],"split_type":[0,0,0,0,0,0,0,0,0,0,0,0,0,0,0],"sum_hessian":[2.7461E4,2.546E3,2.4915E4,6.46E2,1.9E3,1.2242E4,1.2673E4,1.87E2,4.59E2,3.38E2,1.562E3,1.017E4,2.072E3,2.391E3,1.0282E4],"tree_param":{"num_deleted":"0","num_feature":"9","num_nodes":"15","size_leaf_vector":"1"}},{"base_weights":[1.7696721E-3,-3.5242644E-1,7.8374594E-2,-1.5149723E-1,-8.50288E-1,5.4916483E-1,-7.4515015E-2,-1.372535E-1,2.8733078E-3,-1.2731284E-1,-2.4244016E-1,6.616979E-2,2.530303E-1,-3.7136186E-2,4.1654695E-2],"categories":[],"categories_nodes":[],"categories_segments":[],"categories_sizes":[],"default_left":[0,0,0,0,0,0,0,0,0,0,0,0,0,0,0],"id":45,"left_children":[1,3,5,7,9,11,13,-1,-1,-1,-1,-1,-1,-1,-1],"loss_changes":[7.4374005E2,4.8724652E2,1.6225583E3,3.7903412E2,8.474963E1,8.3584314E2,7.657482E2,0E0,0E0,0E0,0E0,0E0,0E0,0E0,0E0],"parents":[2147483647,0,0,1,1,2,2,3,3,4,4,5,5,6,6],"right_children":[2,4,6,8,10,12,14,-1,-1,-1,-1,-1,-1,-1,-1],"split_conditions":[7.366667E0,7.3E0,8.8E0,5.1E0,1.02E1,1.1766666E1,1.4933333E1,-1.372535E-1,2.8733078E-3,-1.2731284E-1,-2.4244016E-1,6.616979E-2,2.530303E-1,-3.7136186E-2,4.1654695E-2],"split_indices":[2,6,6,2,6,2,2,0,0,0,0,0,0,0,0],"split_type":[0,0,0,0,0,0,0,0,0,0,0,0,0,0,0],"sum_hessian":[2.7414E4,4.874E3,2.254E4,3.473E3,1.401E3,5.526E3,1.7014E4,7.16E2,2.757E3,1.175E3,2.26E2,4.696E3,8.3E2,1.1757E4,5.257E3],"tree_param":{"num_deleted":"0","num_feature":"9","num_nodes":"15","size_leaf_vector":"1"}},{"base_weights":[-1.487988E-3,3.3790655E-2,-8.414699E-1,4.6415922E-1,-2.3464069E-2,-5.992786E-1,-1.3733542E0,5.9287842E-2,1.16436034E-1,-6.889728E-4,-9.332723E-2,-1.0631796E-1,1.18338E0,-2.5525197E-1,3.5320747E-1],"categories":[],"categories_nodes":[],"categories_segments":[],"categories_sizes":[],"default_left":[0,0,0,0,0,0,0,0,0,0,0,0,0,0,0],"id":46,"left_children":[1,3,5,7,9,11,13,-1,-1,-1,-1,-1,-1,-1,-1],"loss_changes":[8.1165375E2,6.4762427E2,1.4157733E2,7.816644E1,2.3452676E2,1.1303937E2,1.3475122E2,0E0,0E0,0E0,0E0,0E0,0E0,0E0,0E0],"parents":[2147483647,0,0,1,1,2,2,3,3,4,4,5,5,6,6],"right_children":[2,4,6,8,10,12,14,-1,-1,-1,-1,-1,-1,-1,-1],"split_conditions":[2.12E1,5.4E0,2.45E1,2.16E1,2.08E1,2.25E1,2.35E1,5.9287842E-2,1.16436034E-1,-6.889728E-4,-9.332723E-2,-1.0631796E-1,1.18338E0,-2.5525197E-1,3.5320747E-1],"split_indices":[6,5,6,0,5,1,1,0,0,0,0,0,0,0,0],"split_type":[0,0,0,0,0,0,0,0,0,0,0,0,0,0,0],"sum_hessian":[2.7381E4,2.6277E4,1.104E3,3.086E3,2.3191E4,7.59E2,3.45E2,1.987E3,1.099E3,2.2356E4,8.35E2,7.57E2,2E0,3.34E2,1.1E1],"tree_param":{"num_deleted":"0","num_feature":"9","num_nodes":"15","size_leaf_vector":"1"}},{"base_weights":[-1.9361097E-3,-3.5459533E-2,8.1492615E-1,1.568053E-2,-9.488692E-1,1.2483252E0,-5.983209E-1,7.1127424E-3,-2.3202686E-1,-1.278113E-1,-3.2776165E-1,4.3506995E-1,1.3681515E-1,-2.1988402E-1,1.8165432E-1],"categories":[],"categories_nodes":[],"categories_segments":[],"categories_sizes":[],"default_left":[0,0,0,0,0,0,0,0,0,0,0,0,0,0,0],"id":47,"left_children":[1,3,5,7,9,11,13,-1,-1,-1,-1,-1,-1,-1,-1],"loss_changes":[7.523158E2,1.2334471E3,6.635474E2,8.804962E2,2.73761E2,4.8015015E2,2.8746722E2,0E0,0E0,0E0,0E0,0E0,0E0,0E0,0E0],"parents":[2147483647,0,0,1,1,2,2,3,3,4,4,5,5,6,6],"right_children":[2,4,6,8,10,12,14,-1,-1,-1,-1,-1,-1,-1,-1],"split_conditions":[1.93E1,1.92E1,2.45E1,2.08E1,2.27E1,1.99E1,2.4066668E1,7.1127424E-3,-2.3202686E-1,-1.278113E-1,-3.2776165E-1,4.3506995E-1,1.3681515E-1,-2.1988402E-1,1.8165432E-1],"split_indices":[2,6,6,5,6,5,2,0,0,0,0,0,0,0,0],"split_type":[0,0,0,0,0,0,0,0,0,0,0,0,0,0,0],"sum_hessian":[2.7482E4,2.6399E4,1.083E3,2.4999E4,1.4E3,8.29E2,2.54E2,2.4537E4,4.62E2,1.155E3,2.45E2,2.15E2,6.14E2,1.8E2,7.4E1],"tree_param":{"num_deleted":"0","num_feature":"9","num_nodes":"15","size_leaf_vector":"1"}},{"base_weights":[2.7399533E-3,-2.9252395E-1,9.1625735E-2,-1.1721055E-1,-7.9704905E-1,8.29066E-1,-1.5284355E-2,2.4137426E-2,-8.137167E-2,-1.1499427E-1,-2.1670255E-1,2.1195714E-1,4.5008743E-3,-3.416704E-2,4.3458655E-2],"categories":[],"categories_nodes":[],"categories_segments":[],"categories_sizes":[],"default_left":[0,0,0,0,0,0,0,0,0,0,0,0,0,0,0],"id":48,"left_children":[1,3,5,7,9,11,13,-1,-1,-1,-1,-1,-1,-1,-1],"loss_changes":[7.198289E2,5.6100824E2,1.6625215E3,4.3360968E2,9.611609E1,8.6987E2,9.087902E2,0E0,0E0,0E0,0E0,0E0,0E0,0E0,0E0],"parents":[2147483647,0,0,1,1,2,2,3,3,4,4,5,5,6,6],"right_children":[2,4,6,8,10,12,14,-1,-1,-1,-1,-1,-1,-1,-1],"split_conditions":[7.9333334E0,7.4E0,7.7E0,7E0,7.9E0,1.23E1,1.3666667E1,2.4137426E-2,-8.137167E-2,-1.1499427E-1,-2.1670255E-1,2.1195714E-1,4.5008743E-3,-3.416704E-2,4.3458655E-2],"split_indices":[2,5,5,6,6,6,2,0,0,0,0,0,0,0,0],"split_type":[0,0,0,0,0,0,0,0,0,0,0,0,0,0,0],"sum_hessian":[2.743E4,6.346E3,2.1084E4,4.71E3,1.636E3,2.67E3,1.8414E4,2.734E3,1.976E3,1.286E3,3.5E2,1.773E3,8.97E2,1.0932E4,7.482E3],"tree_param":{"num_deleted":"0","num_feature":"9","num_nodes":"15","size_leaf_vector":"1"}},{"base_weights":[-1.7294254E-3,-5.5304307E-1,3.9246045E-2,-2.6909783E-1,-9.1938794E-1,9.6538645E-1,-1.1327492E-2,-1.6195805E-1,-2.7688325E-3,-1.1120145E-1,-1.9776425E-1,2.4631089E-1,7.107229E-2,7.6589555E-2,-1.273538E-2],"categories":[],"categories_nodes":[],"categories_segments":[],"categories_sizes":[],"default_left":[0,0,0,0,0,0,0,0,0,0,0,0,0,0,0],"id":49,"left_children":[1,3,5,7,9,11,13,-1,-1,-1,-1,-1,-1,-1,-1],"loss_changes":[6.2106146E2,1.9746564E2,1.1985697E3,1.8263148E2,5.1902405E1,3.4258496E2,6.9789703E2,0E0,0E0,0E0,0E0,0E0,0E0,0E0,0E0],"parents":[2147483647,0,0,1,1,2,2,3,3,4,4,5,5,6,6],"right_children":[2,4,6,8,10,12,14,-1,-1,-1,-1,-1,-1,-1,-1],"split_conditions":[5.9666667E0,5E0,5E0,4.4E0,1.59E1,9.3E0,6.2E0,-1.6195805E-1,-2.7688325E-3,-1.1120145E-1,-1.9776425E-1,2.4631089E-1,7.107229E-2,7.6589555E-2,-1.273538E-2],"split_indices":[2,5,5,2,0,6,6,0,0,0,0,0,0,0,0],"split_type":[0,0,0,0,0,0,0,0,0,0,0,0,0,0,0],"sum_hessian":[2.7485E4,1.902E3,2.5583E4,1.072E3,8.3E2,1.325E3,2.4258E4,2.92E2,7.8E2,3.84E2,4.46E2,7.15E2,6.1E2,2.93E3,2.1328E4],"tree_param":{"num_deleted":"0","num_feature":"9","num_nodes":"15","size_leaf_vector":"1"}},{"base_weights":[1.2426826E-3,-1.7050146E-1,1.2584494E-1,-8.953379E-2,-1.0516698E0,7.896976E-1,-7.701066E-4,-5.573761E-2,9.374964E-3,-1.4247726E-1,-4.046309E-1,2.680689E-1,1.00013085E-1,-3.0364603E-2,4.4794027E-2],"categories":[],"categories_nodes":[],"categories_segments":[],"categories_sizes":[],"default_left":[0,0,0,0,0,0,0,0,0,0,0,0,0,0,0],"id":50,"left_children":[1,3,5,7,9,11,13,-1,-1,-1,-1,-1,-1,-1,-1],"loss_changes":[5.893121E2,8.25677E2,1.3418365E3,3.597024E2,2.8070215E2,4.0795483E2,6.1811145E2,0E0,0E0,0E0,0E0,0E0,0E0,0E0,0E0],"parents":[2147483647,0,0,1,1,2,2,3,3,4,4,5,5,6,6],"right_children":[2,4,6,8,10,12,14,-1,-1,-1,-1,-1,-1,-1,-1],"split_conditions":[9.866667E0,1.1E1,1E1,7E0,1.38E1,6.9E0,1.4933333E1,-5.573761E-2,9.374964E-3,-1.4247726E-1,-4.046309E-1,2.680689E-1,1.00013085E-1,-3.0364603E-2,4.4794027E-2],"split_indices":[2,5,5,2,5,5,2,0,0,0,0,0,0,0,0],"split_type":[0,0,0,0,0,0,0,0,0,0,0,0,0,0,0],"sum_hessian":[2.7539E4,1.1578E4,1.5961E4,1.0604E4,9.74E2,2.557E3,1.3404E4,4.03E3,6.574E3,8.33E2,1.41E2,5.4E2,2.017E3,8.013E3,5.391E3],"tree_param":{"num_deleted":"0","num_feature":"9","num_nodes":"15","size_leaf_vector":"1"}},{"base_weights":[-6.6536845E-4,1.0641244E-1,-2.5303057E-1,2.8042456E-2,9.928479E-1,-1.0356147E0,-1.2965785E-1,1.391309E-2,-2.2809675E-1,2.5336474E-1,4.603725E-2,-1.2772621E-1,-2.5713998E-1,-3.463905E-2,1.6887741E-1],"categories":[],"categories_nodes":[],"categories_segments":[],"categories_sizes":[],"default_left":[0,0,0,0,0,0,0,0,0,0,0,0,0,0,0],"id":51,"left_children":[1,3,5,7,9,11,13,-1,-1,-1,-1,-1,-1,-1,-1],"loss_changes":[7.4225323E2,1.3392589E3,7.896885E2,1.2746321E3,5.48057E2,1.4946484E2,5.6800867E2,0E0,0E0,0E0,0E0,0E0,0E0,0E0,0E0],"parents":[2147483647,0,0,1,1,2,2,3,3,4,4,5,5,6,6],"right_children":[2,4,6,8,10,12,14,-1,-1,-1,-1,-1,-1,-1,-1],"split_conditions":[1.4E1,1.4166667E1,1.1666667E1,1.62E1,1.85E1,1.58E1,2.1233334E1,1.391309E-2,-2.2809675E-1,2.5336474E-1,4.603725E-2,-1.2772621E-1,-2.5713998E-1,-3.463905E-2,1.6887741E-1],"split_indices":[6,2,2,5,5,6,2,0,0,0,0,0,0,0,0],"split_type":[0,0,0,0,0,0,0,0,0,0,0,0,0,0,0],"sum_hessian":[2.7466E4,1.9283E4,8.183E3,1.7717E4,1.566E3,1.114E3,7.069E3,1.7051E4,6.66E2,9.39E2,6.27E2,6.84E2,4.3E2,6.639E3,4.3E2],"tree_param":{"num_deleted":"0","num_feature":"9","num_nodes":"15","size_leaf_vector":"1"}},{"base_weights":[4.355765E-3,6.23514E-2,-3.586282E-1,-1.2602533E-1,3.1606624E-1,-8.0535597E-1,-2.7435736E-3,-6.4231283E-3,-1.2816444E-1,1.7297891E-1,3.613747E-2,-9.906252E-2,-2.582788E-1,3.6151823E-2,-1.5162948E-1],"categories":[],"categories_nodes":[],"categories_segments":[],"categories_sizes":[],"default_left":[0,0,0,0,0,0,0,0,0,0,0,0,0,0,0],"id":52,"left_children":[1,3,5,7,9,11,13,-1,-1,-1,-1,-1,-1,-1,-1],"loss_changes":[5.794728E2,1.1346423E3,6.026045E2,7.4901074E2,7.379665E2,2.6761572E2,3.969975E2,0E0,0E0,0E0,0E0,0E0,0E0,0E0,0E0],"parents":[2147483647,0,0,1,1,2,2,3,3,4,4,5,5,6,6],"right_children":[2,4,6,8,10,12,14,-1,-1,-1,-1,-1,-1,-1,-1],"split_conditions":[1.73E1,1.0733334E1,1.65E1,1.2E1,8.7E0,2E1,2.38E1,-6.4231283E-3,-1.2816444E-1,1.7297891E-1,3.613747E-2,-9.906252E-2,-2.582788E-1,3.6151823E-2,-1.5162948E-1],"split_indices":[6,2,2,6,6,6,6,0,0,0,0,0,0,0,0],"split_type":[0,0,0,0,0,0,0,0,0,0,0,0,0,0,0],"sum_hessian":[2.7531E4,2.3739E4,3.792E3,1.3623E4,1.0116E4,1.681E3,2.111E3,1.1922E4,1.701E3,1.338E3,8.778E3,1.268E3,4.13E2,1.699E3,4.12E2],"tree_param":{"num_deleted":"0","num_feature":"9","num_nodes":"15","size_leaf_vector":"1"}},{"base_weights":[2.3519115E-3,8.2481176E-2,-2.387501E-1,-5.247757E-2,5.340643E-1,-8.026218E-1,3.7404183E-2,-8.757331E-4,-1.6901387E-1,2.6757586E-1,6.704782E-2,-1.0190821E-1,-2.978655E-1,1.9988587E-1,-2.000768E-2],"categories":[],"categories_nodes":[],"categories_segments":[],"categories_sizes":[],"default_left":[0,0,0,0,0,0,0,0,0,0,0,0,0,0,0],"id":53,"left_children":[1,3,5,7,9,11,13,-1,-1,-1,-1,-1,-1,-1,-1],"loss_changes":[5.2978204E2,1.2547102E3,1.0653417E3,6.996863E2,6.9560364E2,4.3740625E2,7.9730145E2,0E0,0E0,0E0,0E0,0E0,0E0,0E0,0E0],"parents":[2147483647,0,0,1,1,2,2,3,3,4,4,5,5,6,6],"right_children":[2,4,6,8,10,12,14,-1,-1,-1,-1,-1,-1,-1,-1],"split_conditions":[1.48E1,1.19E1,1.48E1,1.51E1,1.06E1,1.79E1,1.25E1,-8.757331E-4,-1.6901387E-1,2.6757586E-1,6.704782E-2,-1.0190821E-1,-2.978655E-1,1.9988587E-1,-2.000768E-2],"split_indices":[5,2,2,6,6,5,6,0,0,0,0,0,0,0,0],"split_type":[0,0,0,0,0,0,0,0,0,0,0,0,0,0,0],"sum_hessian":[2.7425E4,2.0585E4,6.84E3,1.5848E4,4.737E3,2.249E3,4.591E3,1.5082E4,7.66E2,5.81E2,4.156E3,1.838E3,4.11E2,5.52E2,4.039E3],"tree_param":{"num_deleted":"0","num_feature":"9","num_nodes":"15","size_leaf_vector":"1"}},{"base_weights":[-2.6365574E-3,5.485988E-1,-3.7394546E-2,-4.76107E-1,8.181324E-1,-3.0057675E-1,5.432607E-2,-1.877248E-1,-3.648487E-2,3.5654092E-1,1.01632245E-1,-3.7942264E-2,-1.637325E-1,1.2423811E-1,-5.5227918E-3],"categories":[],"categories_nodes":[],"categories_segments":[],"categories_sizes":[],"default_left":[0,0,0,0,0,0,0,0,0,0,0,0,0,0,0],"id":54,"left_children":[1,3,5,7,9,11,13,-1,-1,-1,-1,-1,-1,-1,-1],"loss_changes":[5.2621295E2,4.5002832E2,6.239339E2,5.4762047E1,3.661889E2,3.466139E2,1.1102992E3,0E0,0E0,0E0,0E0,0E0,0E0,0E0,0E0],"parents":[2147483647,0,0,1,1,2,2,3,3,4,4,5,5,6,6],"right_children":[2,4,6,8,10,12,14,-1,-1,-1,-1,-1,-1,-1,-1],"split_conditions":[4.5E0,4.8E0,8.533334E0,3.7666667E0,4.8E0,1.07E1,8E0,-1.877248E-1,-3.648487E-2,3.5654092E-1,1.01632245E-1,-3.7942264E-2,-1.637325E-1,1.2423811E-1,-5.5227918E-3],"split_indices":[6,2,2,2,5,6,5,0,0,0,0,0,0,0,0],"split_type":[0,0,0,0,0,0,0,0,0,0,0,0,0,0,0],"sum_hessian":[2.7473E4,1.629E3,2.5844E4,3.39E2,1.29E3,6.68E3,1.9164E4,1.01E2,2.38E2,1.96E2,1.094E3,5.956E3,7.24E2,2.193E3,1.6971E4],"tree_param":{"num_deleted":"0","num_feature":"9","num_nodes":"15","size_leaf_vector":"1"}},{"base_weights":[2.9525135E-4,3.3387672E-2,-4.8778918E-1,-7.63076E-3,9.7283864E-1,-1.4143847E0,5.3203747E-2,9.458019E-3,-8.070461E-2,5.6721514E-1,1.2899287E-1,-2.2198533E-1,-7.5255895E-1,1.9301075E-1,-4.2453997E-2],"categories":[],"categories_nodes":[],"categories_segments":[],"categories_sizes":[],"default_left":[0,0,0,0,0,0,0,0,0,0,0,0,0,0,0],"id":55,"left_children":[1,3,5,7,9,11,13,-1,-1,-1,-1,-1,-1,-1,-1],"loss_changes":[4.4288354E2,9.90194E2,8.73171E2,7.145566E2,5.532996E2,2.2873291E2,3.5422516E2,0E0,0E0,0E0,0E0,0E0,0E0,0E0,0E0],"parents":[2147483647,0,0,1,1,2,2,3,3,4,4,5,5,6,6],"right_children":[2,4,6,8,10,12,14,-1,-1,-1,-1,-1,-1,-1,-1],"split_conditions":[1.97E1,1.7366667E1,1.8166666E1,1.63E1,1.51E1,2.42E1,1.66E1,9.458019E-3,-8.070461E-2,5.6721514E-1,1.2899287E-1,-2.2198533E-1,-7.5255895E-1,1.9301075E-1,-4.2453997E-2],"split_indices":[5,2,2,6,6,5,6,0,0,0,0,0,0,0,0],"split_type":[0,0,0,0,0,0,0,0,0,0,0,0,0,0,0],"sum_hessian":[2.7429E4,2.5688E4,1.741E3,2.4613E4,1.075E3,6.42E2,1.099E3,2.1673E4,2.94E3,9.3E1,9.82E2,6.17E2,2.5E1,2.41E2,8.58E2],"tree_param":{"num_deleted":"0","num_feature":"9","num_nodes":"15","size_leaf_vector":"1"}},{"base_weights":[-3.522879E-4,-1.5750758E-2,9.618745E-1,8.110309E-3,-1.2792224E0,1.5152259E0,-1.0796078E0,4.352405E-3,-1.9274104E-1,-1.7209922E-1,-4.1908485E-1,1.8757376E-1,6.603169E-1,-4.5123243E-1,-1.3319112E-2],"categories":[],"categories_nodes":[],"categories_segments":[],"categories_sizes":[],"default_left":[0,0,0,0,0,0,0,0,0,0,0,0,0,0,0],"id":56,"left_children":[1,3,5,7,9,11,13,-1,-1,-1,-1,-1,-1,-1,-1],"loss_changes":[4.0638638E2,8.1488306E2,4.881526E2,5.170615E2,1.5990869E2,3.3325165E2,1.4198172E2,0E0,0E0,0E0,0E0,0E0,0E0,0E0,0E0],"parents":[2147483647,0,0,1,1,2,2,3,3,4,4,5,5,6,6],"right_children":[2,4,6,8,10,12,14,-1,-1,-1,-1,-1,-1,-1,-1],"split_conditions":[2.1233334E1,2.23E1,2.72E1,2.2E1,2.55E1,2.4066668E1,2.4066668E1,4.352405E-3,-1.9274104E-1,-1.7209922E-1,-4.1908485E-1,1.8757376E-1,6.603169E-1,-4.5123243E-1,-1.3319112E-2],"split_indices":[2,6,6,5,6,2,2,0,0,0,0,0,0,0,0],"split_type":[0,0,0,0,0,0,0,0,0,0,0,0,0,0,0],"sum_hessian":[2.7448E4,2.7016E4,4.32E2,2.6515E4,5.01E2,3.4E2,9.2E1,2.6117E4,3.98E2,4.05E2,9.6E1,2.88E2,5.2E1,3.6E1,5.6E1],"tree_param":{"num_deleted":"0","num_feature":"9","num_nodes":"15","size_leaf_vector":"1"}},{"base_weights":[3.4358876E-3,-1.6502991E-1,9.780315E-2,2.0152906E-2,-5.0722164E-1,5.324352E-1,-2.7172059E-2,1.9301854E-2,-1.11088686E-1,-7.680044E-2,-3.0963328E-1,2.2002286E-1,6.3314565E-2,-4.433127E-2,2.7889924E-2],"categories":[],"categories_nodes":[],"categories_segments":[],"categories_sizes":[],"default_left":[0,0,0,0,0,0,0,0,0,0,0,0,0,0,0],"id":57,"left_children":[1,3,5,7,9,11,13,-1,-1,-1,-1,-1,-1,-1,-1],"loss_changes":[4.3613046E2,6.2426904E2,9.5540356E2,3.9356683E2,2.6715424E2,4.80912E2,5.988554E2,0E0,0E0,0E0,0E0,0E0,0E0,0E0,0E0],"parents":[2147483647,0,0,1,1,2,2,3,3,4,4,5,5,6,6],"right_children":[2,4,6,8,10,12,14,-1,-1,-1,-1,-1,-1,-1,-1],"split_conditions":[9.266666E0,7.7E0,1.03E1,1.1E1,1.29E1,8.8E0,1.36E1,1.9301854E-2,-1.11088686E-1,-7.680044E-2,-3.0963328E-1,2.2002286E-1,6.3314565E-2,-4.433127E-2,2.7889924E-2],"split_indices":[2,5,5,6,5,6,2,0,0,0,0,0,0,0,0],"split_type":[0,0,0,0,0,0,0,0,0,0,0,0,0,0,0],"sum_hessian":[2.7435E4,9.849E3,1.7586E4,6.39E3,3.459E3,3.928E3,1.3658E4,5.614E3,7.76E2,3.307E3,1.52E2,7.03E2,3.225E3,6.157E3,7.501E3],"tree_param":{"num_deleted":"0","num_feature":"9","num_nodes":"15","size_leaf_vector":"1"}},{"base_weights":[-2.5162483E-3,-2.7102777E-1,5.3315748E-2,3.6162642E-1,-3.6659864E-1,4.4522384E-1,-4.7116674E-2,-6.787214E-2,1.2843089E-1,-1.5071906E-1,-4.7792077E-2,5.7187892E-2,2.2218569E-1,-2.1060279E-2,4.1041866E-2],"categories":[],"categories_nodes":[],"categories_segments":[],"categories_sizes":[],"default_left":[0,0,0,0,0,0,0,0,0,0,0,0,0,0,0],"id":58,"left_children":[1,3,5,7,9,11,13,-1,-1,-1,-1,-1,-1,-1,-1],"loss_changes":[4.1104828E2,2.853884E2,8.933708E2,1.8135625E2,1.8451459E2,4.399348E2,3.90896E2,0E0,0E0,0E0,0E0,0E0,0E0,0E0,0E0],"parents":[2147483647,0,0,1,1,2,2,3,3,4,4,5,5,6,6],"right_children":[2,4,6,8,10,12,14,-1,-1,-1,-1,-1,-1,-1,-1],"split_conditions":[7.3E0,3.9E0,8.2E0,4.6E0,5.3E0,1.2133333E1,1.6066668E1,-6.787214E-2,1.2843089E-1,-1.5071906E-1,-4.7792077E-2,5.7187892E-2,2.2218569E-1,-2.1060279E-2,4.1041866E-2],"split_indices":[2,6,6,2,2,2,2,0,0,0,0,0,0,0,0],"split_type":[0,0,0,0,0,0,0,0,0,0,0,0,0,0,0],"sum_hessian":[2.7414E4,4.72E3,2.2694E4,6.19E2,4.101E3,4.63E3,1.8064E4,2.09E2,4.1E2,6.02E2,3.499E3,4.091E3,5.39E2,1.4291E4,3.773E3],"tree_param":{"num_deleted":"0","num_feature":"9","num_nodes":"15","size_leaf_vector":"1"}},{"base_weights":[4.140254E-3,6.415357E-2,-2.818304E-1,-3.4311164E-2,4.686066E-1,-1.3259412E0,-1.2366851E-1,5.7412824E-3,-8.5487604E-2,2.1680486E-1,4.6988804E-2,-1.9221854E-1,-4.2410645E-1,1.4361434E-1,-4.421525E-2],"categories":[],"categories_nodes":[],"categories_segments":[],"categories_sizes":[],"default_left":[0,0,0,0,0,0,0,0,0,0,0,0,0,0,0],"id":59,"left_children":[1,3,5,7,9,11,13,-1,-1,-1,-1,-1,-1,-1,-1],"loss_changes":[4.7028995E2,9.023213E2,7.8443506E2,5.7275555E2,6.862513E2,1.4622363E2,5.30997E2,0E0,0E0,0E0,0E0,0E0,0E0,0E0,0E0],"parents":[2147483647,0,0,1,1,2,2,3,3,4,4,5,5,6,6],"right_children":[2,4,6,8,10,12,14,-1,-1,-1,-1,-1,-1,-1,-1],"split_conditions":[1.63E1,1.2966666E1,1.39E1,1.26E1,1.28E1,1.92E1,1.12E1,5.7412824E-3,-8.5487604E-2,2.1680486E-1,4.6988804E-2,-1.9221854E-1,-4.2410645E-1,1.4361434E-1,-4.421525E-2],"split_indices":[5,2,2,5,6,5,6,0,0,0,0,0,0,0,0],"split_type":[0,0,0,0,0,0,0,0,0,0,0,0,0,0,0],"sum_hessian":[2.7407E4,2.2654E4,4.753E3,1.8218E4,4.436E3,6.25E2,4.128E3,1.5895E4,2.323E3,8.73E2,3.563E3,5.3E2,9.5E1,5.05E2,3.623E3],"tree_param":{"num_deleted":"0","num_feature":"9","num_nodes":"15","size_leaf_vector":"1"}},{"base_weights":[-5.003101E-3,3.1259768E-2,-4.2700887E-1,-1.3756523E-2,6.7056066E-1,-7.028384E-1,2.9501787E-1,4.3314877E-3,-1.7260693E-1,1.7470439E-1,2.4840811E-2,-9.741988E-2,-3.805962E-1,2.075317E-1,-7.093232E-2],"categories":[],"categories_nodes":[],"categories_segments":[],"categories_sizes":[],"default_left":[0,0,0,0,0,0,0,0,0,0,0,0,0,0,0],"id":60,"left_children":[1,3,5,7,9,11,13,-1,-1,-1,-1,-1,-1,-1,-1],"loss_changes":[4.2139267E2,7.297299E2,4.3409335E2,9.163982E2,3.0433978E2,3.2203802E2,3.9011115E2,0E0,0E0,0E0,0E0,0E0,0E0,0E0,0E0],"parents":[2147483647,0,0,1,1,2,2,3,3,4,4,5,5,6,6],"right_children":[2,4,6,8,10,12,14,-1,-1,-1,-1,-1,-1,-1,-1],"split_conditions":[1.92E1,1.6633333E1,2.0066668E1,1.81E1,2.01E1,2.05E1,2.2E1,4.3314877E-3,-1.7260693E-1,1.7470439E-1,2.4840811E-2,-9.741988E-2,-3.805962E-1,2.075317E-1,-7.093232E-2],"split_indices":[6,2,2,5,5,5,5,0,0,0,0,0,0,0,0],"split_type":[0,0,0,0,0,0,0,0,0,0,0,0,0,0,0],"sum_hessian":[2.7528E4,2.5349E4,2.179E3,2.3681E4,1.668E3,1.577E3,6.02E2,2.2785E4,8.96E2,1.004E3,6.64E2,1.448E3,1.29E2,2.63E2,3.39E2],"tree_param":{"num_deleted":"0","num_feature":"9","num_nodes":"15","size_leaf_vector":"1"}},{"base_weights":[2.5673641E-3,3.9246643E-1,-3.4539673E-2,-1.0503494E-2,9.974706E-1,-2.0987733E-1,9.410216E-2,5.1217977E-2,-7.571676E-2,2.0624782E-1,4.1014776E-2,-2.8697949E-2,-2.4562526E-1,6.423564E-2,-2.0905867E-2],"categories":[],"categories_nodes":[],"categories_segments":[],"categories_sizes":[],"default_left":[0,0,0,0,0,0,0,0,0,0,0,0,0,0,0],"id":61,"left_children":[1,3,5,7,9,11,13,-1,-1,-1,-1,-1,-1,-1,-1],"loss_changes":[3.9756607E2,5.8250964E2,5.658034E2,1.9072252E2,1.4753333E2,5.525676E2,8.753239E2,0E0,0E0,0E0,0E0,0E0,0E0,0E0,0E0],"parents":[2147483647,0,0,1,1,2,2,3,3,4,4,5,5,6,6],"right_children":[2,4,6,8,10,12,14,-1,-1,-1,-1,-1,-1,-1,-1],"split_conditions":[5E0,6.6666665E0,1.0433333E1,6.3E0,1.26E1,1.34E1,1.38E1,5.1217977E-2,-7.571676E-2,2.0624782E-1,4.1014776E-2,-2.8697949E-2,-2.4562526E-1,6.423564E-2,-2.0905867E-2],"split_indices":[5,2,2,6,6,5,5,0,0,0,0,0,0,0,0],"split_type":[0,0,0,0,0,0,0,0,0,0,0,0,0,0,0],"sum_hessian":[2.7471E4,2.388E3,2.5083E4,1.433E3,9.55E2,1.0616E4,1.4467E4,8.34E2,5.99E2,7.52E2,2.03E2,1.0258E4,3.58E2,6.297E3,8.17E3],"tree_param":{"num_deleted":"0","num_feature":"9","num_nodes":"15","size_leaf_vector":"1"}},{"base_weights":[1.2667876E-3,-8.646646E-3,1.2981521E0,9.99102E-3,-1.0782549E0,-2.95953E-1,2.2304945E0,-3.4314706E-3,1.0764726E-1,-4.1377956E-1,-1.4331926E-1,-1.6142544E-1,2.065499E-1,8.106687E-1,2.9671147E-1],"categories":[],"categories_nodes":[],"categories_segments":[],"categories_sizes":[],"default_left":[0,0,0,0,0,0,0,0,0,0,0,0,0,0,0],"id":62,"left_children":[1,3,5,7,9,11,13,-1,-1,-1,-1,-1,-1,-1,-1],"loss_changes":[3.542042E2,5.447501E2,3.112516E2,4.9700067E2,1.5061346E2,7.434872E1,1.6298688E2,0E0,0E0,0E0,0E0,0E0,0E0,0E0,0E0],"parents":[2147483647,0,0,1,1,2,2,3,3,4,4,5,5,6,6],"right_children":[2,4,6,8,10,12,14,-1,-1,-1,-1,-1,-1,-1,-1],"split_conditions":[2.28E1,2.24E1,7E0,1.8E1,1.7466667E1,2.21E1,2.2E1,-3.4314706E-3,1.0764726E-1,-4.1377956E-1,-1.4331926E-1,-1.6142544E-1,2.065499E-1,8.106687E-1,2.9671147E-1],"split_indices":[2,5,4,2,2,1,5,0,0,0,0,0,0,0,0],"split_type":[0,0,0,0,0,0,0,0,0,0,0,0,0,0,0],"sum_hessian":[2.7518E4,2.7309E4,2.09E2,2.6841E4,4.68E2,7.7E1,1.32E2,2.5597E4,1.244E3,7.2E1,3.96E2,5.4E1,2.3E1,2.2E1,1.1E2],"tree_param":{"num_deleted":"0","num_feature":"9","num_nodes":"15","size_leaf_vector":"1"}},{"base_weights":[1.9358983E-4,2.3687759E-1,-4.740845E-2,-4.0398154E-2,6.7184854E-1,-1.9929472E-1,8.999459E-2,-8.704134E-2,2.0175876E-2,2.0518163E-1,8.722992E-2,-2.4617316E-2,-1.7929186E-1,7.176887E-2,-1.0974284E-2],"categories":[],"categories_nodes":[],"categories_segments":[],"categories_sizes":[],"default_left":[0,0,0,0,0,0,0,0,0,0,0,0,0,0,0],"id":63,"left_children":[1,3,5,7,9,11,13,-1,-1,-1,-1,-1,-1,-1,-1],"loss_changes":[3.096347E2,5.55237E2,4.7742822E2,2.0731856E2,1.5296027E2,5.1268994E2,6.068447E2,0E0,0E0,0E0,0E0,0E0,0E0,0E0,0E0],"parents":[2147483647,0,0,1,1,2,2,3,3,4,4,5,5,6,6],"right_children":[2,4,6,8,10,12,14,-1,-1,-1,-1,-1,-1,-1,-1],"split_conditions":[6.2E0,7.233333E0,1.1466666E1,5.1E0,4.5E0,1.37E1,1.35E1,-8.704134E-2,2.0175876E-2,2.0518163E-1,8.722992E-2,-2.4617316E-2,-1.7929186E-1,7.176887E-2,-1.0974284E-2],"split_indices":[5,2,2,2,5,5,5,0,0,0,0,0,0,0,0],"split_type":[0,0,0,0,0,0,0,0,0,0,0,0,0,0,0],"sum_hessian":[2.7477E4,4.602E3,2.2875E4,2.81E3,1.792E3,1.0866E4,1.2009E4,7.11E2,2.099E3,4.26E2,1.366E3,1.0193E4,6.73E2,3.835E3,8.174E3],"tree_param":{"num_deleted":"0","num_feature":"9","num_nodes":"15","size_leaf_vector":"1"}},{"base_weights":[4.3499528E-4,1.2141675E-1,-1.6263798E-1,3.8905713E-1,6.526948E-2,-1.3271584E-1,-7.5745195E-1,1.8689184E-1,5.7455704E-2,5.353766E-2,7.6208147E-3,-6.623723E-2,-1.7173778E-2,-1.5327552E-1,5.9186567E-2],"categories":[],"categories_nodes":[],"categories_segments":[],"categories_sizes":[],"default_left":[0,0,0,0,0,0,0,0,0,0,0,0,0,0,0],"id":64,"left_children":[1,3,5,7,9,11,13,-1,-1,-1,-1,-1,-1,-1,-1],"loss_changes":[5.411689E2,2.365178E2,2.0762994E2,1.0323657E2,6.68916E1,9.1799805E1,8.37789E1,0E0,0E0,0E0,0E0,0E0,0E0,0E0,0E0],"parents":[2147483647,0,0,1,1,2,2,3,3,4,4,5,5,6,6],"right_children":[2,4,6,8,10,12,14,-1,-1,-1,-1,-1,-1,-1,-1],"split_conditions":[1.2E1,5.2E0,2.31E1,3E0,4.6E0,5E0,4.8E1,1.8689184E-1,5.7455704E-2,5.353766E-2,7.6208147E-3,-6.623723E-2,-1.7173778E-2,-1.5327552E-1,5.9186567E-2],"split_indices":[6,6,6,6,5,4,4,0,0,0,0,0,0,0,0],"split_type":[0,0,0,0,0,0,0,0,0,0,0,0,0,0,0],"sum_hessian":[2.7431E4,1.5749E4,1.1682E4,2.73E3,1.3019E4,1.1123E4,5.59E2,1.96E2,2.534E3,1.014E3,1.2005E4,1.269E3,9.854E3,4.98E2,6.1E1],"tree_param":{"num_deleted":"0","num_feature":"9","num_nodes":"15","size_leaf_vector":"1"}},{"base_weights":[-1.2434312E-3,9.359538E-2,-1.5849224E-1,2.695261E-3,6.309088E-1,-2.4365062E-1,4.4759768E-1,-4.075481E-2,1.861806E-2,8.800405E-2,2.8719297E-1,-1.5151966E-1,-3.1202428E-2,1.7580113E-1,-6.7399577E-3],"categories":[],"categories_nodes":[],"categories_segments":[],"categories_sizes":[],"default_left":[0,0,0,0,0,0,0,0,0,0,0,0,0,0,0],"id":65,"left_children":[1,3,5,7,9,11,13,-1,-1,-1,-1,-1,-1,-1,-1],"loss_changes":[4.0973373E2,8.3674915E2,5.3346436E2,3.723607E2,3.0455963E2,3.5794232E2,3.5780023E2,0E0,0E0,0E0,0E0,0E0,0E0,0E0,0E0],"parents":[2147483647,0,0,1,1,2,2,3,3,4,4,5,5,6,6],"right_children":[2,4,6,8,10,12,14,-1,-1,-1,-1,-1,-1,-1,-1],"split_conditions":[1.28E1,1.2366667E1,1.8866667E1,7.2E0,1.6166666E1,1E1,2.07E1,-4.075481E-2,1.861806E-2,8.800405E-2,2.8719297E-1,-1.5151966E-1,-3.1202428E-2,1.7580113E-1,-6.7399577E-3],"split_indices":[6,2,2,2,2,2,6,0,0,0,0,0,0,0,0],"split_type":[0,0,0,0,0,0,0,0,0,0,0,0,0,0,0],"sum_hessian":[2.7473E4,1.7136E4,1.0337E4,1.4657E4,2.479E3,9.064E3,1.273E3,4.481E3,1.0176E4,2.227E3,2.52E2,7.99E2,8.265E3,5.83E2,6.9E2],"tree_param":{"num_deleted":"0","num_feature":"9","num_nodes":"15","size_leaf_vector":"1"}},{"base_weights":[-4.0311306E-3,2.5316873E-1,-6.1442602E-2,1.0463348E-1,9.7059834E-1,-1.2399168E-1,2.0281433E-1,3.718697E-2,-8.455803E-2,2.3902409E-1,7.61916E-2,-1.4693022E-2,-1.7748633E-1,1.5441552E-1,5.595933E-4],"categories":[],"categories_nodes":[],"categories_segments":[],"categories_sizes":[],"default_left":[0,0,0,0,0,0,0,0,0,0,0,0,0,0,0],"id":66,"left_children":[1,3,5,7,9,11,13,-1,-1,-1,-1,-1,-1,-1,-1],"loss_changes":[4.0590582E2,5.3417554E2,3.7149753E2,2.7808844E2,1.9061328E2,6.3453754E2,5.978893E2,0E0,0E0,0E0,0E0,0E0,0E0,0E0,0E0],"parents":[2147483647,0,0,1,1,2,2,3,3,4,4,5,5,6,6],"right_children":[2,4,6,8,10,12,14,-1,-1,-1,-1,-1,-1,-1,-1],"split_conditions":[6.4E0,9.766666E0,1.5666667E1,1E1,1.44E1,1.74E1,1.6E1,3.718697E-2,-8.455803E-2,2.3902409E-1,7.61916E-2,-1.4693022E-2,-1.7748633E-1,1.5441552E-1,5.595933E-4],"split_indices":[6,2,2,5,5,5,5,0,0,0,0,0,0,0,0],"split_type":[0,0,0,0,0,0,0,0,0,0,0,0,0,0,0],"sum_hessian":[2.7493E4,5.016E3,2.2477E4,4.156E3,8.6E2,1.8176E4,4.301E3,3.5E3,6.56E2,4.77E2,3.83E2,1.7441E4,7.35E2,9.57E2,3.344E3],"tree_param":{"num_deleted":"0","num_feature":"9","num_nodes":"15","size_leaf_vector":"1"}},{"base_weights":[1.2854909E-3,5.5268977E-2,-2.1867841E-1,3.8798165E-3,6.278991E-1,-2.8752917E-1,8.7954694E-1,6.951541E-3,-9.7637E-2,1.6856262E-1,3.4814194E-2,-4.215194E-2,-3.8400692E-1,4.535355E-1,7.329253E-2],"categories":[],"categories_nodes":[],"categories_segments":[],"categories_sizes":[],"default_left":[0,0,0,0,0,0,0,0,0,0,0,0,0,0,0],"id":67,"left_children":[1,3,5,7,9,11,13,-1,-1,-1,-1,-1,-1,-1,-1],"loss_changes":[3.2613748E2,6.488961E2,4.0902985E2,4.2449942E2,2.730932E2,4.154614E2,2.5350433E2,0E0,0E0,0E0,0E0,0E0,0E0,0E0,0E0],"parents":[2147483647,0,0,1,1,2,2,3,3,4,4,5,5,6,6],"right_children":[2,4,6,8,10,12,14,-1,-1,-1,-1,-1,-1,-1,-1],"split_conditions":[1.59E1,1.4933333E1,2.1866667E1,1.59E1,1.81E1,2.34E1,2.24E1,6.951541E-3,-9.7637E-2,1.6856262E-1,3.4814194E-2,-4.215194E-2,-3.8400692E-1,4.535355E-1,7.329253E-2],"split_indices":[6,2,2,5,5,5,5,0,0,0,0,0,0,0,0],"split_type":[0,0,0,0,0,0,0,0,0,0,0,0,0,0,0],"sum_hessian":[2.747E4,2.2058E4,5.412E3,2.0242E4,1.816E3,5.093E3,3.19E2,1.9026E4,1.216E3,9.9E2,8.26E2,4.986E3,1.07E2,6.5E1,2.54E2],"tree_param":{"num_deleted":"0","num_feature":"9","num_nodes":"15","size_leaf_vector":"1"}},{"base_weights":[-3.5981368E-5,1.1469417E-1,-9.604422E-2,-1.2989865E-1,3.385017E-1,-4.6331507E-1,-1.9264774E-2,-1.6840197E-4,-9.6873745E-2,4.5576405E-2,1.9845217E-1,-5.447822E-2,-1.3765176E-1,1.3954134E-1,-1.163971E-2],"categories":[],"categories_nodes":[],"categories_segments":[],"categories_sizes":[],"default_left":[0,0,0,0,0,0,0,0,0,0,0,0,0,0,0],"id":68,"left_children":[1,3,5,7,9,11,13,-1,-1,-1,-1,-1,-1,-1,-1],"loss_changes":[3.0276437E2,6.854884E2,4.218681E2,3.3495636E2,3.8957892E2,1.2748303E2,5.0010083E2,0E0,0E0,0E0,0E0,0E0,0E0,0E0,