{"learner":{"attributes":{"scikit_learn":"{\"_estimator_type\": \"regressor\"}"},"feature_names":["Maximum Blood Glucose","Minimum Blood Glucose","Mean Blood Glucose in Previous 24h","Number of Hypoglycemia Episodes","Number of Hyperglycemia Episodes","Previous Blood Glucose Level","Second Previous Blood Glucose Level"],"feature_types":["float","float","float","int","int","float","float"],"gradient_booster":{"model":{"gbtree_model_param":{"num_parallel_tree":"1","num_trees":"3101"},"iteration_indptr":[0,1,2,3,4,5,6,7,8,9,10,11,12,13,14,15,16,17,18,19,20,21,22,23,24,25,26,27,28,29,30,31,32,33,34,35,36,37,38,39,40,41,42,43,44,45,46,47,48,49,50,51,52,53,54,55,56,57,58,59,60,61,62,63,64,65,66,67,68,69,70,71,72,73,74,75,76,77,78,79,80,81,82,83,84,85,86,87,88,89,90,91,92,93,94,95,96,97,98,99,100,101,102,103,104,105,106,107,108,109,110,111,112,113,114,115,116,117,118,119,120,121,122,123,124,125,126,127,128,129,130,131,132,133,134,135,136,137,138,139,140,141,142,143,144,145,146,147,148,149,150,151,152,153,154,155,156,157,158,159,160,161,162,163,164,165,166,167,168,169,170,171,172,173,174,175,176,177,178,179,180,181,182,183,184,185,186,187,188,189,190,191,192,193,194,195,196,197,198,199,200,201,202,203,204,205,206,207,208,209,210,211,212,213,214,215,216,217,218,219,220,221,222,223,224,225,226,227,228,229,230,231,232,233,234,235,236,237,238,239,240,241,242,243,244,245,246,247,248,249,250,251,252,253,254,255,256,257,258,259,260,261,262,263,264,265,266,267,268,269,270,271,272,273,274,275,276,277,278,279,280,281,282,283,284,285,286,287,288,289,290,291,292,293,294,295,296,297,298,299,300,301,302,303,304,305,306,307,308,309,310,311,312,313,314,315,316,317,318,319,320,321,322,323,324,325,326,327,328,329,330,331,332,333,334,335,336,337,338,339,340,341,342,343,344,345,346,347,348,349,350,351,352,353,354,355,356,357,358,359,360,361,362,363,364,365,366,367,368,369,370,371,372,373,374,375,376,377,378,379,380,381,382,383,384,385,386,387,388,389,390,391,392,393,394,395,396,397,398,399,400,401,402,403,404,405,406,407,408,409,410,411,412,413,414,415,416,417,418,419,420,421,422,423,424,425,426,427,428,429,430,431,432,433,434,435,436,437,438,439,440,441,442,443,444,445,446,447,448,449,450,451,452,453,454,455,456,457,458,459,460,461,462,463,464,465,466,467,468,469,470,471,472,473,474,475,476,477,478,479,480,481,482,483,484,485,486,487,488,489,490,491,492,493,494,495,496,497,498,499,500,501,502,503,504,505,506,507,508,509,510,511,512,513,514,515,516,517,518,519,520,521,522,523,524,525,526,527,528,529,530,531,532,533,534,535,536,537,538,539,540,541,542,543,544,545,546,547,548,549,550,551,552,553,554,555,556,557,558,559,560,561,562,563,564,565,566,567,568,569,570,571,572,573,574,575,576,577,578,579,580,581,582,583,584,585,586,587,588,589,590,591,592,593,594,595,596,597,598,599,600,601,602,603,604,605,606,607,608,609,610,611,612,613,614,615,616,617,618,619,620,621,622,623,624,625,626,627,628,629,630,631,632,633,634,635,636,637,638,639,640,641,642,643,644,645,646,647,648,649,650,651,652,653,654,655,656,657,658,659,660,661,662,663,664,665,666,667,668,669,670,671,672,673,674,675,676,677,678,679,680,681,682,683,684,685,686,687,688,689,690,691,692,693,694,695,696,697,698,699,700,701,702,703,704,705,706,707,708,709,710,711,712,713,714,715,716,717,718,719,720,721,722,723,724,725,726,727,728,729,730,731,732,733,734,735,736,737,738,739,740,741,742,743,744,745,746,747,748,749,750,751,752,753,754,755,756,757,758,759,760,761,762,763,764,765,766,767,768,769,770,771,772,773,774,775,776,777,778,779,780,781,782,783,784,785,786,787,788,789,790,791,792,793,794,795,796,797,798,799,800,801,802,803,804,805,806,807,808,809,810,811,812,813,814,815,816,817,818,819,820,821,822,823,824,825,826,827,828,829,830,831,832,833,834,835,836,837,838,839,840,841,842,843,844,845,846,847,848,849,850,851,852,853,854,855,856,857,858,859,860,861,862,863,864,865,866,867,868,869,870,871,872,873,874,875,876,877,878,879,880,881,882,883,884,885,886,887,888,889,890,891,892,893,894,895,896,897,898,899,900,901,902,903,904,905,906,907,908,909,910,911,912,913,914,915,916,917,918,919,920,921,922,923,924,925,926,927,928,929,930,931,932,933,934,935,936,937,938,939,940,941,942,943,944,945,946,947,948,949,950,951,952,953,954,955,956,957,958,959,960,961,962,963,964,965,966,967,968,969,970,971,972,973,974,975,976,977,978,979,980,981,982,983,984,985,986,987,988,989,990,991,992,993,994,995,996,997,998,999,1000,1001,1002,1003,1004,1005,1006,1007,1008,1009,1010,1011,1012,1013,1014,1015,1016,1017,1018,1019,1020,1021,1022,1023,1024,1025,1026,1027,1028,1029,1030,1031,1032,1033,1034,1035,1036,1037,1038,1039,1040,1041,1042,1043,1044,1045,1046,1047,1048,1049,1050,1051,1052,1053,1054,1055,1056,1057,1058,1059,1060,1061,1062,1063,1064,1065,1066,1067,1068,1069,1070,1071,1072,1073,1074,1075,1076,1077,1078,1079,1080,1081,1082,1083,1084,1085,1086,1087,1088,1089,1090,1091,1092,1093,1094,1095,1096,1097,1098,1099,1100,1101,1102,1103,1104,1105,1106,1107,1108,1109,1110,1111,1112,1113,1114,1115,1116,1117,1118,1119,1120,1121,1122,1123,1124,1125,1126,1127,1128,1129,1130,1131,1132,1133,1134,1135,1136,1137,1138,1139,1140,1141,1142,1143,1144,1145,1146,1147,1148,1149,1150,1151,1152,1153,1154,1155,1156,1157,1158,1159,1160,1161,1162,1163,1164,1165,1166,1167,1168,1169,1170,1171,1172,1173,1174,1175,1176,1177,1178,1179,1180,1181,1182,1183,1184,1185,1186,1187,1188,1189,1190,1191,1192,1193,1194,1195,1196,1197,1198,1199,1200,1201,1202,1203,1204,1205,1206,1207,1208,1209,1210,1211,1212,1213,1214,1215,1216,1217,1218,1219,1220,1221,1222,1223,1224,1225,1226,1227,1228,1229,1230,1231,1232,1233,1234,1235,1236,1237,1238,1239,1240,1241,1242,1243,1244,1245,1246,1247,1248,1249,1250,1251,1252,1253,1254,1255,1256,1257,1258,1259,1260,1261,1262,1263,1264,1265,1266,1267,1268,1269,1270,1271,1272,1273,1274,1275,1276,1277,1278,1279,1280,1281,1282,1283,1284,1285,1286,1287,1288,1289,1290,1291,1292,1293,1294,1295,1296,1297,1298,1299,1300,1301,1302,1303,1304,1305,1306,1307,1308,1309,1310,1311,1312,1313,1314,1315,1316,1317,1318,1319,1320,1321,1322,1323,1324,1325,1326,1327,1328,1329,1330,1331,1332,1333,1334,1335,1336,1337,1338,1339,1340,1341,1342,1343,1344,1345,1346,1347,1348,1349,1350,1351,1352,1353,1354,1355,1356,1357,1358,1359,1360,1361,1362,1363,1364,1365,1366,1367,1368,1369,1370,1371,1372,1373,1374,1375,1376,1377,1378,1379,1380,1381,1382,1383,1384,1385,1386,1387,1388,1389,1390,1391,1392,1393,1394,1395,1396,1397,1398,1399,1400,1401,1402,1403,1404,1405,1406,1407,1408,1409,1410,1411,1412,1413,1414,1415,1416,1417,1418,1419,1420,1421,1422,1423,1424,1425,1426,1427,1428,1429,1430,1431,1432,1433,1434,1435,1436,1437,1438,1439,1440,1441,1442,1443,1444,1445,1446,1447,1448,1449,1450,1451,1452,1453,1454,1455,1456,1457,1458,1459,1460,1461,1462,1463,1464,1465,1466,1467,1468,1469,1470,1471,1472,1473,1474,1475,1476,1477,1478,1479,1480,1481,1482,1483,1484,1485,1486,1487,1488,1489,1490,1491,1492,1493,1494,1495,1496,1497,1498,1499,1500,1501,1502,1503,1504,1505,1506,1507,1508,1509,1510,1511,1512,1513,1514,1515,1516,1517,1518,1519,1520,1521,1522,1523,1524,1525,1526,1527,1528,1529,1530,1531,1532,1533,1534,1535,1536,1537,1538,1539,1540,1541,1542,1543,1544,1545,1546,1547,1548,1549,1550,1551,1552,1553,1554,1555,1556,1557,1558,1559,1560,1561,1562,1563,1564,1565,1566,1567,1568,1569,1570,1571,1572,1573,1574,1575,1576,1577,1578,1579,1580,1581,1582,1583,1584,1585,1586,1587,1588,1589,1590,1591,1592,1593,1594,1595,1596,1597,1598,1599,1600,1601,1602,1603,1604,1605,1606,1607,1608,1609,1610,1611,1612,1613,1614,1615,1616,1617,1618,1619,1620,1621,1622,1623,1624,1625,1626,1627,1628,1629,1630,1631,1632,1633,1634,1635,1636,1637,1638,1639,1640,1641,1642,1643,1644,1645,1646,1647,1648,1649,1650,1651,1652,1653,1654,1655,1656,1657,1658,1659,1660,1661,1662,1663,1664,1665,1666,1667,1668,1669,1670,1671,1672,1673,1674,1675,1676,1677,1678,1679,1680,1681,1682,1683,1684,1685,1686,1687,1688,1689,1690,1691,1692,1693,1694,1695,1696,1697,1698,1699,1700,1701,1702,1703,1704,1705,1706,1707,1708,1709,1710,1711,1712,1713,1714,1715,1716,1717,1718,1719,1720,1721,1722,1723,1724,1725,1726,1727,1728,1729,1730,1731,1732,1733,1734,1735,1736,1737,1738,1739,1740,1741,1742,1743,1744,1745,1746,1747,1748,1749,1750,1751,1752,1753,1754,1755,1756,1757,1758,1759,1760,1761,1762,1763,1764,1765,1766,1767,1768,1769,1770,1771,1772,1773,1774,1775,1776,1777,1778,1779,1780,1781,1782,1783,1784,1785,1786,1787,1788,1789,1790,1791,1792,1793,1794,1795,1796,1797,1798,1799,1800,1801,1802,1803,1804,1805,1806,1807,1808,1809,1810,1811,1812,1813,1814,1815,1816,1817,1818,1819,1820,1821,1822,1823,1824,1825,1826,1827,1828,1829,1830,1831,1832,1833,1834,1835,1836,1837,1838,1839,1840,1841,1842,1843,1844,1845,1846,1847,1848,1849,1850,1851,1852,1853,1854,1855,1856,1857,1858,1859,1860,1861,1862,1863,1864,1865,1866,1867,1868,1869,1870,1871,1872,1873,1874,1875,1876,1877,1878,1879,1880,1881,1882,1883,1884,1885,1886,1887,1888,1889,1890,1891,1892,1893,1894,1895,1896,1897,1898,1899,1900,1901,1902,1903,1904,1905,1906,1907,1908,1909,1910,1911,1912,1913,1914,1915,1916,1917,1918,1919,1920,1921,1922,1923,1924,1925,1926,1927,1928,1929,1930,1931,1932,1933,1934,1935,1936,1937,1938,1939,1940,1941,1942,1943,1944,1945,1946,1947,1948,1949,1950,1951,1952,1953,1954,1955,1956,1957,1958,1959,1960,1961,1962,1963,1964,1965,1966,1967,1968,1969,1970,1971,1972,1973,1974,1975,1976,1977,1978,1979,1980,1981,1982,1983,1984,1985,1986,1987,1988,1989,1990,1991,1992,1993,1994,1995,1996,1997,1998,1999,2000,2001,2002,2003,2004,2005,2006,2007,2008,2009,2010,2011,2012,2013,2014,2015,2016,2017,2018,2019,2020,2021,2022,2023,2024,2025,2026,2027,2028,2029,2030,2031,2032,2033,2034,2035,2036,2037,2038,2039,2040,2041,2042,2043,2044,2045,2046,2047,2048,2049,2050,2051,2052,2053,2054,2055,2056,2057,2058,2059,2060,2061,2062,2063,2064,2065,2066,2067,2068,2069,2070,2071,2072,2073,2074,2075,2076,2077,2078,2079,2080,2081,2082,2083,2084,2085,2086,2087,2088,2089,2090,2091,2092,2093,2094,2095,2096,2097,2098,2099,2100,2101,2102,2103,2104,2105,2106,2107,2108,2109,2110,2111,2112,2113,2114,2115,2116,2117,2118,2119,2120,2121,2122,2123,2124,2125,2126,2127,2128,2129,2130,2131,2132,2133,2134,2135,2136,2137,2138,2139,2140,2141,2142,2143,2144,2145,2146,2147,2148,2149,2150,2151,2152,2153,2154,2155,2156,2157,2158,2159,2160,2161,2162,2163,2164,2165,2166,2167,2168,2169,2170,2171,2172,2173,2174,2175,2176,2177,2178,2179,2180,2181,2182,2183,2184,2185,2186,2187,2188,2189,2190,2191,2192,2193,2194,2195,2196,2197,2198,2199,2200,2201,2202,2203,2204,2205,2206,2207,2208,2209,2210,2211,2212,2213,2214,2215,2216,2217,2218,2219,2220,2221,2222,2223,2224,2225,2226,2227,2228,2229,2230,2231,2232,2233,2234,2235,2236,2237,2238,2239,2240,2241,2242,2243,2244,2245,2246,2247,2248,2249,2250,2251,2252,2253,2254,2255,2256,2257,2258,2259,2260,2261,2262,2263,2264,2265,2266,2267,2268,2269,2270,2271,2272,2273,2274,2275,2276,2277,2278,2279,2280,2281,2282,2283,2284,2285,2286,2287,2288,2289,2290,2291,2292,2293,2294,2295,2296,2297,2298,2299,2300,2301,2302,2303,2304,2305,2306,2307,2308,2309,2310,2311,2312,2313,2314,2315,2316,2317,2318,2319,2320,2321,2322,2323,2324,2325,2326,2327,2328,2329,2330,2331,2332,2333,2334,2335,2336,2337,2338,2339,2340,2341,2342,2343,2344,2345,2346,2347,2348,2349,2350,2351,2352,2353,2354,2355,2356,2357,2358,2359,2360,2361,2362,2363,2364,2365,2366,2367,2368,2369,2370,2371,2372,2373,2374,2375,2376,2377,2378,2379,2380,2381,2382,2383,2384,2385,2386,2387,2388,2389,2390,2391,2392,2393,2394,2395,2396,2397,2398,2399,2400,2401,2402,2403,2404,2405,2406,2407,2408,2409,2410,2411,2412,2413,2414,2415,2416,2417,2418,2419,2420,2421,2422,2423,2424,2425,2426,2427,2428,2429,2430,2431,2432,2433,2434,2435,2436,2437,2438,2439,2440,2441,2442,2443,2444,2445,2446,2447,2448,2449,2450,2451,2452,2453,2454,2455,2456,2457,2458,2459,2460,2461,2462,2463,2464,2465,2466,2467,2468,2469,2470,2471,2472,2473,2474,2475,2476,2477,2478,2479,2480,2481,2482,2483,2484,2485,2486,2487,2488,2489,2490,2491,2492,2493,2494,2495,2496,2497,2498,2499,2500,2501,2502,2503,2504,2505,2506,2507,2508,2509,2510,2511,2512,2513,2514,2515,2516,2517,2518,2519,2520,2521,2522,2523,2524,2525,2526,2527,2528,2529,2530,2531,2532,2533,2534,2535,2536,2537,2538,2539,2540,2541,2542,2543,2544,2545,2546,2547,2548,2549,2550,2551,2552,2553,2554,2555,2556,2557,2558,2559,2560,2561,2562,2563,2564,2565,2566,2567,2568,2569,2570,2571,2572,2573,2574,2575,2576,2577,2578,2579,2580,2581,2582,2583,2584,2585,2586,2587,2588,2589,2590,2591,2592,2593,2594,2595,2596,2597,2598,2599,2600,2601,2602,2603,2604,2605,2606,2607,2608,2609,2610,2611,2612,2613,2614,2615,2616,2617,2618,2619,2620,2621,2622,2623,2624,2625,2626,2627,2628,2629,2630,2631,2632,2633,2634,2635,2636,2637,2638,2639,2640,2641,2642,2643,2644,2645,2646,2647,2648,2649,2650,2651,2652,2653,2654,2655,2656,2657,2658,2659,2660,2661,2662,2663,2664,2665,2666,2667,2668,2669,2670,2671,2672,2673,2674,2675,2676,2677,2678,2679,2680,2681,2682,2683,2684,2685,2686,2687,2688,2689,2690,2691,2692,2693,2694,2695,2696,2697,2698,2699,2700,2701,2702,2703,2704,2705,2706,2707,2708,2709,2710,2711,2712,2713,2714,2715,2716,2717,2718,2719,2720,2721,2722,2723,2724,2725,2726,2727,2728,2729,2730,2731,2732,2733,2734,2735,2736,2737,2738,2739,2740,2741,2742,2743,2744,2745,2746,2747,2748,2749,2750,2751,2752,2753,2754,2755,2756,2757,2758,2759,2760,2761,2762,2763,2764,2765,2766,2767,2768,2769,2770,2771,2772,2773,2774,2775,2776,2777,2778,2779,2780,2781,2782,2783,2784,2785,2786,2787,2788,2789,2790,2791,2792,2793,2794,2795,2796,2797,2798,2799,2800,2801,2802,2803,2804,2805,2806,2807,2808,2809,2810,2811,2812,2813,2814,2815,2816,2817,2818,2819,2820,2821,2822,2823,2824,2825,2826,2827,2828,2829,2830,2831,2832,2833,2834,2835,2836,2837,2838,2839,2840,2841,2842,2843,2844,2845,2846,2847,2848,2849,2850,2851,2852,2853,2854,2855,2856,2857,2858,2859,2860,2861,2862,2863,2864,2865,2866,2867,2868,2869,2870,2871,2872,2873,2874,2875,2876,2877,2878,2879,2880,2881,2882,2883,2884,2885,2886,2887,2888,2889,2890,2891,2892,2893,2894,2895,2896,2897,2898,2899,2900,2901,2902,2903,2904,2905,2906,2907,2908,2909,2910,2911,2912,2913,2914,2915,2916,2917,2918,2919,2920,2921,2922,2923,2924,2925,2926,2927,2928,2929,2930,2931,2932,2933,2934,2935,2936,2937,2938,2939,2940,2941,2942,2943,2944,2945,2946,2947,2948,2949,2950,2951,2952,2953,2954,2955,2956,2957,2958,2959,2960,2961,2962,2963,2964,2965,2966,2967,2968,2969,2970,2971,2972,2973,2974,2975,2976,2977,2978,2979,2980,2981,2982,2983,2984,2985,2986,2987,2988,2989,2990,2991,2992,2993,2994,2995,2996,2997,2998,2999,3000,3001,3002,3003,3004,3005,3006,3007,3008,3009,3010,3011,3012,3013,3014,3015,3016,3017,3018,3019,3020,3021,3022,3023,3024,3025,3026,3027,3028,3029,3030,3031,3032,3033,3034,3035,3036,3037,3038,3039,3040,3041,3042,3043,3044,3045,3046,3047,3048,3049,3050,3051,3052,3053,3054,3055,3056,3057,3058,3059,3060,3061,3062,3063,3064,3065,3066,3067,3068,3069,3070,3071,3072,3073,3074,3075,3076,3077,3078,3079,3080,3081,3082,3083,3084,3085,3086,3087,3088,3089,3090,3091,3092,3093,3094,3095,3096,3097,3098,3099,3100,3101],"tree_info":[0,0,0,0,0,0,0,0,0,0,0,0,0,0,0,0,0,0,0,0,0,0,0,0,0,0,0,0,0,0,0,0,0,0,0,0,0,0,0,0,0,0,0,0,0,0,0,0,0,0,0,0,0,0,0,0,0,0,0,0,0,0,0,0,0,0,0,0,0,0,0,0,0,0,0,0,0,0,0,0,0,0,0,0,0,0,0,0,0,0,0,0,0,0,0,0,0,0,0,0,0,0,0,0,0,0,0,0,0,0,0,0,0,0,0,0,0,0,0,0,0,0,0,0,0,0,0,0,0,0,0,0,0,0,0,0,0,0,0,0,0,0,0,0,0,0,0,0,0,0,0,0,0,0,0,0,0,0,0,0,0,0,0,0,0,0,0,0,0,0,0,0,0,0,0,0,0,0,0,0,0,0,0,0,0,0,0,0,0,0,0,0,0,0,0,0,0,0,0,0,0,0,0,0,0,0,0,0,0,0,0,0,0,0,0,0,0,0,0,0,0,0,0,0,0,0,0,0,0,0,0,0,0,0,0,0,0,0,0,0,0,0,0,0,0,0,0,0,0,0,0,0,0,0,0,0,0,0,0,0,0,0,0,0,0,0,0,0,0,0,0,0,0,0,0,0,0,0,0,0,0,0,0,0,0,0,0,0,0,0,0,0,0,0,0,0,0,0,0,0,0,0,0,0,0,0,0,0,0,0,0,0,0,0,0,0,0,0,0,0,0,0,0,0,0,0,0,0,0,0,0,0,0,0,0,0,0,0,0,0,0,0,0,0,0,0,0,0,0,0,0,0,0,0,0,0,0,0,0,0,0,0,0,0,0,0,0,0,0,0,0,0,0,0,0,0,0,0,0,0,0,0,0,0,0,0,0,0,0,0,0,0,0,0,0,0,0,0,0,0,0,0,0,0,0,0,0,0,0,0,0,0,0,0,0,0,0,0,0,0,0,0,0,0,0,0,0,0,0,0,0,0,0,0,0,0,0,0,0,0,0,0,0,0,0,0,0,0,0,0,0,0,0,0,0,0,0,0,0,0,0,0,0,0,0,0,0,0,0,0,0,0,0,0,0,0,0,0,0,0,0,0,0,0,0,0,0,0,0,0,0,0,0,0,0,0,0,0,0,0,0,0,0,0,0,0,0,0,0,0,0,0,0,0,0,0,0,0,0,0,0,0,0,0,0,0,0,0,0,0,0,0,0,0,0,0,0,0,0,0,0,0,0,0,0,0,0,0,0,0,0,0,0,0,0,0,0,0,0,0,0,0,0,0,0,0,0,0,0,0,0,0,0,0,0,0,0,0,0,0,0,0,0,0,0,0,0,0,0,0,0,0,0,0,0,0,0,0,0,0,0,0,0,0,0,0,0,0,0,0,0,0,0,0,0,0,0,0,0,0,0,0,0,0,0,0,0,0,0,0,0,0,0,0,0,0,0,0,0,0,0,0,0,0,0,0,0,0,0,0,0,0,0,0,0,0,0,0,0,0,0,0,0,0,0,0,0,0,0,0,0,0,0,0,0,0,0,0,0,0,0,0,0,0,0,0,0,0,0,0,0,0,0,0,0,0,0,0,0,0,0,0,0,0,0,0,0,0,0,0,0,0,0,0,0,0,0,0,0,0,0,0,0,0,0,0,0,0,0,0,0,0,0,0,0,0,0,0,0,0,0,0,0,0,0,0,0,0,0,0,0,0,0,0,0,0,0,0,0,0,0,0,0,0,0,0,0,0,0,0,0,0,0,0,0,0,0,0,0,0,0,0,0,0,0,0,0,0,0,0,0,0,0,0,0,0,0,0,0,0,0,0,0,0,0,0,0,0,0,0,0,0,0,0,0,0,0,0,0,0,0,0,0,0,0,0,0,0,0,0,0,0,0,0,0,0,0,0,0,0,0,0,0,0,0,0,0,0,0,0,0,0,0,0,0,0,0,0,0,0,0,0,0,0,0,0,0,0,0,0,0,0,0,0,0,0,0,0,0,0,0,0,0,0,0,0,0,0,0,0,0,0,0,0,0,0,0,0,0,0,0,0,0,0,0,0,0,0,0,0,0,0,0,0,0,0,0,0,0,0,0,0,0,0,0,0,0,0,0,0,0,0,0,0,0,0,0,0,0,0,0,0,0,0,0,0,0,0,0,0,0,0,0,0,0,0,0,0,0,0,0,0,0,0,0,0,0,0,0,0,0,0,0,0,0,0,0,0,0,0,0,0,0,0,0,0,0,0,0,0,0,0,0,0,0,0,0,0,0,0,0,0,0,0,0,0,0,0,0,0,0,0,0,0,0,0,0,0,0,0,0,0,0,0,0,0,0,0,0,0,0,0,0,0,0,0,0,0,0,0,0,0,0,0,0,0,0,0,0,0,0,0,0,0,0,0,0,0,0,0,0,0,0,0,0,0,0,0,0,0,0,0,0,0,0,0,0,0,0,0,0,0,0,0,0,0,0,0,0,0,0,0,0,0,0,0,0,0,0,0,0,0,0,0,0,0,0,0,0,0,0,0,0,0,0,0,0,0,0,0,0,0,0,0,0,0,0,0,0,0,0,0,0,0,0,0,0,0,0,0,0,0,0,0,0,0,0,0,0,0,0,0,0,0,0,0,0,0,0,0,0,0,0,0,0,0,0,0,0,0,0,0,0,0,0,0,0,0,0,0,0,0,0,0,0,0,0,0,0,0,0,0,0,0,0,0,0,0,0,0,0,0,0,0,0,0,0,0,0,0,0,0,0,0,0,0,0,0,0,0,0,0,0,0,0,0,0,0,0,0,0,0,0,0,0,0,0,0,0,0,0,0,0,0,0,0,0,0,0,0,0,0,0,0,0,0,0,0,0,0,0,0,0,0,0,0,0,0,0,0,0,0,0,0,0,0,0,0,0,0,0,0,0,0,0,0,0,0,0,0,0,0,0,0,0,0,0,0,0,0,0,0,0,0,0,0,0,0,0,0,0,0,0,0,0,0,0,0,0,0,0,0,0,0,0,0,0,0,0,0,0,0,0,0,0,0,0,0,0,0,0,0,0,0,0,0,0,0,0,0,0,0,0,0,0,0,0,0,0,0,0,0,0,0,0,0,0,0,0,0,0,0,0,0,0,0,0,0,0,0,0,0,0,0,0,0,0,0,0,0,0,0,0,0,0,0,0,0,0,0,0,0,0,0,0,0,0,0,0,0,0,0,0,0,0,0,0,0,0,0,0,0,0,0,0,0,0,0,0,0,0,0,0,0,0,0,0,0,0,0,0,0,0,0,0,0,0,0,0,0,0,0,0,0,0,0,0,0,0,0,0,0,0,0,0,0,0,0,0,0,0,0,0,0,0,0,0,0,0,0,0,0,0,0,0,0,0,0,0,0,0,0,0,0,0,0,0,0,0,0,0,0,0,0,0,0,0,0,0,0,0,0,0,0,0,0,0,0,0,0,0,0,0,0,0,0,0,0,0,0,0,0,0,0,0,0,0,0,0,0,0,0,0,0,0,0,0,0,0,0,0,0,0,0,0,0,0,0,0,0,0,0,0,0,0,0,0,0,0,0,0,0,0,0,0,0,0,0,0,0,0,0,0,0,0,0,0,0,0,0,0,0,0,0,0,0,0,0,0,0,0,0,0,0,0,0,0,0,0,0,0,0,0,0,0,0,0,0,0,0,0,0,0,0,0,0,0,0,0,0,0,0,0,0,0,0,0,0,0,0,0,0,0,0,0,0,0,0,0,0,0,0,0,0,0,0,0,0,0,0,0,0,0,0,0,0,0,0,0,0,0,0,0,0,0,0,0,0,0,0,0,0,0,0,0,0,0,0,0,0,0,0,0,0,0,0,0,0,0,0,0,0,0,0,0,0,0,0,0,0,0,0,0,0,0,0,0,0,0,0,0,0,0,0,0,0,0,0,0,0,0,0,0,0,0,0,0,0,0,0,0,0,0,0,0,0,0,0,0,0,0,0,0,0,0,0,0,0,0,0,0,0,0,0,0,0,0,0,0,0,0,0,0,0,0,0,0,0,0,0,0,0,0,0,0,0,0,0,0,0,0,0,0,0,0,0,0,0,0,0,0,0,0,0,0,0,0,0,0,0,0,0,0,0,0,0,0,0,0,0,0,0,0,0,0,0,0,0,0,0,0,0,0,0,0,0,0,0,0,0,0,0,0,0,0,0,0,0,0,0,0,0,0,0,0,0,0,0,0,0,0,0,0,0,0,0,0,0,0,0,0,0,0,0,0,0,0,0,0,0,0,0,0,0,0,0,0,0,0,0,0,0,0,0,0,0,0,0,0,0,0,0,0,0,0,0,0,0,0,0,0,0,0,0,0,0,0,0,0,0,0,0,0,0,0,0,0,0,0,0,0,0,0,0,0,0,0,0,0,0,0,0,0,0,0,0,0,0,0,0,0,0,0,0,0,0,0,0,0,0,0,0,0,0,0,0,0,0,0,0,0,0,0,0,0,0,0,0,0,0,0,0,0,0,0,0,0,0,0,0,0,0,0,0,0,0,0,0,0,0,0,0,0,0,0,0,0,0,0,0,0,0,0,0,0,0,0,0,0,0,0,0,0,0,0,0,0,0,0,0,0,0,0,0,0,0,0,0,0,0,0,0,0,0,0,0,0,0,0,0,0,0,0,0,0,0,0,0,0,0,0,0,0,0,0,0,0,0,0,0,0,0,0,0,0,0,0,0,0,0,0,0,0,0,0,0,0,0,0,0,0,0,0,0,0,0,0,0,0,0,0,0,0,0,0,0,0,0,0,0,0,0,0,0,0,0,0,0,0,0,0,0,0,0,0,0,0,0,0,0,0,0,0,0,0,0,0,0,0,0,0,0,0,0,0,0,0,0,0,0,0,0,0,0,0,0,0,0,0,0,0,0,0,0,0,0,0,0,0,0,0,0,0,0,0,0,0,0,0,0,0,0,0,0,0,0,0,0,0,0,0,0,0,0,0,0,0,0,0,0,0,0,0,0,0,0,0,0,0,0,0,0,0,0,0,0,0,0,0,0,0,0,0,0,0,0,0,0,0,0,0,0,0,0,0,0,0,0,0,0,0,0,0,0,0,0,0,0,0,0,0,0,0,0,0,0,0,0,0,0,0,0,0,0,0,0,0,0,0,0,0,0,0,0,0,0,0,0,0,0,0,0,0,0,0,0,0,0,0,0,0,0,0,0,0,0,0,0,0,0,0,0,0,0,0,0,0,0,0,0,0,0,0,0,0,0,0,0,0,0,0,0,0,0,0,0,0,0,0,0,0,0,0,0,0,0,0,0,0,0,0,0,0,0,0,0,0,0,0,0,0,0,0,0,0,0,0,0,0,0,0,0,0,0,0,0,0,0,0,0,0,0,0,0,0,0,0,0,0,0,0,0,0,0,0,0,0,0,0,0,0,0,0,0,0,0,0,0,0,0,0,0,0,0,0,0,0,0,0,0,0,0,0,0,0,0,0,0,0,0,0,0,0,0,0,0,0,0,0,0,0,0,0,0,0,0,0,0,0,0,0,0,0,0,0,0,0,0,0,0,0,0,0,0,0,0,0,0,0,0,0,0,0,0,0,0,0,0,0,0,0,0,0,0,0,0,0,0,0,0,0,0,0,0,0,0,0,0,0,0,0,0,0,0,0,0,0,0,0,0,0,0,0,0,0,0,0,0,0,0,0,0,0,0,0,0,0,0,0,0,0,0,0,0,0,0,0,0,0,0,0,0,0,0,0,0,0,0,0,0,0,0,0,0,0,0,0,0,0,0,0,0,0,0,0,0,0,0,0,0,0,0,0,0,0,0,0,0,0,0,0,0,0,0,0,0,0,0,0,0,0,0,0,0,0,0,0,0,0,0,0,0,0,0,0,0,0,0,0,0,0,0,0,0,0,0,0,0,0,0,0,0,0,0,0,0,0,0,0,0,0,0,0,0,0,0,0,0,0,0,0,0,0,0,0,0,0,0,0,0,0,0,0,0,0,0,0,0,0,0,0,0,0,0,0,0,0,0,0,0,0,0,0,0,0,0,0,0,0,0,0,0,0,0,0,0,0,0,0,0,0,0,0,0,0,0,0,0,0,0,0,0,0,0,0,0,0,0,0,0,0,0,0,0,0,0,0,0,0,0,0,0,0,0,0,0,0,0,0,0,0,0,0,0,0,0,0,0,0,0,0,0,0,0,0,0,0,0,0,0,0,0,0,0,0,0,0,0,0,0,0,0,0,0,0,0,0,0,0,0,0,0,0,0,0,0,0,0,0,0,0,0,0,0,0,0,0,0,0,0,0,0,0,0,0,0,0,0,0,0,0,0,0,0,0,0,0,0,0,0,0,0,0,0,0,0,0,0,0,0,0,0,0,0,0,0,0,0,0,0,0,0,0,0,0,0,0,0,0,0,0,0,0,0,0,0,0,0,0,0,0,0,0,0,0,0,0,0,0,0,0,0,0,0,0,0,0,0,0,0,0,0,0,0,0,0,0,0,0,0,0,0,0,0,0,0,0,0,0,0,0,0,0,0,0,0,0,0,0,0,0,0,0,0,0,0,0,0,0,0,0,0,0,0,0,0,0,0,0,0,0,0,0,0,0,0,0,0,0,0,0,0,0,0,0,0,0,0,0,0,0,0,0,0,0,0,0,0,0,0,0,0,0,0,0,0,0,0,0,0,0,0,0,0,0,0,0,0,0,0,0,0,0,0,0,0,0,0,0,0,0,0,0,0,0,0,0,0,0,0,0,0,0,0,0,0,0,0,0,0,0,0,0,0,0,0,0,0,0,0,0,0,0,0,0,0,0,0,0,0,0,0,0,0,0,0,0,0,0,0,0,0,0,0,0,0,0,0,0,0,0,0,0,0,0,0,0,0,0,0,0,0,0,0,0,0,0,0,0,0,0,0,0,0,0,0,0,0,0,0,0,0,0,0,0,0,0,0,0,0,0,0,0,0,0,0,0,0,0,0,0,0,0,0,0,0,0,0,0,0,0,0,0,0,0,0,0,0,0,0,0],"trees":[{"base_weights":[-2.8249228E-3,-2.576449E0,3.9679813E0,-4.5693803E0,-1.1339048E0,2.5348523E0,7.168196E0,-9.656982E-1,-6.492212E-1,1.6271986E-2,-4.8016766E-1,6.338087E-1,8.676422E-2,1.0714092E0,1.6919637E0],"categories":[],"categories_nodes":[],"categories_segments":[],"categories_sizes":[],"default_left":[0,0,0,0,0,0,0,0,0,0,0,0,0,0,0],"id":0,"left_children":[1,3,5,7,9,11,13,-1,-1,-1,-1,-1,-1,-1,-1],"loss_changes":[2.8078672E5,4.792547E4,4.9552047E4,5.8193438E3,1.9774059E4,1.754061E4,8.3144375E3,0E0,0E0,0E0,0E0,0E0,0E0,0E0,0E0],"parents":[2147483647,0,0,1,1,2,2,3,3,4,4,5,5,6,6],"right_children":[2,4,6,8,10,12,14,-1,-1,-1,-1,-1,-1,-1,-1],"split_conditions":[1.2066667E1,8.2E0,1.6433332E1,6.5333333E0,1.08E1,1.54E1,1.98E1,-9.656982E-1,-6.492212E-1,1.6271986E-2,-4.8016766E-1,6.338087E-1,8.676422E-2,1.0714092E0,1.6919637E0],"split_indices":[2,2,2,2,6,6,2,0,0,0,0,0,0,0,0],"split_type":[0,0,0,0,0,0,0,0,0,0,0,0,0,0,0],"sum_hessian":[2.7476E4,1.6671E4,1.0805E4,7E3,9.671E3,7.463E3,3.342E3,2.985E3,4.015E3,5.563E3,4.108E3,4.751E3,2.712E3,2.487E3,8.55E2],"tree_param":{"num_deleted":"0","num_feature":"7","num_nodes":"15","size_leaf_vector":"1"}},{"base_weights":[-8.390582E-4,-1.8112895E0,3.9606416E0,-3.2702675E0,-4.136365E-2,2.9978454E0,6.6404877E0,-7.4877006E-1,-4.249518E-1,2.0264162E-1,-3.5591695E-1,6.7272377E-1,1.6755043E-1,1.0316887E0,1.5866109E0],"categories":[],"categories_nodes":[],"categories_segments":[],"categories_sizes":[],"default_left":[0,0,0,0,0,0,0,0,0,0,0,0,0,0,0],"id":1,"left_children":[1,3,5,7,9,11,13,-1,-1,-1,-1,-1,-1,-1,-1],"loss_changes":[1.9664298E5,4.8592324E4,2.218614E4,8.948805E3,2.112214E4,1.1791898E4,3.718375E3,0E0,0E0,0E0,0E0,0E0,0E0,0E0,0E0],"parents":[2147483647,0,0,1,1,2,2,3,3,4,4,5,5,6,6],"right_children":[2,4,6,8,10,12,14,-1,-1,-1,-1,-1,-1,-1,-1],"split_conditions":[1.31E1,9.433333E0,1.7466667E1,7.133333E0,1.25E1,1.68E1,2.1233334E1,-7.4877006E-1,-4.249518E-1,2.0264162E-1,-3.5591695E-1,6.7272377E-1,1.6755043E-1,1.0316887E0,1.5866109E0],"split_indices":[2,2,2,2,6,6,2,0,0,0,0,0,0,0,0],"split_type":[0,0,0,0,0,0,0,0,0,0,0,0,0,0,0],"sum_hessian":[2.7418E4,1.8818E4,8.6E3,1.0315E4,8.503E3,6.327E3,2.273E3,4.341E3,5.974E3,5.31E3,3.193E3,4.345E3,1.982E3,1.831E3,4.42E2],"tree_param":{"num_deleted":"0","num_feature":"7","num_nodes":"15","size_leaf_vector":"1"}},{"base_weights":[-2.494481E-3,-1.091188E0,2.0712006E0,-2.626354E0,-7.281724E-1,1.6257138E0,4.391671E0,-4.7158885E-1,-1.3213141E-1,-1.7867795E-1,9.7980954E-2,2.0340201E-1,4.8187983E-1,6.593828E-1,1.0908021E0],"categories":[],"categories_nodes":[],"categories_segments":[],"categories_sizes":[],"default_left":[0,0,0,0,0,0,0,0,0,0,0,0,0,0,0],"id":2,"left_children":[1,3,5,7,9,11,13,-1,-1,-1,-1,-1,-1,-1,-1],"loss_changes":[6.20571E4,1.0044053E4,9.780328E3,7.7673047E2,5.9272725E3,4.1329414E3,1.6417188E3,0E0,0E0,0E0,0E0,0E0,0E0,0E0,0E0],"parents":[2147483647,0,0,1,1,2,2,3,3,4,4,5,5,6,6],"right_children":[2,4,6,8,10,12,14,-1,-1,-1,-1,-1,-1,-1,-1],"split_conditions":[1.32E1,1.49E1,2.01E1,6.7E0,5.7E0,7.3E0,2.42E1,-4.7158885E-1,-1.3213141E-1,-1.7867795E-1,9.7980954E-2,2.0340201E-1,4.8187983E-1,6.593828E-1,1.0908021E0],"split_indices":[5,0,5,1,1,1,5,0,0,0,0,0,0,0,0],"split_type":[0,0,0,0,0,0,0,0,0,0,0,0,0,0,0],"sum_hessian":[2.7488E4,1.8025E4,9.463E3,3.447E3,1.4578E4,7.939E3,1.524E3,3.235E3,2.12E2,1.1748E4,2.83E3,5.784E3,2.155E3,1.191E3,3.33E2],"tree_param":{"num_deleted":"0","num_feature":"7","num_nodes":"15","size_leaf_vector":"1"}},{"base_weights":[2.3321433E-3,-2.018911E0,2.1045153E0,-3.131053E0,-1.2855428E0,9.835174E-1,4.1384425E0,-7.079817E-1,-4.6282226E-1,9.663642E-2,-3.7392464E-1,3.7885505E-1,-1.0440613E-1,8.7096125E-1,5.172476E-1],"categories":[],"categories_nodes":[],"categories_segments":[],"categories_sizes":[],"default_left":[0,0,0,0,0,0,0,0,0,0,0,0,0,0,0],"id":3,"left_children":[1,3,5,7,9,11,13,-1,-1,-1,-1,-1,-1,-1,-1],"loss_changes":[1.1649124E5,1.1398344E4,3.063964E4,2.3957344E3,1.3909955E4,1.688261E4,5.0262656E3,0E0,0E0,0E0,0E0,0E0,0E0,0E0,0E0],"parents":[2147483647,0,0,1,1,2,2,3,3,4,4,5,5,6,6],"right_children":[2,4,6,8,10,12,14,-1,-1,-1,-1,-1,-1,-1,-1],"split_conditions":[1.0866667E1,7.633333E0,1.5366667E1,5.8333335E0,7.8E0,1.37E1,1.83E1,-7.079817E-1,-4.6282226E-1,9.663642E-2,-3.7392464E-1,3.7885505E-1,-1.0440613E-1,8.7096125E-1,5.172476E-1],"split_indices":[2,2,2,2,6,6,6,0,0,0,0,0,0,0,0],"split_type":[0,0,0,0,0,0,0,0,0,0,0,0,0,0,0],"sum_hessian":[2.7416E4,1.3977E4,1.3439E4,5.554E3,8.423E3,8.664E3,4.775E3,1.688E3,3.866E3,2.744E3,5.679E3,4.898E3,3.766E3,2.605E3,2.17E3],"tree_param":{"num_deleted":"0","num_feature":"7","num_nodes":"15","size_leaf_vector":"1"}},{"base_weights":[-0E0,-1.0296131E0,2.9025137E0,-2.2425454E0,-5.1556345E-2,2.3750713E0,4.9243965E0,-3.1336394E-1,-5.7194346E-1,1.780428E-1,-2.2087206E-1,5.324909E-1,5.171903E-2,1.0500278E0,6.001575E-1],"categories":[],"categories_nodes":[],"categories_segments":[],"categories_sizes":[],"default_left":[0,0,0,0,0,0,0,0,0,0,0,0,0,0,0],"id":4,"left_children":[1,3,5,7,9,11,13,-1,-1,-1,-1,-1,-1,-1,-1],"loss_changes":[8.1979836E4,2.4020984E4,7.657789E3,4.103336E3,1.5082027E4,8.596039E3,2.5294453E3,0E0,0E0,0E0,0E0,0E0,0E0,0E0,0E0],"parents":[2147483647,0,0,1,1,2,2,3,3,4,4,5,5,6,6],"right_children":[2,4,6,8,10,12,14,-1,-1,-1,-1,-1,-1,-1,-1],"split_conditions":[1.3833333E1,8.933333E0,1.85E1,8.7E0,1.17E1,1.81E1,2.12E1,-3.1336394E-1,-5.7194346E-1,1.780428E-1,-2.2087206E-1,5.324909E-1,5.171903E-2,1.0500278E0,6.001575E-1],"split_indices":[2,2,2,6,6,6,6,0,0,0,0,0,0,0,0],"split_type":[0,0,0,0,0,0,0,0,0,0,0,0,0,0,0],"sum_hessian":[2.7432E4,2.0249E4,7.183E3,9.039E3,1.121E4,5.697E3,1.486E3,6.54E3,2.499E3,5.958E3,5.252E3,4.217E3,1.48E3,8.09E2,6.77E2],"tree_param":{"num_deleted":"0","num_feature":"7","num_nodes":"15","size_leaf_vector":"1"}},{"base_weights":[-1.4056513E-2,-1.5317048E0,1.4441787E0,-2.5786545E0,-1.1439127E0,5.570243E-1,2.7091105E0,-6.2269706E-1,-3.9584282E-1,-1.2288124E-2,-3.5780385E-1,2.2705194E-1,-2.6119193E-1,3.9130118E-1,7.477655E-1],"categories":[],"categories_nodes":[],"categories_segments":[],"categories_sizes":[],"default_left":[0,0,0,0,0,0,0,0,0,0,0,0,0,0,0],"id":5,"left_children":[1,3,5,7,9,11,13,-1,-1,-1,-1,-1,-1,-1,-1],"loss_changes":[6.0658562E4,5.4517676E3,1.5684914E4,1.0349805E3,9.888771E3,1.3083672E4,4.0719648E3,0E0,0E0,0E0,0E0,0E0,0E0,0E0,0E0],"parents":[2147483647,0,0,1,1,2,2,3,3,4,4,5,5,6,6],"right_children":[2,4,6,8,10,12,14,-1,-1,-1,-1,-1,-1,-1,-1],"split_conditions":[1.0633333E1,6.8333335E0,1.4666667E1,5.1E0,8.5E0,1.49E1,1.9066668E1,-6.2269706E-1,-3.9584282E-1,-1.2288124E-2,-3.5780385E-1,2.2705194E-1,-2.6119193E-1,3.9130118E-1,7.477655E-1],"split_indices":[2,2,2,2,6,6,2,0,0,0,0,0,0,0,0],"split_type":[0,0,0,0,0,0,0,0,0,0,0,0,0,0,0],"sum_hessian":[2.7409E4,1.3431E4,1.3978E4,3.63E3,9.801E3,8.216E3,5.762E3,7.47E2,2.883E3,4.581E3,5.22E3,6.004E3,2.212E3,4.572E3,1.19E3],"tree_param":{"num_deleted":"0","num_feature":"7","num_nodes":"15","size_leaf_vector":"1"}},{"base_weights":[-5.5158054E-3,-1.125831E0,1.3734545E0,-1.8826286E0,-6.41075E-1,7.9567754E-1,2.651236E0,-2.541027E-1,-4.6945336E-1,1.4983991E-1,-2.5289252E-1,5.386719E-1,3.0511094E-2,6.5566236E-1,3.2527882E-1],"categories":[],"categories_nodes":[],"categories_segments":[],"categories_sizes":[],"default_left":[0,0,0,0,0,0,0,0,0,0,0,0,0,0,0],"id":6,"left_children":[1,3,5,7,9,11,13,-1,-1,-1,-1,-1,-1,-1,-1],"loss_changes":[4.2405367E4,5.5553105E3,9.082594E3,2.0258184E3,1.163779E4,1.2266105E4,3.3839785E3,0E0,0E0,0E0,0E0,0E0,0E0,0E0,0E0],"parents":[2147483647,0,0,1,1,2,2,3,3,4,4,5,5,6,6],"right_children":[2,4,6,8,10,12,14,-1,-1,-1,-1,-1,-1,-1,-1],"split_conditions":[1.1333333E1,7.766667E0,1.6E1,7.4E0,8.1E0,1.13E1,1.73E1,-2.541027E-1,-4.6945336E-1,1.4983991E-1,-2.5289252E-1,5.386719E-1,3.0511094E-2,6.5566236E-1,3.2527882E-1],"split_indices":[2,2,2,6,5,5,6,0,0,0,0,0,0,0,0],"split_type":[0,0,0,0,0,0,0,0,0,0,0,0,0,0,0],"sum_hessian":[2.7449E4,1.5145E4,1.2304E4,5.913E3,9.232E3,8.473E3,3.831E3,4.019E3,1.894E3,3.275E3,5.957E3,1.768E3,6.705E3,1.504E3,2.327E3],"tree_param":{"num_deleted":"0","num_feature":"7","num_nodes":"15","size_leaf_vector":"1"}},{"base_weights":[5.953397E-3,-7.648943E-1,1.4829549E0,-1.2631342E0,-4.131715E-3,3.2883847E0,1.129528E0,-1.5954822E-1,-4.2750224E-1,3.5692823E-1,-1.3265757E-1,9.678099E-1,4.2201936E-1,7.6720364E-2,4.2358628E-1],"categories":[],"categories_nodes":[],"categories_segments":[],"categories_sizes":[],"default_left":[0,0,0,0,0,0,0,0,0,0,0,0,0,0,0],"id":7,"left_children":[1,3,5,7,9,11,13,-1,-1,-1,-1,-1,-1,-1,-1],"loss_changes":[3.1274875E4,6.840923E3,6.0093535E3,4.4643633E3,1.1444336E4,3.003795E3,7.1966035E3,0E0,0E0,0E0,0E0,0E0,0E0,0E0,0E0],"parents":[2147483647,0,0,1,1,2,2,3,3,4,4,5,5,6,6],"right_children":[2,4,6,8,10,12,14,-1,-1,-1,-1,-1,-1,-1,-1],"split_conditions":[1.27E1,9.633333E0,1.28E1,9.9E0,9.3E0,1.31E1,1.7033333E1,-1.5954822E-1,-4.2750224E-1,3.5692823E-1,-1.3265757E-1,9.678099E-1,4.2201936E-1,7.6720364E-2,4.2358628E-1],"split_indices":[2,2,5,6,5,6,2,0,0,0,0,0,0,0,0],"split_type":[0,0,0,0,0,0,0,0,0,0,0,0,0,0,0],"sum_hessian":[2.7469E4,1.8049E4,9.42E3,1.0906E4,7.143E3,1.542E3,7.878E3,8.577E3,2.329E3,1.925E3,5.218E3,4.02E2,1.14E3,5.218E3,2.66E3],"tree_param":{"num_deleted":"0","num_feature":"7","num_nodes":"15","size_leaf_vector":"1"}},{"base_weights":[7.7592046E-3,-5.0455415E-1,1.5964686E0,-1.2410965E0,-4.1763965E-2,2.639156E0,9.5751864E-1,-1.0881184E-1,-2.9092997E-1,2.210979E-1,-1.2978141E-1,8.678897E-1,4.0034002E-1,9.0902515E-2,5.841086E-1],"categories":[],"categories_nodes":[],"categories_segments":[],"categories_sizes":[],"default_left":[0,0,0,0,0,0,0,0,0,0,0,0,0,0,0],"id":8,"left_children":[1,3,5,7,9,11,13,-1,-1,-1,-1,-1,-1,-1,-1],"loss_changes":[2.2350516E4,7.0772974E3,4.459881E3,2.2080244E3,1.2117996E4,1.8824082E3,4.3438154E3,0E0,0E0,0E0,0E0,0E0,0E0,0E0,0E0],"parents":[2147483647,0,0,1,1,2,2,3,3,4,4,5,5,6,6],"right_children":[2,4,6,8,10,12,14,-1,-1,-1,-1,-1,-1,-1,-1],"split_conditions":[1.4166667E1,8.566667E0,1.57E1,6.3E0,9.7E0,9.5E0,2.04E1,-1.0881184E-1,-2.9092997E-1,2.210979E-1,-1.2978141E-1,8.678897E-1,4.0034002E-1,9.0902515E-2,5.841086E-1],"split_indices":[2,2,6,6,6,6,2,0,0,0,0,0,0,0,0],"split_type":[0,0,0,0,0,0,0,0,0,0,0,0,0,0,0],"sum_hessian":[2.746E4,2.0764E4,6.696E3,8.012E3,1.2752E4,2.544E3,4.152E3,3.429E3,4.583E3,4.456E3,8.296E3,2.86E2,2.258E3,3.534E3,6.18E2],"tree_param":{"num_deleted":"0","num_feature":"7","num_nodes":"15","size_leaf_vector":"1"}},{"base_weights":[-3.309454E-3,-8.323254E-1,7.184812E-1,-4.3827918E-1,-1.7857399E0,2.3786156E0,4.5029318E-1,-2.4178508E-1,3.694058E-2,-2.7114564E-1,-6.1256117E-1,3.0390266E-1,6.3717806E-1,-5.9453607E-2,2.3645225E-1],"categories":[],"categories_nodes":[],"categories_segments":[],"categories_sizes":[],"default_left":[0,0,0,0,0,0,0,0,0,0,0,0,0,0,0],"id":9,"left_children":[1,3,5,7,9,11,13,-1,-1,-1,-1,-1,-1,-1,-1],"loss_changes":[1.6412291E4,4.795333E3,6.527022E3,5.730063E3,1.3685605E3,1.651669E3,9.328215E3,0E0,0E0,0E0,0E0,0E0,0E0,0E0,0E0],"parents":[2147483647,0,0,1,1,2,2,3,3,4,4,5,5,6,6],"right_children":[2,4,6,8,10,12,14,-1,-1,-1,-1,-1,-1,-1,-1],"split_conditions":[1.0366667E1,8.9E0,1.02E1,6.9E0,1.32E1,1.2066667E1,1.46E1,-2.4178508E-1,3.694058E-2,-2.7114564E-1,-6.1256117E-1,3.0390266E-1,6.3717806E-1,-5.9453607E-2,2.3645225E-1],"split_indices":[2,5,5,2,5,2,2,0,0,0,0,0,0,0,0],"split_type":[0,0,0,0,0,0,0,0,0,0,0,0,0,0,0],"sum_hessian":[2.7428E4,1.2766E4,1.4662E4,9.033E3,3.733E3,2.039E3,1.2623E4,3.635E3,5.398E3,3.347E3,3.86E2,1.401E3,6.38E2,6.79E3,5.833E3],"tree_param":{"num_deleted":"0","num_feature":"7","num_nodes":"15","size_leaf_vector":"1"}},{"base_weights":[1.8324214E-3,-4.231669E-1,1.0006592E0,-2.0312427E-1,-2.122272E0,2.8217292E0,6.061722E-1,-1.16471685E-1,1.2709773E-1,-2.7192408E-1,-5.801389E-1,5.8157104E-1,4.5584187E-2,2.2151902E-2,2.9583544E-1],"categories":[],"categories_nodes":[],"categories_segments":[],"categories_sizes":[],"default_left":[0,0,0,0,0,0,0,0,0,0,0,0,0,0,0],"id":10,"left_children":[1,3,5,7,9,11,13,-1,-1,-1,-1,-1,-1,-1,-1],"loss_changes":[1.165443E4,7.199718E3,5.886084E3,7.6521323E3,1.4923809E3,2.1135264E3,3.5911672E3,0E0,0E0,0E0,0E0,0E0,0E0,0E0,0E0],"parents":[2147483647,0,0,1,1,2,2,3,3,4,4,5,5,6,6],"right_children":[2,4,6,8,10,12,14,-1,-1,-1,-1,-1,-1,-1,-1],"split_conditions":[1.33E1,1.42E1,1.35E1,9.933333E0,1.67E1,1.9E1,1.7733334E1,-1.16471685E-1,1.2709773E-1,-2.7192408E-1,-5.801389E-1,5.8157104E-1,4.5584187E-2,2.2151902E-2,2.9583544E-1],"split_indices":[2,6,5,2,6,6,2,0,0,0,0,0,0,0,0],"split_type":[0,0,0,0,0,0,0,0,0,0,0,0,0,0,0],"sum_hessian":[2.7454E4,1.9259E4,8.195E3,1.7051E4,2.208E3,1.459E3,6.736E3,1.1338E4,5.713E3,1.547E3,6.61E2,1.194E3,2.65E2,4.721E3,2.015E3],"tree_param":{"num_deleted":"0","num_feature":"7","num_nodes":"15","size_leaf_vector":"1"}},{"base_weights":[3.1719639E-3,-5.055805E-1,6.193415E-1,-1.9253954E-1,-1.4182396E0,2.2488592E0,3.8774627E-1,-1.2604685E-1,1.0405158E-1,-1.9429491E-1,-4.2151982E-1,6.3926506E-1,2.9596242E-1,-3.5087213E-2,1.7198277E-1],"categories":[],"categories_nodes":[],"categories_segments":[],"categories_sizes":[],"default_left":[0,0,0,0,0,0,0,0,0,0,0,0,0,0,0],"id":11,"left_children":[1,3,5,7,9,11,13,-1,-1,-1,-1,-1,-1,-1,-1],"loss_changes":[8.589954E3,4.287547E3,4.676123E3,4.838268E3,1.1370415E3,1.1916348E3,3.9482463E3,0E0,0E0,0E0,0E0,0E0,0E0,0E0,0E0],"parents":[2147483647,0,0,1,1,2,2,3,3,4,4,5,5,6,6],"right_children":[2,4,6,8,10,12,14,-1,-1,-1,-1,-1,-1,-1,-1],"split_conditions":[1.13E1,9.9E0,1.09E1,8.233334E0,1.32E1,8.4E0,1.4933333E1,-1.2604685E-1,1.0405158E-1,-1.9429491E-1,-4.2151982E-1,6.3926506E-1,2.9596242E-1,-3.5087213E-2,1.7198277E-1],"split_indices":[2,5,5,2,5,5,2,0,0,0,0,0,0,0,0],"split_type":[0,0,0,0,0,0,0,0,0,0,0,0,0,0,0],"sum_hessian":[2.7402E4,1.5009E4,1.2393E4,1.1176E4,3.833E3,1.542E3,1.0851E4,6.659E3,4.517E3,3.005E3,8.28E2,4.04E2,1.138E3,5.525E3,5.326E3],"tree_param":{"num_deleted":"0","num_feature":"7","num_nodes":"15","size_leaf_vector":"1"}},{"base_weights":[9.243201E-3,-5.325293E-1,4.3592197E-1,-2.672033E-1,-1.8793759E0,1.7746989E0,4.510875E-2,-2.4624029E-1,6.4374035E-4,-2.607235E-1,-4.987686E-1,5.829023E-1,1.8687285E-1,-1.0054321E-1,1.1567195E-1],"categories":[],"categories_nodes":[],"categories_segments":[],"categories_sizes":[],"default_left":[0,0,0,0,0,0,0,0,0,0,0,0,0,0,0],"id":12,"left_children":[1,3,5,7,9,11,13,-1,-1,-1,-1,-1,-1,-1,-1],"loss_changes":[6.3513984E3,4.32507E3,8.041698E3,3.1999292E3,7.3531494E2,3.8614238E3,4.7213525E3,0E0,0E0,0E0,0E0,0E0,0E0,0E0,0E0],"parents":[2147483647,0,0,1,1,2,2,3,3,4,4,5,5,6,6],"right_children":[2,4,6,8,10,12,14,-1,-1,-1,-1,-1,-1,-1,-1],"split_conditions":[1.01E1,1.09E1,1.07E1,5.9666667E0,1.37E1,1.15E1,1.4333333E1,-2.4624029E-1,6.4374035E-4,-2.607235E-1,-4.987686E-1,5.829023E-1,1.8687285E-1,-1.0054321E-1,1.1567195E-1],"split_indices":[2,6,6,2,6,5,2,0,0,0,0,0,0,0,0],"split_type":[0,0,0,0,0,0,0,0,0,0,0,0,0,0,0],"sum_hessian":[2.7476E4,1.2105E4,1.5371E4,1.0113E4,1.992E3,3.473E3,1.1898E4,1.905E3,8.208E3,1.475E3,5.17E2,1.032E3,2.441E3,5.939E3,5.959E3],"tree_param":{"num_deleted":"0","num_feature":"7","num_nodes":"15","size_leaf_vector":"1"}},{"base_weights":[8.548409E-3,-3.066807E-1,5.779288E-1,5.3773004E-1,-6.734483E-1,1.9539527E0,1.8641563E-1,-1.132273E-1,2.4571331E-1,-7.934391E-2,-3.9204827E-1,5.600492E-1,2.0618106E-1,2.281246E-1,-2.6483512E-2],"categories":[],"categories_nodes":[],"categories_segments":[],"categories_sizes":[],"default_left":[0,0,0,0,0,0,0,0,0,0,0,0,0,0,0],"id":13,"left_children":[1,3,5,7,9,11,13,-1,-1,-1,-1,-1,-1,-1,-1],"loss_changes":[4.923368E3,5.467842E3,5.265407E3,5.72362E3,4.1854946E3,2.1319473E3,2.9637627E3,0E0,0E0,0E0,0E0,0E0,0E0,0E0,0E0],"parents":[2147483647,0,0,1,1,2,2,3,3,4,4,5,5,6,6],"right_children":[2,4,6,8,10,12,14,-1,-1,-1,-1,-1,-1,-1,-1],"split_conditions":[1.2533334E1,6.7E0,1.26E1,6.6666665E0,1.28E1,1.48E1,1.34E1,-1.132273E-1,2.4571331E-1,-7.934391E-2,-3.9204827E-1,5.600492E-1,2.0618106E-1,2.281246E-1,-2.6483512E-2],"split_indices":[2,6,6,2,5,5,5,0,0,0,0,0,0,0,0],"split_type":[0,0,0,0,0,0,0,0,0,0,0,0,0,0,0],"sum_hessian":[2.743E4,1.7655E4,9.775E3,5.346E3,1.2309E4,2.165E3,7.61E3,2.285E3,3.061E3,1.0883E4,1.426E3,7.9E2,1.375E3,1.748E3,5.862E3],"tree_param":{"num_deleted":"0","num_feature":"7","num_nodes":"15","size_leaf_vector":"1"}},{"base_weights":[-6.057907E-3,-1.4694482E-1,1.0416732E0,-2.6014333E-3,-1.8678076E0,3.0957794E0,5.0876695E-1,-8.131485E-2,7.1697295E-2,-2.3839018E-1,-6.0329556E-1,7.118432E-1,1.5069753E-1,2.7415266E-2,5.1452315E-1],"categories":[],"categories_nodes":[],"categories_segments":[],"categories_sizes":[],"default_left":[0,0,0,0,0,0,0,0,0,0,0,0,0,0,0],"id":14,"left_children":[1,3,5,7,9,11,13,-1,-1,-1,-1,-1,-1,-1,-1],"loss_changes":[4.057406E3,6.0182593E3,3.565192E3,4.4284536E3,1.4772744E3,1.5639307E3,2.2466255E3,0E0,0E0,0E0,0E0,0E0,0E0,0E0,0E0],"parents":[2147483647,0,0,1,1,2,2,3,3,4,4,5,5,6,6],"right_children":[2,4,6,8,10,12,14,-1,-1,-1,-1,-1,-1,-1,-1],"split_conditions":[1.65E1,1.7E1,1.65E1,9.5E0,2E1,2.03E1,2.1866667E1,-8.131485E-2,7.1697295E-2,-2.3839018E-1,-6.0329556E-1,7.118432E-1,1.5069753E-1,2.7415266E-2,5.1452315E-1],"split_indices":[2,6,5,2,6,6,2,0,0,0,0,0,0,0,0],"split_type":[0,0,0,0,0,0,0,0,0,0,0,0,0,0,0],"sum_hessian":[2.7489E4,2.4231E4,3.258E3,2.2356E4,1.875E3,6.71E2,2.587E3,1.0541E4,1.1815E4,1.453E3,4.22E2,4.55E2,2.16E2,2.269E3,3.18E2],"tree_param":{"num_deleted":"0","num_feature":"7","num_nodes":"15","size_leaf_vector":"1"}},{"base_weights":[2.8363836E-3,8.19621E-1,-1.2897748E-1,4.0753525E-1,1.3059754E0,5.075817E-1,-2.2829802E-1,-1.2977628E-1,9.37845E-2,3.9179394E-1,1.8108734E-1,2.9469043E-2,1.5464662E-1,-7.179511E-2,1.7618202E-2],"categories":[],"categories_nodes":[],"categories_segments":[],"categories_sizes":[],"default_left":[0,0,0,0,0,0,0,0,0,0,0,0,0,0,0],"id":15,"left_children":[1,3,5,7,9,11,13,-1,-1,-1,-1,-1,-1,-1,-1],"loss_changes":[2.955049E3,7.6384717E2,1.493942E3,3.338196E2,4.274607E2,4.2115906E2,1.2858516E3,0E0,0E0,0E0,0E0,0E0,0E0,0E0,0E0],"parents":[2147483647,0,0,1,1,2,2,3,3,4,4,5,5,6,6],"right_children":[2,4,6,8,10,12,14,-1,-1,-1,-1,-1,-1,-1,-1],"split_conditions":[5.8E0,2.03E1,6.2E0,3.9E0,3.8E0,2.07E1,5.5E0,-1.2977628E-1,9.37845E-2,3.9179394E-1,1.8108734E-1,2.9469043E-2,1.5464662E-1,-7.179511E-2,1.7618202E-2],"split_indices":[6,0,5,5,6,0,1,0,0,0,0,0,0,0,0],"split_type":[0,0,0,0,0,0,0,0,0,0,0,0,0,0,0],"sum_hessian":[2.7445E4,3.814E3,2.3631E4,2.065E3,1.749E3,3.189E3,2.0442E4,2.2E2,1.845E3,3.57E2,1.392E3,1.721E3,1.468E3,1.2986E4,7.456E3],"tree_param":{"num_deleted":"0","num_feature":"7","num_nodes":"15","size_leaf_vector":"1"}},{"base_weights":[4.9647517E-3,-1.8999454E-1,6.343489E-1,-9.754903E-3,-1.4924088E0,1.0990103E0,-4.828642E-1,-7.653487E-2,7.418036E-2,-2.0476583E-1,-4.769499E-1,1.5191296E-1,5.0644714E-1,-2.157677E-1,2.6544693E-1],"categories":[],"categories_nodes":[],"categories_segments":[],"categories_sizes":[],"default_left":[0,0,0,0,0,0,0,0,0,0,0,0,0,0,0],"id":16,"left_children":[1,3,5,7,9,11,13,-1,-1,-1,-1,-1,-1,-1,-1],"loss_changes":[3.3650632E3,4.9144053E3,3.3672495E3,3.5460393E3,9.787012E2,1.812873E3,2.9940334E3,0E0,0E0,0E0,0E0,0E0,0E0,0E0,0E0],"parents":[2147483647,0,0,1,1,2,2,3,3,4,4,5,5,6,6],"right_children":[2,4,6,8,10,12,14,-1,-1,-1,-1,-1,-1,-1,-1],"split_conditions":[1.4266666E1,1.46E1,1.92E1,9.066667E0,1.81E1,1.8666666E1,2.04E1,-7.653487E-2,7.418036E-2,-2.0476583E-1,-4.769499E-1,1.5191296E-1,5.0644714E-1,-2.157677E-1,2.6544693E-1],"split_indices":[2,6,6,2,6,2,2,0,0,0,0,0,0,0,0],"split_type":[0,0,0,0,0,0,0,0,0,0,0,0,0,0,0],"sum_hessian":[2.7423E4,2.0937E4,6.486E3,1.8392E4,2.545E3,4.581E3,1.905E3,9.257E3,9.135E3,2.065E3,4.8E2,4.107E3,4.74E2,1.379E3,5.26E2],"tree_param":{"num_deleted":"0","num_feature":"7","num_nodes":"15","size_leaf_vector":"1"}},{"base_weights":[-3.3560677E-3,-2.7251223E-1,3.7427995E-1,3.6807325E-1,-7.628735E-1,1.4568111E0,-4.8309E-2,-5.9379864E-2,2.3908553E-1,-5.4993868E-2,-2.1675275E-1,5.708898E-1,1.7408347E-1,3.0821455E-1,-3.804701E-2],"categories":[],"categories_nodes":[],"categories_segments":[],"categories_sizes":[],"default_left":[0,0,0,0,0,0,0,0,0,0,0,0,0,0,0],"id":17,"left_children":[1,3,5,7,9,11,13,-1,-1,-1,-1,-1,-1,-1,-1],"loss_changes":[2.7828523E3,5.021622E3,5.2123613E3,5.073621E3,2.0030972E3,2.6449336E3,2.6196963E3,0E0,0E0,0E0,0E0,0E0,0E0,0E0,0E0],"parents":[2147483647,0,0,1,1,2,2,3,3,4,4,5,5,6,6],"right_children":[2,4,6,8,10,12,14,-1,-1,-1,-1,-1,-1,-1,-1],"split_conditions":[1.1766666E1,7.4E0,1.33E1,7.4666667E0,9.2E0,1.15E1,9E0,-5.9379864E-2,2.3908553E-1,-5.4993868E-2,-2.1675275E-1,5.708898E-1,1.7408347E-1,3.0821455E-1,-3.804701E-2],"split_indices":[2,5,5,2,6,6,6,0,0,0,0,0,0,0,0],"split_type":[0,0,0,0,0,0,0,0,0,0,0,0,0,0,0],"sum_hessian":[2.7379E4,1.5986E4,1.1393E4,6.931E3,9.055E3,3.199E3,8.194E3,4.085E3,2.846E3,4.805E3,4.25E3,6.12E2,2.587E3,7.04E2,7.49E3],"tree_param":{"num_deleted":"0","num_feature":"7","num_nodes":"15","size_leaf_vector":"1"}},{"base_weights":[-1.2550275E-4,-1.4750005E-1,6.3629925E-1,2.0756256E-2,-1.3100476E0,2.2523847E0,1.9846396E-1,-5.2380834E-2,8.285327E-2,-1.04315124E-1,-3.3818188E-1,7.9980683E-1,3.2493165E-1,2.6055422E-1,-2.7282784E-2],"categories":[],"categories_nodes":[],"categories_segments":[],"categories_sizes":[],"default_left":[0,0,0,0,0,0,0,0,0,0,0,0,0,0,0],"id":18,"left_children":[1,3,5,7,9,11,13,-1,-1,-1,-1,-1,-1,-1,-1],"loss_changes":[2.581489E3,4.3722095E3,3.660931E3,2.9405334E3,1.3099204E3,9.5149316E2,1.9213452E3,0E0,0E0,0E0,0E0,0E0,0E0,0E0,0E0],"parents":[2147483647,0,0,1,1,2,2,3,3,4,4,5,5,6,6],"right_children":[2,4,6,8,10,12,14,-1,-1,-1,-1,-1,-1,-1,-1],"split_conditions":[1.51E1,1.45E1,1.54E1,9.866667E0,1.11E1,1.43E1,1.44E1,-5.2380834E-2,8.285327E-2,-1.04315124E-1,-3.3818188E-1,7.9980683E-1,3.2493165E-1,2.6055422E-1,-2.7282784E-2],"split_indices":[2,5,5,2,6,6,6,0,0,0,0,0,0,0,0],"split_type":[0,0,0,0,0,0,0,0,0,0,0,0,0,0,0],"sum_hessian":[2.7525E4,2.235E4,5.175E3,1.9524E4,2.826E3,1.103E3,4.072E3,1.1447E4,8.077E3,1.37E3,1.456E3,1.43E2,9.6E2,8.68E2,3.204E3],"tree_param":{"num_deleted":"0","num_feature":"7","num_nodes":"15","size_leaf_vector":"1"}},{"base_weights":[7.7046955E-4,8.822203E-1,-1.11011885E-1,-7.6116973E-1,1.5935177E0,-3.489459E-1,3.9568794E-1,-3.1243706E-1,-5.054925E-2,6.4730525E-1,1.7743285E-1,-1.7138282E-2,-2.1549045E-1,2.404303E-1,-2.7246492E-3],"categories":[],"categories_nodes":[],"categories_segments":[],"categories_sizes":[],"default_left":[0,0,0,0,0,0,0,0,0,0,0,0,0,0,0],"id":19,"left_children":[1,3,5,7,9,11,13,-1,-1,-1,-1,-1,-1,-1,-1],"loss_changes":[2.7130906E3,3.6228105E3,2.9457754E3,4.6200934E2,2.6352114E3,3.7546565E3,3.230498E3,0E0,0E0,0E0,0E0,0E0,0E0,0E0,0E0],"parents":[2147483647,0,0,1,1,2,2,3,3,4,4,5,5,6,6],"right_children":[2,4,6,8,10,12,14,-1,-1,-1,-1,-1,-1,-1,-1],"split_conditions":[5.4E0,5.766667E0,1.35E1,4.4E0,6.1E0,1.21E1,1.48E1,-3.1243706E-1,-5.054925E-2,6.4730525E-1,1.7743285E-1,-1.7138282E-2,-2.1549045E-1,2.404303E-1,-2.7246492E-3],"split_indices":[6,2,2,2,5,5,5,0,0,0,0,0,0,0,0],"split_type":[0,0,0,0,0,0,0,0,0,0,0,0,0,0,0],"sum_hessian":[2.7533E4,3.099E3,2.4434E4,9.36E2,2.163E3,1.6627E4,7.807E3,2.86E2,6.5E2,4.42E2,1.721E3,1.3044E4,3.583E3,2.268E3,5.539E3],"tree_param":{"num_deleted":"0","num_feature":"7","num_nodes":"15","size_leaf_vector":"1"}},{"base_weights":[-3.828121E-3,5.0820583E-1,-1.7197874E-1,-2.660637E-1,1.3977745E0,-3.515712E-1,6.0914624E-1,2.6780188E-3,-2.7674565E-1,5.7688016E-1,1.4585486E-1,-3.0728398E-2,-2.5031492E-1,2.8661457E-1,-7.85214E-3],"categories":[],"categories_nodes":[],"categories_segments":[],"categories_sizes":[],"default_left":[0,0,0,0,0,0,0,0,0,0,0,0,0,0,0],"id":20,"left_children":[1,3,5,7,9,11,13,-1,-1,-1,-1,-1,-1,-1,-1],"loss_changes":[2.364165E3,4.6757085E3,2.8998706E3,1.3768861E3,3.397311E3,3.2094265E3,2.6852568E3,0E0,0E0,0E0,0E0,0E0,0E0,0E0,0E0],"parents":[2147483647,0,0,1,1,2,2,3,3,4,4,5,5,6,6],"right_children":[2,4,6,8,10,12,14,-1,-1,-1,-1,-1,-1,-1,-1],"split_conditions":[7.3E0,7.5E0,1.6E1,8E0,7.7E0,1.62E1,1.76E1,2.6780188E-3,-2.7674565E-1,5.7688016E-1,1.4585486E-1,-3.0728398E-2,-2.5031492E-1,2.8661457E-1,-7.85214E-3],"split_indices":[6,2,2,5,5,6,5,0,0,0,0,0,0,0,0],"split_type":[0,0,0,0,0,0,0,0,0,0,0,0,0,0,0],"sum_hessian":[2.746E4,6.788E3,2.0672E4,3.629E3,3.159E3,1.6808E4,3.864E3,3.001E3,6.28E2,6.89E2,2.47E3,1.4542E4,2.266E3,1.475E3,2.389E3],"tree_param":{"num_deleted":"0","num_feature":"7","num_nodes":"15","size_leaf_vector":"1"}},{"base_weights":[5.2280067E-3,-5.474614E-2,1.32172E0,1.9169113E-2,-1.9958367E0,4.0129666E0,8.4148484E-1,-4.664354E-2,5.83734E-2,-2.5624132E-1,-7.280067E-1,9.317886E-1,4.3678182E-1,2.638262E-1,-1.1008958E-1],"categories":[],"categories_nodes":[],"categories_segments":[],"categories_sizes":[],"default_left":[0,0,0,0,0,0,0,0,0,0,0,0,0,0,0],"id":21,"left_children":[1,3,5,7,9,11,13,-1,-1,-1,-1,-1,-1,-1,-1],"loss_changes":[2.167264E3,3.7666018E3,1.5441794E3,2.3613406E3,1.0856165E3,3.737644E2,1.047632E3,0E0,0E0,0E0,0E0,0E0,0E0,0E0,0E0],"parents":[2147483647,0,0,1,1,2,2,3,3,4,4,5,5,6,6],"right_children":[2,4,6,8,10,12,14,-1,-1,-1,-1,-1,-1,-1,-1],"split_conditions":[1.9066668E1,1.99E1,1.84E1,1.0566667E1,2.31E1,2.12E1,2.31E1,-4.664354E-2,5.83734E-2,-2.5624132E-1,-7.280067E-1,9.317886E-1,4.3678182E-1,2.638262E-1,-1.1008958E-1],"split_indices":[2,6,5,2,6,6,6,0,0,0,0,0,0,0,0],"split_type":[0,0,0,0,0,0,0,0,0,0,0,0,0,0,0],"sum_hessian":[2.7444E4,2.6248E4,1.196E3,2.5285E4,9.63E2,1.81E2,1.015E3,1.3262E4,1.2023E4,7.87E2,1.76E2,9.2E1,8.9E1,6.91E2,3.24E2],"tree_param":{"num_deleted":"0","num_feature":"7","num_nodes":"15","size_leaf_vector":"1"}},{"base_weights":[7.2532217E-3,5.84553E-1,-1.3221146E-1,1.314787E-1,2.2844064E0,-7.079732E-1,1.22320205E-1,-1.529878E-1,9.690964E-2,5.4735225E-1,8.744167E-2,-8.210942E-2,-3.1022477E-1,2.0500098E-1,-1.7152943E-2],"categories":[],"categories_nodes":[],"categories_segments":[],"categories_sizes":[],"default_left":[0,0,0,0,0,0,0,0,0,0,0,0,0,0,0],"id":22,"left_children":[1,3,5,7,9,11,13,-1,-1,-1,-1,-1,-1,-1,-1],"loss_changes":[2.2004841E3,4.0949292E3,3.225892E3,1.860633E3,1.7961758E3,1.7025093E3,3.6378013E3,0E0,0E0,0E0,0E0,0E0,0E0,0E0,0E0],"parents":[2147483647,0,0,1,1,2,2,3,3,4,4,5,5,6,6],"right_children":[2,4,6,8,10,12,14,-1,-1,-1,-1,-1,-1,-1,-1],"split_conditions":[6.5E0,8.466666E0,9.933333E0,5.633333E0,1.26E1,1.08E1,9.6E0,-1.529878E-1,9.690964E-2,5.4735225E-1,8.744167E-2,-8.210942E-2,-3.1022477E-1,2.0500098E-1,-1.7152943E-2],"split_indices":[5,2,2,2,6,5,6,0,0,0,0,0,0,0,0],"split_type":[0,0,0,0,0,0,0,0,0,0,0,0,0,0,0],"sum_hessian":[2.7329E4,5.318E3,2.2011E4,4.199E3,1.119E3,6.748E3,1.5263E4,1.249E3,2.95E3,7.41E2,3.78E2,5.583E3,1.165E3,2.621E3,1.2642E4],"tree_param":{"num_deleted":"0","num_feature":"7","num_nodes":"15","size_leaf_vector":"1"}},{"base_weights":[2.0222745E-3,-2.9584793E-2,1.9654549E0,4.6517648E-2,-1.0938053E0,6.433813E0,1.6336677E0,-2.7305773E-3,2.8343436E-1,-3.5818785E-1,-8.098614E-2,9.665041E-1,1.7813052E0,1.5415056E-1,6.45127E-1],"categories":[],"categories_nodes":[],"categories_segments":[],"categories_sizes":[],"default_left":[0,0,0,0,0,0,0,0,0,0,0,0,0,0,0],"id":23,"left_children":[1,3,5,7,9,11,13,-1,-1,-1,-1,-1,-1,-1,-1],"loss_changes":[1.7039409E3,2.1880342E3,6.423003E2,2.5264653E3,1.112987E3,8.976868E1,6.315674E2,0E0,0E0,0E0,0E0,0E0,0E0,0E0,0E0],"parents":[2147483647,0,0,1,1,2,2,3,3,4,4,5,5,6,6],"right_children":[2,4,6,8,10,12,14,-1,-1,-1,-1,-1,-1,-1,-1],"split_conditions":[2.1233334E1,1.9E1,1.87E1,1.7233334E1,1.7233334E1,3.12E1,2.4066668E1,-2.7305773E-3,2.8343436E-1,-3.5818785E-1,-8.098614E-2,9.665041E-1,1.7813052E0,1.5415056E-1,6.45127E-1],"split_indices":[2,5,5,2,2,0,2,0,0,0,0,0,0,0,0],"split_type":[0,0,0,0,0,0,0,0,0,0,0,0,0,0,0],"sum_hessian":[2.7447E4,2.7012E4,4.35E2,2.5209E4,1.803E3,3E1,4.05E2,2.4265E4,9.44E2,6.94E2,1.109E3,2.5E1,5E0,3.01E2,1.04E2],"tree_param":{"num_deleted":"0","num_feature":"7","num_nodes":"15","size_leaf_vector":"1"}},{"base_weights":[4.4307113E-3,5.992605E-1,-9.151944E-2,-3.3110252E-1,1.4107503E0,-4.373435E-1,1.96495E-1,-1.9760033E-1,-3.1138752E-3,1.7588818E-1,4.92129E-1,-3.9855737E-2,-2.4995004E-1,1.5095423E-1,-2.4908233E-2],"categories":[],"categories_nodes":[],"categories_segments":[],"categories_sizes":[],"default_left":[0,0,0,0,0,0,0,0,0,0,0,0,0,0,0],"id":24,"left_children":[1,3,5,7,9,11,13,-1,-1,-1,-1,-1,-1,-1,-1],"loss_changes":[1.5691857E3,2.8836177E3,2.357864E3,4.5632605E2,1.1455159E3,2.2479253E3,3.0142244E3,0E0,0E0,0E0,0E0,0E0,0E0,0E0,0E0],"parents":[2147483647,0,0,1,1,2,2,3,3,4,4,5,5,6,6],"right_children":[2,4,6,8,10,12,14,-1,-1,-1,-1,-1,-1,-1,-1],"split_conditions":[5.8E0,6.4333334E0,1.1066667E1,4.8E0,9.166667E0,1.14E1,1.33E1,-1.9760033E-1,-3.1138752E-3,1.7588818E-1,4.92129E-1,-3.9855737E-2,-2.4995004E-1,1.5095423E-1,-2.4908233E-2],"split_indices":[5,2,2,2,2,5,5,0,0,0,0,0,0,0,0],"split_type":[0,0,0,0,0,0,0,0,0,0,0,0,0,0,0],"sum_hessian":[2.7491E4,3.819E3,2.3672E4,1.779E3,2.04E3,1.0757E4,1.2915E4,4.91E2,1.288E3,1.613E3,4.27E2,8.955E3,1.802E3,4.306E3,8.609E3],"tree_param":{"num_deleted":"0","num_feature":"7","num_nodes":"15","size_leaf_vector":"1"}},{"base_weights":[-3.7790868E-3,-6.464342E-2,7.512569E-1,6.1592504E-2,-9.508707E-1,2.3256686E0,3.5384062E-1,-8.942307E-3,1.6312243E-1,-4.0702122E-1,-1.1376732E-1,3.5254183E-1,8.192891E-1,1.0983382E-2,3.9936998E-1],"categories":[],"categories_nodes":[],"categories_segments":[],"categories_sizes":[],"default_left":[0,0,0,0,0,0,0,0,0,0,0,0,0,0,0],"id":25,"left_children":[1,3,5,7,9,11,13,-1,-1,-1,-1,-1,-1,-1,-1],"loss_changes":[1.2598116E3,2.838971E3,1.2786841E3,2.2450066E3,1.2935156E3,2.715857E2,9.331919E2,0E0,0E0,0E0,0E0,0E0,0E0,0E0,0E0],"parents":[2147483647,0,0,1,1,2,2,3,3,4,4,5,5,6,6],"right_children":[2,4,6,8,10,12,14,-1,-1,-1,-1,-1,-1,-1,-1],"split_conditions":[1.7733334E1,1.61E1,1.76E1,1.3966666E1,1.3366667E1,2.04E1,2.28E1,-8.942307E-3,1.6312243E-1,-4.0702122E-1,-1.1376732E-1,3.5254183E-1,8.192891E-1,1.0983382E-2,3.9936998E-1],"split_indices":[2,5,5,2,2,2,2,0,0,0,0,0,0,0,0],"split_type":[0,0,0,0,0,0,0,0,0,0,0,0,0,0,0],"sum_hessian":[2.7419E4,2.5374E4,2.045E3,2.221E4,3.164E3,4.12E2,1.633E3,1.9691E4,2.519E3,5.33E2,2.631E3,3.71E2,4.1E1,1.424E3,2.09E2],"tree_param":{"num_deleted":"0","num_feature":"7","num_nodes":"15","size_leaf_vector":"1"}},{"base_weights":[-3.5632926E-3,7.3745304E-1,-1.3827844E-1,2.2877584E-1,1.859233E0,-6.298135E-1,8.490674E-3,7.713804E-2,-1.944048E-1,5.441588E-1,1.7447153E-1,-8.0409124E-2,-3.0228746E-1,8.091766E-2,-6.2598385E-2],"categories":[],"categories_nodes":[],"categories_segments":[],"categories_sizes":[],"default_left":[0,0,0,0,0,0,0,0,0,0,0,0,0,0,0],"id":26,"left_children":[1,3,5,7,9,11,13,-1,-1,-1,-1,-1,-1,-1,-1],"loss_changes":[2.7398342E3,2.4084998E3,1.6757748E3,8.72726E2,1.4540684E3,9.740029E2,3.0908682E3,0E0,0E0,0E0,0E0,0E0,0E0,0E0,0E0],"parents":[2147483647,0,0,1,1,2,2,3,3,4,4,5,5,6,6],"right_children":[2,4,6,8,10,12,14,-1,-1,-1,-1,-1,-1,-1,-1],"split_conditions":[6E0,8.3E0,8.733334E0,9.2E0,1.1E1,1.12E1,1.29E1,7.713804E-2,-1.944048E-1,5.441588E-1,1.7447153E-1,-8.0409124E-2,-3.0228746E-1,8.091766E-2,-6.2598385E-2],"split_indices":[6,2,2,5,5,6,6,0,0,0,0,0,0,0,0],"split_type":[0,0,0,0,0,0,0,0,0,0,0,0,0,0,0],"sum_hessian":[2.7448E4,4.222E3,2.3226E4,2.905E3,1.317E3,5.341E3,1.7885E4,2.5E3,4.05E2,5.15E2,8.02E2,4.675E3,6.66E2,7.983E3,9.902E3],"tree_param":{"num_deleted":"0","num_feature":"7","num_nodes":"15","size_leaf_vector":"1"}},{"base_weights":[8.208585E-4,4.195401E-1,-1.08511835E-1,-4.797697E-1,9.0340275E-1,-3.6835667E-1,2.60905E-1,-2.0362093E-1,-5.0923005E-2,1.2475611E-1,4.5038247E-1,-3.2489173E-2,-2.3813525E-1,1.2657021E-1,-2.2351474E-2],"categories":[],"categories_nodes":[],"categories_segments":[],"categories_sizes":[],"default_left":[0,0,0,0,0,0,0,0,0,0,0,0,0,0,0],"id":27,"left_children":[1,3,5,7,9,11,13,-1,-1,-1,-1,-1,-1,-1,-1],"loss_changes":[1.2547391E3,2.4695703E3,2.086016E3,2.563016E2,1.1194761E3,2.327691E3,1.6729768E3,0E0,0E0,0E0,0E0,0E0,0E0,0E0,0E0],"parents":[2147483647,0,0,1,1,2,2,3,3,4,4,5,5,6,6],"right_children":[2,4,6,8,10,12,14,-1,-1,-1,-1,-1,-1,-1,-1],"split_conditions":[6.7E0,6.2E0,1.2866667E1,4.6E0,1.0266666E1,1.33E1,1.58E1,-2.0362093E-1,-5.0923005E-2,1.2475611E-1,4.5038247E-1,-3.2489173E-2,-2.3813525E-1,1.2657021E-1,-2.2351474E-2],"split_indices":[5,2,2,2,2,5,5,0,0,0,0,0,0,0,0],"split_type":[0,0,0,0,0,0,0,0,0,0,0,0,0,0,0],"sum_hessian":[2.7406E4,5.675E3,2.1731E4,1.985E3,3.69E3,1.2758E4,8.973E3,4.08E2,1.577E3,3.347E3,3.43E2,1.0852E4,1.906E3,4.045E3,4.928E3],"tree_param":{"num_deleted":"0","num_feature":"7","num_nodes":"15","size_leaf_vector":"1"}},{"base_weights":[-3.7540465E-3,-4.783977E-2,1.0639831E0,2.3046609E-2,-9.1705656E-1,2.494118E0,6.116971E-1,-1.3236775E-2,1.1073287E-1,-4.7031724E-1,-1.3288857E-1,3.086742E-1,6.3601416E-1,4.6729516E-2,4.8762444E-1],"categories":[],"categories_nodes":[],"categories_segments":[],"categories_sizes":[],"default_left":[0,0,0,0,0,0,0,0,0,0,0,0,0,0,0],"id":28,"left_children":[1,3,5,7,9,11,13,-1,-1,-1,-1,-1,-1,-1,-1],"loss_changes":[1.290432E3,1.622875E3,7.021008E2,1.5177513E3,5.1572327E2,2.182091E2,6.240791E2,0E0,0E0,0E0,0E0,0E0,0E0,0E0,0E0],"parents":[2147483647,0,0,1,1,2,2,3,3,4,4,5,5,6,6],"right_children":[2,4,6,8,10,12,14,-1,-1,-1,-1,-1,-1,-1,-1],"split_conditions":[1.93E1,1.8E1,1.97E1,1.4466666E1,1.3266666E1,2.04E1,2.4066668E1,-1.3236775E-2,1.1073287E-1,-4.7031724E-1,-1.3288857E-1,3.086742E-1,6.3601416E-1,4.6729516E-2,4.8762444E-1],"split_indices":[2,5,5,2,2,2,2,0,0,0,0,0,0,0,0],"split_type":[0,0,0,0,0,0,0,0,0,0,0,0,0,0,0],"sum_hessian":[2.7421E4,2.6334E4,1.087E3,2.4348E4,1.986E3,2.61E2,8.26E2,2.0971E4,3.377E3,1.44E2,1.842E3,1.66E2,9.5E1,7.17E2,1.09E2],"tree_param":{"num_deleted":"0","num_feature":"7","num_nodes":"15","size_leaf_vector":"1"}},{"base_weights":[5.180688E-3,2.5949493E-1,-3.6604112E-1,-1.1703424E-1,7.541307E-1,-7.2302395E-1,2.082508E-1,2.2044046E-2,-1.5447214E-1,3.4133613E-1,7.700702E-2,-8.777625E-2,-2.9812652E-1,9.90777E-2,-1.7840937E-1],"categories":[],"categories_nodes":[],"categories_segments":[],"categories_sizes":[],"default_left":[0,0,0,0,0,0,0,0,0,0,0,0,0,0,0],"id":29,"left_children":[1,3,5,7,9,11,13,-1,-1,-1,-1,-1,-1,-1,-1],"loss_changes":[2.5857732E3,3.027615E3,2.2829788E3,1.7743296E3,2.6489365E3,1.4725825E3,1.9654052E3,0E0,0E0,0E0,0E0,0E0,0E0,0E0,0E0],"parents":[2147483647,0,0,1,1,2,2,3,3,4,4,5,5,6,6],"right_children":[2,4,6,8,10,12,14,-1,-1,-1,-1,-1,-1,-1,-1],"split_conditions":[1.23E1,9.2E0,1.5466666E1,8.6E0,9.2E0,1.73E1,2.12E1,2.2044046E-2,-1.5447214E-1,3.4133613E-1,7.700702E-2,-8.777625E-2,-2.9812652E-1,9.90777E-2,-1.7840937E-1],"split_indices":[6,2,2,5,5,6,6,0,0,0,0,0,0,0,0],"split_type":[0,0,0,0,0,0,0,0,0,0,0,0,0,0,0],"sum_hessian":[2.739E4,1.6255E4,1.1135E4,9.229E3,7.026E3,6.867E3,4.268E3,7.026E3,2.203E3,1.393E3,5.633E3,5.682E3,1.185E3,3.294E3,9.74E2],"tree_param":{"num_deleted":"0","num_feature":"7","num_nodes":"15","size_leaf_vector":"1"}},{"base_weights":[-9.877314E-4,5.061937E-1,-1.7484821E-1,1.7507711E-2,1.2724482E0,-4.8926893E-1,7.988112E-2,-7.275143E-2,6.9815725E-2,1.7351477E-1,4.204452E-1,-5.6776278E-2,-2.491304E-1,8.155738E-2,-6.9693E-2],"categories":[],"categories_nodes":[],"categories_segments":[],"categories_sizes":[],"default_left":[0,0,0,0,0,0,0,0,0,0,0,0,0,0,0],"id":30,"left_children":[1,3,5,7,9,11,13,-1,-1,-1,-1,-1,-1,-1,-1],"loss_changes":[2.418285E3,2.6211626E3,1.6360153E3,7.346451E2,8.378779E2,1.3933943E3,2.1678223E3,0E0,0E0,0E0,0E0,0E0,0E0,0E0,0E0],"parents":[2147483647,0,0,1,1,2,2,3,3,4,4,5,5,6,6],"right_children":[2,4,6,8,10,12,14,-1,-1,-1,-1,-1,-1,-1,-1],"split_conditions":[7.4E0,8E0,1.1566667E1,6.2E0,1.1766666E1,1.37E1,1.59E1,-7.275143E-2,6.9815725E-2,1.7351477E-1,4.204452E-1,-5.6776278E-2,-2.491304E-1,8.155738E-2,-6.9693E-2],"split_indices":[6,2,2,2,2,6,6,0,0,0,0,0,0,0,0],"split_type":[0,0,0,0,0,0,0,0,0,0,0,0,0,0,0],"sum_hessian":[2.7426E4,7.001E3,2.0425E4,4.275E3,2.726E3,9.142E3,1.1283E4,2.003E3,2.272E3,2.231E3,4.95E2,7.85E3,1.292E3,6.222E3,5.061E3],"tree_param":{"num_deleted":"0","num_feature":"7","num_nodes":"15","size_leaf_vector":"1"}},{"base_weights":[-4.633142E-3,1.0258552E0,-7.488258E-2,1.3393427E0,6.9241726E-1,-4.144078E-2,-1.5507498E0,6.840092E-2,2.6121598E-1,8.502781E-2,1.7987278E-1,3.0674025E-2,-2.7304165E-2,-3.1092495E-1,5.9728605E-1],"categories":[],"categories_nodes":[],"categories_segments":[],"categories_sizes":[],"default_left":[0,0,0,0,0,0,0,0,0,0,0,0,0,0,0],"id":31,"left_children":[1,3,5,7,9,11,13,-1,-1,-1,-1,-1,-1,-1,-1],"loss_changes":[1.9861805E3,1.8237317E2,1.2674324E3,1.544513E2,5.898105E1,6.507678E2,7.465841E2,0E0,0E0,0E0,0E0,0E0,0E0,0E0,0E0],"parents":[2147483647,0,0,1,1,2,2,3,3,4,4,5,5,6,6],"right_children":[2,4,6,8,10,12,14,-1,-1,-1,-1,-1,-1,-1,-1],"split_conditions":[4.6E0,3.9E0,2.31E1,3.9E0,1.5E1,9.2E0,2.08E1,6.840092E-2,2.6121598E-1,8.502781E-2,1.7987278E-1,3.0674025E-2,-2.7304165E-2,-3.1092495E-1,5.9728605E-1],"split_indices":[6,6,6,5,4,6,1,0,0,0,0,0,0,0,0],"split_type":[0,0,0,0,0,0,0,0,0,0,0,0,0,0,0],"sum_hessian":[2.7441E4,1.751E3,2.569E4,9.02E2,8.49E2,2.5121E4,5.69E2,1.47E2,7.55E2,5.47E2,3.02E2,8.748E3,1.6373E4,5.41E2,2.8E1],"tree_param":{"num_deleted":"0","num_feature":"7","num_nodes":"15","size_leaf_vector":"1"}},{"base_weights":[-6.1105355E-4,6.922278E-1,-7.170505E-2,-4.5682213E-1,1.1319093E0,-1.3574299E-1,8.5248435E-1,-2.829669E-2,-2.5388035E-1,4.3516135E-1,1.3504489E-1,-1.625024E-2,-4.1795412E-1,2.2555046E-1,-1.2709914E-1],"categories":[],"categories_nodes":[],"categories_segments":[],"categories_sizes":[],"default_left":[0,0,0,0,0,0,0,0,0,0,0,0,0,0,0],"id":32,"left_children":[1,3,5,7,9,11,13,-1,-1,-1,-1,-1,-1,-1,-1],"loss_changes":[1.3544568E3,1.2930657E3,1.4759746E3,2.1081651E2,8.9538354E2,2.2014795E3,1.1890033E3,0E0,0E0,0E0,0E0,0E0,0E0,0E0,0E0],"parents":[2147483647,0,0,1,1,2,2,3,3,4,4,5,5,6,6],"right_children":[2,4,6,8,10,12,14,-1,-1,-1,-1,-1,-1,-1,-1],"split_conditions":[5.1E0,5.5333333E0,1.83E1,5.8E0,5.8E0,2.12E1,2.38E1,-2.829669E-2,-2.5388035E-1,4.3516135E-1,1.3504489E-1,-1.625024E-2,-4.1795412E-1,2.2555046E-1,-1.2709914E-1],"split_indices":[6,2,2,5,5,6,6,0,0,0,0,0,0,0,0],"split_type":[0,0,0,0,0,0,0,0,0,0,0,0,0,0,0],"sum_hessian":[2.7502E4,2.559E3,2.4943E4,7.08E2,1.851E3,2.3327E4,1.616E3,5.51E2,1.57E2,3.65E2,1.486E3,2.2918E4,4.09E2,1.253E3,3.63E2],"tree_param":{"num_deleted":"0","num_feature":"7","num_nodes":"15","size_leaf_vector":"1"}},{"base_weights":[2.4001223E-4,2.6250973E-1,-1.5050608E-1,-1.866176E-1,7.7486897E-1,-4.7839546E-1,1.2159112E-1,9.835048E-2,-5.5521853E-2,1.139221E-1,3.995036E-1,-6.186902E-2,-2.29199E-1,5.7810187E-2,-8.947617E-2],"categories":[],"categories_nodes":[],"categories_segments":[],"categories_sizes":[],"default_left":[0,0,0,0,0,0,0,0,0,0,0,0,0,0,0],"id":33,"left_children":[1,3,5,7,9,11,13,-1,-1,-1,-1,-1,-1,-1,-1],"loss_changes":[1.0881498E3,2.311921E3,1.5592854E3,5.5666223E2,8.0842163E2,8.003468E2,1.3217257E3,0E0,0E0,0E0,0E0,0E0,0E0,0E0,0E0],"parents":[2147483647,0,0,1,1,2,2,3,3,4,4,5,5,6,6],"right_children":[2,4,6,8,10,12,14,-1,-1,-1,-1,-1,-1,-1,-1],"split_conditions":[8.9E0,7.9333334E0,1.2366667E1,4.1E0,1.35E1,1.51E1,1.87E1,9.835048E-2,-5.5521853E-2,1.139221E-1,3.995036E-1,-6.186902E-2,-2.29199E-1,5.7810187E-2,-8.947617E-2],"split_indices":[6,2,2,6,2,6,6,0,0,0,0,0,0,0,0],"split_type":[0,0,0,0,0,0,0,0,0,0,0,0,0,0,0],"sum_hessian":[2.7522E4,1.0046E4,1.7476E4,5.353E3,4.693E3,7.926E3,9.55E3,8.17E2,4.536E3,4.38E3,3.13E2,6.968E3,9.58E2,7.155E3,2.395E3],"tree_param":{"num_deleted":"0","num_feature":"7","num_nodes":"15","size_leaf_vector":"1"}},{"base_weights":[-3.9435527E-3,1.6983658E-1,-2.5606832E-1,-9.189574E-2,8.57007E-1,-8.0996794E-1,1.4258444E-1,1.8533511E-2,-1.2803955E-1,4.3499294E-1,1.1367967E-1,-9.429375E-2,-2.6644656E-1,1.6772735E-1,-2.2444401E-2],"categories":[],"categories_nodes":[],"categories_segments":[],"categories_sizes":[],"default_left":[0,0,0,0,0,0,0,0,0,0,0,0,0,0,0],"id":34,"left_children":[1,3,5,7,9,11,13,-1,-1,-1,-1,-1,-1,-1,-1],"loss_changes":[1.2034746E3,2.9245051E3,2.4750947E3,1.5398174E3,1.4632322E3,9.068655E2,1.4874043E3,0E0,0E0,0E0,0E0,0E0,0E0,0E0,0E0],"parents":[2147483647,0,0,1,1,2,2,3,3,4,4,5,5,6,6],"right_children":[2,4,6,8,10,12,14,-1,-1,-1,-1,-1,-1,-1,-1],"split_conditions":[1.22E1,1.0266666E1,1.3966666E1,1.02E1,8.6E0,1.53E1,1.4E1,1.8533511E-2,-1.2803955E-1,4.3499294E-1,1.1367967E-1,-9.429375E-2,-2.6644656E-1,1.6772735E-1,-2.2444401E-2],"split_indices":[5,2,2,6,6,5,6,0,0,0,0,0,0,0,0],"split_type":[0,0,0,0,0,0,0,0,0,0,0,0,0,0,0],"sum_hessian":[2.7467E4,1.6259E4,1.1208E4,1.1774E4,4.485E3,4.691E3,6.517E3,9.018E3,2.756E3,4.66E2,4.019E3,3.473E3,1.218E3,1.608E3,4.909E3],"tree_param":{"num_deleted":"0","num_feature":"7","num_nodes":"15","size_leaf_vector":"1"}},{"base_weights":[-4.771879E-3,-3.6761515E-2,1.3277279E0,-3.4817227E-3,-2.1789997E0,1.9819762E0,-7.0190667E-3,5.782352E-3,-2.4297349E-1,-2.6089802E-1,-6.04679E-1,2.4529946E-1,6.769938E-1,-1.6683948E-1,2.769472E-1],"categories":[],"categories_nodes":[],"categories_segments":[],"categories_sizes":[],"default_left":[0,0,0,0,0,0,0,0,0,0,0,0,0,0,0],"id":35,"left_children":[1,3,5,7,9,11,13,-1,-1,-1,-1,-1,-1,-1,-1],"loss_changes":[1.1727407E3,1.9154434E3,5.638882E2,1.3899792E3,3.6237622E2,4.6794727E2,3.3141843E2,0E0,0E0,0E0,0E0,0E0,0E0,0E0,0E0],"parents":[2147483647,0,0,1,1,2,2,3,3,4,4,5,5,6,6],"right_children":[2,4,6,8,10,12,14,-1,-1,-1,-1,-1,-1,-1,-1],"split_conditions":[2.04E1,2.23E1,2.45E1,2.08E1,2.45E1,2.28E1,2.4066668E1,5.782352E-3,-2.4297349E-1,-2.6089802E-1,-6.04679E-1,2.4529946E-1,6.769938E-1,-1.6683948E-1,2.769472E-1],"split_indices":[2,6,6,5,6,2,2,0,0,0,0,0,0,0,0],"split_type":[0,0,0,0,0,0,0,0,0,0,0,0,0,0,0],"sum_hessian":[2.7522E4,2.6877E4,6.45E2,2.6466E4,4.11E2,4.33E2,2.12E2,2.5787E4,6.79E2,2.76E2,1.35E2,3.38E2,9.5E1,1.33E2,7.9E1],"tree_param":{"num_deleted":"0","num_feature":"7","num_nodes":"15","size_leaf_vector":"1"}},{"base_weights":[7.772965E-3,-6.1948266E-2,6.1651057E-1,6.529195E-2,-7.8747594E-1,1.3981276E0,1.4486068E-1,-2.0081637E-2,7.871639E-2,-3.453884E-1,-1.041797E-1,4.819225E-1,1.3494402E-1,-2.3025155E-2,2.4635632E-1],"categories":[],"categories_nodes":[],"categories_segments":[],"categories_sizes":[],"default_left":[0,0,0,0,0,0,0,0,0,0,0,0,0,0,0],"id":36,"left_children":[1,3,5,7,9,11,13,-1,-1,-1,-1,-1,-1,-1,-1],"loss_changes":[1.1613483E3,2.2663215E3,1.0361442E3,1.497828E3,8.0881934E2,9.1153687E2,6.3207526E2,0E0,0E0,0E0,0E0,0E0,0E0,0E0,0E0],"parents":[2147483647,0,0,1,1,2,2,3,3,4,4,5,5,6,6],"right_children":[2,4,6,8,10,12,14,-1,-1,-1,-1,-1,-1,-1,-1],"split_conditions":[1.69E1,1.52E1,1.85E1,1.11E1,1.23E1,1.75E1,2.1866667E1,-2.0081637E-2,7.871639E-2,-3.453884E-1,-1.041797E-1,4.819225E-1,1.3494402E-1,-2.3025155E-2,2.4635632E-1],"split_indices":[2,5,5,2,2,6,2,0,0,0,0,0,0,0,0],"split_type":[0,0,0,0,0,0,0,0,0,0,0,0,0,0,0],"sum_hessian":[2.7359E4,2.4547E4,2.812E3,2.0884E4,3.663E3,1.058E3,1.754E3,1.427E4,6.614E3,4.7E2,3.193E3,3.2E2,7.38E2,1.442E3,3.12E2],"tree_param":{"num_deleted":"0","num_feature":"7","num_nodes":"15","size_leaf_vector":"1"}},{"base_weights":[3.1117296E-3,5.3940386E-1,-7.074106E-2,-2.0604001E-2,1.4994199E0,-5.4309916E-1,5.0707716E-2,-1.255707E-1,5.276213E-2,3.5301965E-1,6.2477145E-2,-7.1706064E-2,-2.618558E-1,8.1130214E-2,-3.0196376E-2],"categories":[],"categories_nodes":[],"categories_segments":[],"categories_sizes":[],"default_left":[0,0,0,0,0,0,0,0,0,0,0,0,0,0,0],"id":37,"left_children":[1,3,5,7,9,11,13,-1,-1,-1,-1,-1,-1,-1,-1],"loss_changes":[1.0860078E3,1.7848271E3,1.3825392E3,4.8906772E2,7.734761E2,6.0617114E2,1.8336611E3,0E0,0E0,0E0,0E0,0E0,0E0,0E0,0E0],"parents":[2147483647,0,0,1,1,2,2,3,3,4,4,5,5,6,6],"right_children":[2,4,6,8,10,12,14,-1,-1,-1,-1,-1,-1,-1,-1],"split_conditions":[5.5E0,7.1E0,8.466666E0,5.1E0,1.15E1,9.9E0,1.11E1,-1.255707E-1,5.276213E-2,3.5301965E-1,6.2477145E-2,-7.1706064E-2,-2.618558E-1,8.1130214E-2,-3.0196376E-2],"split_indices":[5,2,2,2,6,5,6,0,0,0,0,0,0,0,0],"split_type":[0,0,0,0,0,0,0,0,0,0,0,0,0,0,0],"sum_hessian":[2.7416E4,3.319E3,2.4097E4,2.096E3,1.223E3,4.929E3,1.9168E4,6.62E2,1.434E3,8.2E2,4.03E2,4.372E3,5.57E2,6.698E3,1.247E4],"tree_param":{"num_deleted":"0","num_feature":"7","num_nodes":"15","size_leaf_vector":"1"}},{"base_weights":[1.7627212E-3,2.2661649E-1,-1.5653962E-1,-9.809458E-2,8.179388E-1,-6.581197E-1,9.480416E-2,2.5869984E-2,-1.0640083E-1,3.0609015E-1,9.1029204E-2,-8.554439E-2,-2.8475055E-1,1.696785E-1,-1.0878081E-2],"categories":[],"categories_nodes":[],"categories_segments":[],"categories_sizes":[],"default_left":[0,0,0,0,0,0,0,0,0,0,0,0,0,0,0],"id":38,"left_children":[1,3,5,7,9,11,13,-1,-1,-1,-1,-1,-1,-1,-1],"loss_changes":[9.77885E2,2.1797258E3,2.0325405E3,9.5168567E2,1.1164565E3,8.595332E2,1.5188569E3,0E0,0E0,0E0,0E0,0E0,0E0,0E0,0E0],"parents":[2147483647,0,0,1,1,2,2,3,3,4,4,5,5,6,6],"right_children":[2,4,6,8,10,12,14,-1,-1,-1,-1,-1,-1,-1,-1],"split_conditions":[9.5E0,8.633333E0,1.1866667E1,8.2E0,8.8E0,1.39E1,1.09E1,2.5869984E-2,-1.0640083E-1,3.0609015E-1,9.1029204E-2,-8.554439E-2,-2.8475055E-1,1.696785E-1,-1.0878081E-2],"split_indices":[5,2,2,6,6,5,6,0,0,0,0,0,0,0,0],"split_type":[0,0,0,0,0,0,0,0,0,0,0,0,0,0,0],"sum_hessian":[2.7472E4,1.1351E4,1.6121E4,7.327E3,4.024E3,5.382E3,1.0739E4,4.961E3,2.366E3,9.23E2,3.101E3,4.642E3,7.4E2,1.615E3,9.124E3],"tree_param":{"num_deleted":"0","num_feature":"7","num_nodes":"15","size_leaf_vector":"1"}},{"base_weights":[7.886525E-4,5.3708667E-1,-5.844654E-2,8.9829713E-1,3.6365572E-1,1.3032045E-2,-3.3627525E-1,4.5372307E-2,1.7667788E-1,6.515251E-2,-1.271484E-1,7.1529895E-2,-5.120359E-3,-6.162541E-2,4.7140664E-1],"categories":[],"categories_nodes":[],"categories_segments":[],"categories_sizes":[],"default_left":[0,0,0,0,0,0,0,0,0,0,0,0,0,0,0],"id":39,"left_children":[1,3,5,7,9,11,13,-1,-1,-1,-1,-1,-1,-1,-1],"loss_changes":[8.709395E2,1.7042535E2,4.9029913E2,7.309924E1,3.2419357E1,3.3992923E2,3.5453656E2,0E0,0E0,0E0,0E0,0E0,0E0,0E0,0E0],"parents":[2147483647,0,0,1,1,2,2,3,3,4,4,5,5,6,6],"right_children":[2,4,6,8,10,12,14,-1,-1,-1,-1,-1,-1,-1,-1],"split_conditions":[5.2E0,3.9E0,1.62E1,3.9E0,5.8E1,5.2E0,2.06E1,4.5372307E-2,1.7667788E-1,6.515251E-2,-1.271484E-1,7.1529895E-2,-5.120359E-3,-6.162541E-2,4.7140664E-1],"split_indices":[6,6,6,5,4,5,1,0,0,0,0,0,0,0,0],"split_type":[0,0,0,0,0,0,0,0,0,0,0,0,0,0,0],"sum_hessian":[2.7411E4,2.727E3,2.4684E4,8.84E2,1.843E3,1.9632E4,5.052E3,1.52E2,7.32E2,1.817E3,2.6E1,1.885E3,1.7747E4,5.015E3,3.7E1],"tree_param":{"num_deleted":"0","num_feature":"7","num_nodes":"15","size_leaf_vector":"1"}},{"base_weights":[1.4891827E-3,-5.362703E-2,6.823691E-1,3.0481953E-2,-8.750299E-1,1.157874E0,-1.8091366E-1,-1.1215101E-2,9.315959E-2,-8.834679E-2,-2.6314992E-1,3.417494E-1,6.993802E-2,-1.157106E-1,2.3315006E-1],"categories":[],"categories_nodes":[],"categories_segments":[],"categories_sizes":[],"default_left":[0,0,0,0,0,0,0,0,0,0,0,0,0,0,0],"id":40,"left_children":[1,3,5,7,9,11,13,-1,-1,-1,-1,-1,-1,-1,-1],"loss_changes":[1.030296E3,1.7546082E3,8.442937E2,1.131111E3,5.587864E2,8.285021E2,5.541789E2,0E0,0E0,0E0,0E0,0E0,0E0,0E0,0E0],"parents":[2147483647,0,0,1,1,2,2,3,3,4,4,5,5,6,6],"right_children":[2,4,6,8,10,12,14,-1,-1,-1,-1,-1,-1,-1,-1],"split_conditions":[1.7733334E1,1.68E1,2.15E1,1.36E1,1.54E1,2.01E1,2.28E1,-1.1215101E-2,9.315959E-2,-8.834679E-2,-2.6314992E-1,3.417494E-1,6.993802E-2,-1.157106E-1,2.3315006E-1],"split_indices":[2,5,6,2,6,5,2,0,0,0,0,0,0,0,0],"split_type":[0,0,0,0,0,0,0,0,0,0,0,0,0,0,0],"sum_hessian":[2.7449E4,2.5393E4,2.056E3,2.3034E4,2.359E3,1.326E3,7.3E2,1.9404E4,3.63E3,1.525E3,8.34E2,6.28E2,6.98E2,5.53E2,1.77E2],"tree_param":{"num_deleted":"0","num_feature":"7","num_nodes":"15","size_leaf_vector":"1"}},{"base_weights":[-8.578209E-4,-7.096812E-2,4.6759632E-1,1.0110087E-1,-4.7811604E-1,1.3723664E0,1.6453645E-1,-1.3994462E-2,1.09036125E-1,-6.9825985E-2,-3.8914025E-1,3.547165E-1,7.4369684E-2,2.667448E-1,1.8451589E-3],"categories":[],"categories_nodes":[],"categories_segments":[],"categories_sizes":[],"default_left":[0,0,0,0,0,0,0,0,0,0,0,0,0,0,0],"id":41,"left_children":[1,3,5,7,9,11,13,-1,-1,-1,-1,-1,-1,-1,-1],"loss_changes":[9.032312E2,1.6762482E3,9.8113776E2,1.641137E3,9.0529614E2,5.848556E2,5.727043E2,0E0,0E0,0E0,0E0,0E0,0E0,0E0,0E0],"parents":[2147483647,0,0,1,1,2,2,3,3,4,4,5,5,6,6],"right_children":[2,4,6,8,10,12,14,-1,-1,-1,-1,-1,-1,-1,-1],"split_conditions":[1.6233334E1,1.25E1,1.6E1,1.0566667E1,1.97E1,2.01E1,1.47E1,-1.3994462E-2,1.09036125E-1,-6.9825985E-2,-3.8914025E-1,3.547165E-1,7.4369684E-2,2.667448E-1,1.8451589E-3],"split_indices":[2,5,6,2,5,5,5,0,0,0,0,0,0,0,0],"split_type":[0,0,0,0,0,0,0,0,0,0,0,0,0,0,0],"sum_hessian":[2.7505E4,2.3925E4,3.58E3,1.6817E4,7.108E3,8.98E2,2.682E3,1.2532E4,4.285E3,6.836E3,2.72E2,5.16E2,3.82E2,2.67E2,2.415E3],"tree_param":{"num_deleted":"0","num_feature":"7","num_nodes":"15","size_leaf_vector":"1"}},{"base_weights":[-5.036803E-4,1.2574975E-1,-2.3320673E-1,7.1039647E-1,8.308516E-2,-1.946206E-1,-1.2632713E0,-8.60165E-2,1.2887685E-1,6.9157146E-2,5.2654403E-3,-1.1091529E-1,-2.3925712E-2,-2.4587363E-1,6.7154324E-1],"categories":[],"categories_nodes":[],"categories_segments":[],"categories_sizes":[],"default_left":[0,0,0,0,0,0,0,0,0,0,0,0,0,0,0],"id":42,"left_children":[1,3,5,7,9,11,13,-1,-1,-1,-1,-1,-1,-1,-1],"loss_changes":[8.080314E2,4.4444022E2,3.8403375E2,5.964044E1,2.784001E2,2.3227173E2,3.0525275E2,0E0,0E0,0E0,0E0,0E0,0E0,0E0,0E0],"parents":[2147483647,0,0,1,1,2,2,3,3,4,4,5,5,6,6],"right_children":[2,4,6,8,10,12,14,-1,-1,-1,-1,-1,-1,-1,-1],"split_conditions":[1.32E1,4.2E0,2.45E1,3E0,5.4E0,5E0,2.35E1,-8.60165E-2,1.2887685E-1,6.9157146E-2,5.2654403E-3,-1.1091529E-1,-2.3925712E-2,-2.4587363E-1,6.7154324E-1],"split_indices":[6,6,6,5,5,4,1,0,0,0,0,0,0,0,0],"split_type":[0,0,0,0,0,0,0,0,0,0,0,0,0,0,0],"sum_hessian":[2.7502E4,1.7828E4,9.674E3,1.212E3,1.6616E4,9.325E3,3.49E2,3.9E1,1.173E3,2.338E3,1.4278E4,1.015E3,8.31E3,3.38E2,1.1E1],"tree_param":{"num_deleted":"0","num_feature":"7","num_nodes":"15","size_leaf_vector":"1"}},{"base_weights":[-1.1858994E-3,-4.4577777E-1,8.039549E-2,-2.846543E-1,-1.2650328E0,8.0260587E-1,-2.5509328E-2,-1.0609409E-1,4.8553795E-3,-2.909469E-1,-1.8315227E-1,1.1747203E-1,3.7227914E-1,-2.488656E-2,7.117325E-2],"categories":[],"categories_nodes":[],"categories_segments":[],"categories_sizes":[],"default_left":[0,0,0,0,0,0,0,0,0,0,0,0,0,0,0],"id":43,"left_children":[1,3,5,7,9,11,13,-1,-1,-1,-1,-1,-1,-1,-1],"loss_changes":[9.925494E2,5.5958044E2,1.7685205E3,3.703311E2,5.8436035E1,4.763584E2,1.0606106E3,0E0,0E0,0E0,0E0,0E0,0E0,0E0,0E0],"parents":[2147483647,0,0,1,1,2,2,3,3,4,4,5,5,6,6],"right_children":[2,4,6,8,10,12,14,-1,-1,-1,-1,-1,-1,-1,-1],"split_conditions":[7.1E0,7.4E0,7E0,5.9E0,6.366667E0,1.0933333E1,1.5666667E1,-1.0609409E-1,4.8553795E-3,-2.909469E-1,-1.8315227E-1,1.1747203E-1,3.7227914E-1,-2.488656E-2,7.117325E-2],"split_indices":[2,5,5,2,2,2,2,0,0,0,0,0,0,0,0],"split_type":[0,0,0,0,0,0,0,0,0,0,0,0,0,0,0],"sum_hessian":[2.7362E4,4.243E3,2.3119E4,3.546E3,6.97E2,2.957E3,2.0162E4,1.717E3,1.829E3,2.19E2,4.78E2,2.722E3,2.35E2,1.5858E4,4.304E3],"tree_param":{"num_deleted":"0","num_feature":"7","num_nodes":"15","size_leaf_vector":"1"}},{"base_weights":[9.928312E-4,-3.197883E-2,8.9891315E-1,1.3734951E-2,-9.5444226E-1,2.1958327E0,3.9265293E-1,-1.1350901E-2,6.985201E-2,-2.6828972E-1,-9.954935E-2,3.4205598E-1,9.3213576E-1,2.098279E-2,3.2403678E-1],"categories":[],"categories_nodes":[],"categories_segments":[],"categories_sizes":[],"default_left":[0,0,0,0,0,0,0,0,0,0,0,0,0,0,0],"id":44,"left_children":[1,3,5,7,9,11,13,-1,-1,-1,-1,-1,-1,-1,-1],"loss_changes":[8.132884E2,1.117284E3,6.3801483E2,7.929088E2,2.8446423E2,1.7665149E2,2.82403E2,0E0,0E0,0E0,0E0,0E0,0E0,0E0,0E0],"parents":[2147483647,0,0,1,1,2,2,3,3,4,4,5,5,6,6],"right_children":[2,4,6,8,10,12,14,-1,-1,-1,-1,-1,-1,-1,-1],"split_conditions":[1.9533333E1,1.92E1,2.03E1,1.4333333E1,1.6633333E1,2.28E1,2.4066668E1,-1.1350901E-2,6.985201E-2,-2.6828972E-1,-9.954935E-2,3.4205598E-1,9.3213576E-1,2.098279E-2,3.2403678E-1],"split_indices":[2,5,5,2,2,2,2,0,0,0,0,0,0,0,0],"split_type":[0,0,0,0,0,0,0,0,0,0,0,0,0,0,0],"sum_hessian":[2.7461E4,2.6488E4,9.73E2,2.5237E4,1.251E3,2.73E2,7E2,2.0976E4,4.261E3,4.76E2,7.75E2,2.57E2,1.6E1,5.93E2,1.07E2],"tree_param":{"num_deleted":"0","num_feature":"7","num_nodes":"15","size_leaf_vector":"1"}},{"base_weights":[3.2787514E-4,1.2633184E-1,-2.562077E-1,2.184022E-2,9.7082996E-1,-4.2870215E-1,4.2079556E-1,3.0887177E-2,-6.371459E-2,2.558949E-1,7.620708E-2,-5.4639112E-2,-2.606757E-1,1.1413224E-1,-1.4264874E-1],"categories":[],"categories_nodes":[],"categories_segments":[],"categories_sizes":[],"default_left":[0,0,0,0,0,0,0,0,0,0,0,0,0,0,0],"id":45,"left_children":[1,3,5,7,9,11,13,-1,-1,-1,-1,-1,-1,-1,-1],"loss_changes":[8.861018E2,1.6220262E3,1.0544031E3,1.0169986E3,5.540637E2,8.649363E2,5.60466E2,0E0,0E0,0E0,0E0,0E0,0E0,0E0,0E0],"parents":[2147483647,0,0,1,1,2,2,3,3,4,4,5,5,6,6],"right_children":[2,4,6,8,10,12,14,-1,-1,-1,-1,-1,-1,-1,-1],"split_conditions":[1.35E1,1.3266666E1,1.7866667E1,1.06E1,1.67E1,2E1,2.45E1,3.0887177E-2,-6.371459E-2,2.558949E-1,7.620708E-2,-5.4639112E-2,-2.606757E-1,1.1413224E-1,-1.4264874E-1],"split_indices":[6,2,2,5,5,6,6,0,0,0,0,0,0,0,0],"split_type":[0,0,0,0,0,0,0,0,0,0,0,0,0,0,0],"sum_hessian":[2.7414E4,1.8385E4,9.029E3,1.6361E4,2.024E3,7.196E3,1.833E3,1.1668E4,4.693E3,1.018E3,1.006E3,6.535E3,6.61E2,1.534E3,2.99E2],"tree_param":{"num_deleted":"0","num_feature":"7","num_nodes":"15","size_leaf_vector":"1"}},{"base_weights":[-1.4630482E-3,3.584644E-1,-8.1572056E-2,-3.1105682E-1,7.4469036E-1,-6.9166344E-1,-1.4731909E-2,-1.8639965E-2,-1.9106644E-1,2.7130365E-1,8.4070735E-2,-9.854419E-2,-2.7310076E-1,6.85213E-2,-2.2094166E-2],"categories":[],"categories_nodes":[],"categories_segments":[],"categories_sizes":[],"default_left":[0,0,0,0,0,0,0,0,0,0,0,0,0,0,0],"id":46,"left_children":[1,3,5,7,9,11,13,-1,-1,-1,-1,-1,-1,-1,-1],"loss_changes":[7.893987E2,1.288935E3,9.1308997E2,2.9568713E2,6.7284937E2,2.3293726E2,9.52688E2,0E0,0E0,0E0,0E0,0E0,0E0,0E0,0E0],"parents":[2147483647,0,0,1,1,2,2,3,3,4,4,5,5,6,6],"right_children":[2,4,6,8,10,12,14,-1,-1,-1,-1,-1,-1,-1,-1],"split_conditions":[6.4E0,6.366667E0,7.4E0,6.6E0,6.9E0,7.7E0,8.6E0,-1.8639965E-2,-1.9106644E-1,2.7130365E-1,8.4070735E-2,-9.854419E-2,-2.7310076E-1,6.85213E-2,-2.2094166E-2],"split_indices":[6,2,2,5,5,5,5,0,0,0,0,0,0,0,0],"split_type":[0,0,0,0,0,0,0,0,0,0,0,0,0,0,0],"sum_hessian":[2.7381E4,4.984E3,2.2397E4,1.823E3,3.161E3,2.211E3,2.0186E4,1.456E3,3.67E2,7.38E2,2.423E3,1.956E3,2.55E2,4.358E3,1.5828E4],"tree_param":{"num_deleted":"0","num_feature":"7","num_nodes":"15","size_leaf_vector":"1"}},{"base_weights":[-2.262015E-3,-1.9689396E-1,1.2971523E-1,-8.2446724E-2,-1.0509894E0,9.566056E-1,1.857014E-2,5.092127E-3,-1.7274342E-1,-1.4953016E-1,-3.0085424E-1,2.5216043E-1,7.26052E-2,9.7608425E-2,-2.1038242E-2],"categories":[],"categories_nodes":[],"categories_segments":[],"categories_sizes":[],"default_left":[0,0,0,0,0,0,0,0,0,0,0,0,0,0,0],"id":47,"left_children":[1,3,5,7,9,11,13,-1,-1,-1,-1,-1,-1,-1,-1],"loss_changes":[7.0595154E2,1.0852327E3,1.504718E3,1.015074E3,1.6466492E2,5.30083E2,1.121294E3,0E0,0E0,0E0,0E0,0E0,0E0,0E0,0E0],"parents":[2147483647,0,0,1,1,2,2,3,3,4,4,5,5,6,6],"right_children":[2,4,6,8,10,12,14,-1,-1,-1,-1,-1,-1,-1,-1],"split_conditions":[9.7E0,1.03E1,8.4E0,1.17E1,1.29E1,1.35E1,1.05E1,5.092127E-3,-1.7274342E-1,-1.4953016E-1,-3.0085424E-1,2.5216043E-1,7.26052E-2,9.7608425E-2,-2.1038242E-2],"split_indices":[2,5,6,6,5,5,5,0,0,0,0,0,0,0,0],"split_type":[0,0,0,0,0,0,0,0,0,0,0,0,0,0,0],"sum_hessian":[2.7482E4,1.1106E4,1.6376E4,9.794E3,1.312E3,1.94E3,1.4436E4,8.734E3,1.06E3,1.045E3,2.67E2,9.89E2,9.51E2,2.948E3,1.1488E4],"tree_param":{"num_deleted":"0","num_feature":"7","num_nodes":"15","size_leaf_vector":"1"}},{"base_weights":[3.1386882E-3,-1.3294387E-1,1.7736933E-1,-2.5447814E-2,-6.8617284E-1,8.606795E-1,2.1420227E-2,-6.091069E-2,2.0832982E-2,-9.139587E-2,-2.4812801E-1,1.20284386E-1,3.2715896E-1,2.9423932E-2,-6.4275354E-2],"categories":[],"categories_nodes":[],"categories_segments":[],"categories_sizes":[],"default_left":[0,0,0,0,0,0,0,0,0,0,0,0,0,0,0],"id":48,"left_children":[1,3,5,7,9,11,13,-1,-1,-1,-1,-1,-1,-1,-1],"loss_changes":[6.5037286E2,9.156071E2,1.2816512E3,6.239354E2,2.9168054E2,3.725951E2,5.818001E2,0E0,0E0,0E0,0E0,0E0,0E0,0E0,0E0],"parents":[2147483647,0,0,1,1,2,2,3,3,4,4,5,5,6,6],"right_children":[2,4,6,8,10,12,14,-1,-1,-1,-1,-1,-1,-1,-1],"split_conditions":[1.1466666E1,1.2E1,1.12E1,7E0,1.56E1,1.51E1,1.84E1,-6.091069E-2,2.0832982E-2,-9.139587E-2,-2.4812801E-1,1.20284386E-1,3.2715896E-1,2.9423932E-2,-6.4275354E-2],"split_indices":[2,6,6,2,6,2,6,0,0,0,0,0,0,0,0],"split_type":[0,0,0,0,0,0,0,0,0,0,0,0,0,0,0],"sum_hessian":[2.743E4,1.54E4,1.203E4,1.2895E4,2.505E3,2.235E3,9.795E3,3.976E3,8.919E3,2.084E3,4.21E2,1.939E3,2.96E2,7.104E3,2.691E3],"tree_param":{"num_deleted":"0","num_feature":"7","num_nodes":"15","size_leaf_vector":"1"}},{"base_weights":[-2.6063484E-3,-2.8948512E-2,8.106005E-1,1.3777971E-3,-1.3380922E0,1.8393787E0,3.0455187E-1,7.132232E-3,-1.2712878E-1,-2.1332064E-1,-1.0287248E0,3.540756E-1,-2.488163E-1,9.7596965E-4,2.8013042E-1],"categories":[],"categories_nodes":[],"categories_segments":[],"categories_sizes":[],"default_left":[0,0,0,0,0,0,0,0,0,0,0,0,0,0,0],"id":49,"left_children":[1,3,5,7,9,11,13,-1,-1,-1,-1,-1,-1,-1,-1],"loss_changes":[5.885209E2,1.0574048E3,4.4807465E2,7.756999E2,2.6464246E2,2.0925128E2,2.2883102E2,0E0,0E0,0E0,0E0,0E0,0E0,0E0,0E0],"parents":[2147483647,0,0,1,1,2,2,3,3,4,4,5,5,6,6],"right_children":[2,4,6,8,10,12,14,-1,-1,-1,-1,-1,-1,-1,-1],"split_conditions":[1.98E1,2.08E1,2.1E1,1.94E1,2.66E1,2.72E1,2.4066668E1,7.132232E-3,-1.2712878E-1,-2.1332064E-1,-1.0287248E0,3.540756E-1,-2.488163E-1,9.7596965E-4,2.8013042E-1],"split_indices":[2,5,5,6,5,6,2,0,0,0,0,0,0,0,0],"split_type":[0,0,0,0,0,0,0,0,0,0,0,0,0,0,0],"sum_hessian":[2.7485E4,2.6623E4,8.62E2,2.602E4,6.03E2,2.84E2,5.78E2,2.4684E4,1.336E3,5.91E2,1.2E1,2.66E2,1.8E1,4.72E2,1.06E2],"tree_param":{"num_deleted":"0","num_feature":"7","num_nodes":"15","size_leaf_vector":"1"}},{"base_weights":[9.914008E-4,4.9467108E-1,-3.9560355E-2,9.1607624E-1,3.8918966E-1,-1.9554954E-2,-7.7778804E-1,1.22183844E-1,2.4274017E-1,6.910502E-2,-1.3167842E-1,6.171907E-2,-8.526621E-3,-3.6889118E-1,-1.0242377E-1],"categories":[],"categories_nodes":[],"categories_segments":[],"categories_sizes":[],"default_left":[0,0,0,0,0,0,0,0,0,0,0,0,0,0,0],"id":50,"left_children":[1,3,5,7,9,11,13,-1,-1,-1,-1,-1,-1,-1,-1],"loss_changes":[5.5146625E2,9.252414E1,3.7557227E2,4.1833527E1,2.5963089E1,2.8296573E2,1.6568326E2,0E0,0E0,0E0,0E0,0E0,0E0,0E0,0E0],"parents":[2147483647,0,0,1,1,2,2,3,3,4,4,5,5,6,6],"right_children":[2,4,6,8,10,12,14,-1,-1,-1,-1,-1,-1,-1,-1],"split_conditions":[4.8E0,3.4E0,2.27E1,2.21E1,6.7E1,5E0,4E0,1.22183844E-1,2.4274017E-1,6.910502E-2,-1.3167842E-1,6.171907E-2,-8.526621E-3,-3.6889118E-1,-1.0242377E-1],"split_indices":[6,6,6,0,4,5,4,0,0,0,0,0,0,0,0],"split_type":[0,0,0,0,0,0,0,0,0,0,0,0,0,0,0],"sum_hessian":[2.7539E4,2.091E3,2.5448E4,4.18E2,1.673E3,2.4777E4,6.71E2,2.97E2,1.21E2,1.654E3,1.9E1,1.823E3,2.2954E4,7.8E1,5.93E2],"tree_param":{"num_deleted":"0","num_feature":"7","num_nodes":"15","size_leaf_vector":"1"}},{"base_weights":[-1.4163253E-3,2.374124E-1,-7.088691E-2,7.1861863E-1,1.9172066E-1,-5.906235E-2,-1.0888983E0,-6.5864675E-2,1.3269174E-1,7.139202E-2,2.3683637E-2,-1.9338444E-2,1.1381737E-2,-2.1385907E-1,5.1158553E-1],"categories":[],"categories_nodes":[],"categories_segments":[],"categories_sizes":[],"default_left":[0,0,0,0,0,0,0,0,0,0,0,0,0,0,0],"id":51,"left_children":[1,3,5,7,9,11,13,-1,-1,-1,-1,-1,-1,-1,-1],"loss_changes":[4.5565033E2,1.3576227E2,2.5576389E2,3.236841E1,6.791402E1,1.414306E2,1.5558847E2,0E0,0E0,0E0,0E0,0E0,0E0,0E0,0E0],"parents":[2147483647,0,0,1,1,2,2,3,3,4,4,5,5,6,6],"right_children":[2,4,6,8,10,12,14,-1,-1,-1,-1,-1,-1,-1,-1],"split_conditions":[7E0,3.6E0,2.55E1,3E0,5.2E0,2.45E1,2.35E1,-6.5864675E-2,1.3269174E-1,7.139202E-2,2.3683637E-2,-1.9338444E-2,1.1381737E-2,-2.1385907E-1,5.1158553E-1],"split_indices":[6,6,6,5,5,0,1,0,0,0,0,0,0,0,0],"split_type":[0,0,0,0,0,0,0,0,0,0,0,0,0,0,0],"sum_hessian":[2.7466E4,6.188E3,2.1278E4,5.36E2,5.652E3,2.1034E4,2.44E2,2.5E1,5.11E2,1.091E3,4.561E3,1.4735E4,6.299E3,2.35E2,9E0],"tree_param":{"num_deleted":"0","num_feature":"7","num_nodes":"15","size_leaf_vector":"1"}},{"base_weights":[4.5732325E-3,1.8826348E-1,-5.1807404E-2,4.1073322E-1,1.22811064E-1,1.0317754E-2,-1.6972728E-1,1.3613403E-1,6.0278524E-2,6.2017597E-2,1.2590132E-2,-2.1753253E-2,9.857237E-3,-2.1266378E-1,-2.5411496E-2],"categories":[],"categories_nodes":[],"categories_segments":[],"categories_sizes":[],"default_left":[0,0,0,0,0,0,0,0,0,0,0,0,0,0,0],"id":52,"left_children":[1,3,5,7,9,11,13,-1,-1,-1,-1,-1,-1,-1,-1],"loss_changes":[2.851709E2,9.399477E1,1.5436198E2,3.306076E1,5.8819283E1,8.907022E1,1.6792807E2,0E0,0E0,0E0,0E0,0E0,0E0,0E0,0E0],"parents":[2147483647,0,0,1,1,2,2,3,3,4,4,5,5,6,6],"right_children":[2,4,6,8,10,12,14,-1,-1,-1,-1,-1,-1,-1,-1],"split_conditions":[7.1E0,4.4E0,1.41E1,3E0,5.2E0,6E0,3E0,1.3613403E-1,6.0278524E-2,6.2017597E-2,1.2590132E-2,-2.1753253E-2,9.857237E-3,-2.1266378E-1,-2.5411496E-2],"split_indices":[6,6,5,6,5,4,4,0,0,0,0,0,0,0,0],"split_type":[0,0,0,0,0,0,0,0,0,0,0,0,0,0,0],"sum_hessian":[2.7531E4,6.467E3,2.1064E4,1.469E3,4.998E3,1.3794E4,7.27E3,1.97E2,1.272E3,8.57E2,4.141E3,3.527E3,1.0267E4,1.44E2,7.126E3],"tree_param":{"num_deleted":"0","num_feature":"7","num_nodes":"15","size_leaf_vector":"1"}},{"base_weights":[1.2604349E-3,4.5942273E-2,-1.6733703E-1,2.5680587E-1,1.5523653E-2,-6.474398E-1,-1.0280445E-1,8.606353E-2,3.4479026E-2,4.5060806E-2,-1.4221973E-3,-1.4841339E-1,1.9360901E-1,-3.7373755E-2,2.4591396E-3],"categories":[],"categories_nodes":[],"categories_segments":[],"categories_sizes":[],"default_left":[0,0,0,0,0,0,0,0,0,0,0,0,0,0,0],"id":53,"left_children":[1,3,5,7,9,11,13,-1,-1,-1,-1,-1,-1,-1,-1],"loss_changes":[2.0656001E2,1.3897784E2,1.7771974E2,3.713974E1,1.1154483E2,2.6234732E2,6.826165E1,0E0,0E0,0E0,0E0,0E0,0E0,0E0,0E0],"parents":[2147483647,0,0,1,1,2,2,3,3,4,4,5,5,6,6],"right_children":[2,4,6,8,10,12,14,-1,-1,-1,-1,-1,-1,-1,-1],"split_conditions":[1.57E1,5.2E0,5E0,3.5E0,5E0,1.77E1,5E0,8.606353E-2,3.4479026E-2,4.5060806E-2,-1.4221973E-3,-1.4841339E-1,1.9360901E-1,-3.7373755E-2,2.4591396E-3],"split_indices":[6,6,4,6,5,1,1,0,0,0,0,0,0,0,0],"split_type":[0,0,0,0,0,0,0,0,0,0,0,0,0,0,0],"sum_hessian":[2.7425E4,2.1681E4,5.744E3,2.732E3,1.8949E4,6.8E2,5.064E3,5.07E2,2.225E3,1.667E3,1.7282E4,6.06E2,7.4E1,2.557E3,2.507E3],"tree_param":{"num_deleted":"0","num_feature":"7","num_nodes":"15","size_leaf_vector":"1"}},{"base_weights":[-4.29337E-3,-9.672079E-2,3.7258336E-1,-4.0114507E-2,-7.209113E-1,1.0058823E0,1.6379078E-1,-1.06210984E-1,4.8694727E-3,-8.7994136E-2,-2.1245639E-1,1.2438961E-1,2.8202474E-1,8.317952E-3,1.6397668E-1],"categories":[],"categories_nodes":[],"categories_segments":[],"categories_sizes":[],"default_left":[0,0,0,0,0,0,0,0,0,0,0,0,0,0,0],"id":54,"left_children":[1,3,5,7,9,11,13,-1,-1,-1,-1,-1,-1,-1,-1],"loss_changes":[9.568983E2,7.7930853E2,7.149762E2,8.020488E2,1.9684381E2,2.395039E2,3.7117416E2,0E0,0E0,0E0,0E0,0E0,0E0,0E0,0E0],"parents":[2147483647,0,0,1,1,2,2,3,3,4,4,5,5,6,6],"right_children":[2,4,6,8,10,12,14,-1,-1,-1,-1,-1,-1,-1,-1],"split_conditions":[1.4933333E1,1.59E1,1.49E1,6.1E0,1.84E1,1.68E1,2.08E1,-1.06210984E-1,4.8694727E-3,-8.7994136E-2,-2.1245639E-1,1.2438961E-1,2.8202474E-1,8.317952E-3,1.6397668E-1],"split_indices":[2,6,6,2,6,2,2,0,0,0,0,0,0,0,0],"split_type":[0,0,0,0,0,0,0,0,0,0,0,0,0,0,0],"sum_hessian":[2.7473E4,2.2063E4,5.41E3,2.0229E4,1.834E3,1.341E3,4.069E3,2.141E3,1.8088E4,1.308E3,5.26E2,9.31E2,4.1E2,3.552E3,5.17E2],"tree_param":{"num_deleted":"0","num_feature":"7","num_nodes":"15","size_leaf_vector":"1"}},{"base_weights":[-1.5755752E-3,4.160304E-2,-2.6030046E-1,2.8609148E-1,1.3978608E-2,-2.7718E-1,1.4128752E0,1.1786588E-1,4.2812645E-2,4.4012524E-2,-1.3554404E-3,-4.17194E-2,-2.9932854E-1,1.8864453E-1,8.6993927E-1],"categories":[],"categories_nodes":[],"categories_segments":[],"categories_sizes":[],"default_left":[0,0,0,0,0,0,0,0,0,0,0,0,0,0,0],"id":55,"left_children":[1,3,5,7,9,11,13,-1,-1,-1,-1,-1,-1,-1,-1],"loss_changes":[3.0649054E2,1.5865239E2,1.1045624E2,3.469966E1,1.1211409E2,1.9361185E2,4.273201E1,0E0,0E0,0E0,0E0,0E0,0E0,0E0,0E0],"parents":[2147483647,0,0,1,1,2,2,3,3,4,4,5,5,6,6],"right_children":[2,4,6,8,10,12,14,-1,-1,-1,-1,-1,-1,-1,-1],"split_conditions":[1.7E1,5E0,2.06E1,3E0,5E0,2.72E1,2.84E1,1.1786588E-1,4.2812645E-2,4.4012524E-2,-1.3554404E-3,-4.17194E-2,-2.9932854E-1,1.8864453E-1,8.6993927E-1],"split_indices":[5,6,1,6,5,6,1,0,0,0,0,0,0,0,0],"split_type":[0,0,0,0,0,0,0,0,0,0,0,0,0,0,0],"sum_hessian":[2.7429E4,2.3505E4,3.924E3,2.385E3,2.112E4,3.885E3,3.9E1,1.99E2,2.186E3,1.749E3,1.9371E4,3.797E3,8.8E1,3.6E1,3E0],"tree_param":{"num_deleted":"0","num_feature":"7","num_nodes":"15","size_leaf_vector":"1"}},{"base_weights":[-7.5287506E-4,-1.8045442E-1,1.7785469E-1,-7.844962E-2,-9.7755307E-1,7.555843E-1,1.737106E-2,-5.1136125E-2,2.9313449E-2,-1.3643569E-1,-2.931048E-1,1.0697631E-1,3.6893663E-1,-3.168063E-2,6.1967075E-2],"categories":[],"categories_nodes":[],"categories_segments":[],"categories_sizes":[],"default_left":[0,0,0,0,0,0,0,0,0,0,0,0,0,0,0],"id":56,"left_children":[1,3,5,7,9,11,13,-1,-1,-1,-1,-1,-1,-1,-1],"loss_changes":[8.809734E2,1.1121947E3,1.275988E3,6.638014E2,2.0611426E2,5.507351E2,7.4790735E2,0E0,0E0,0E0,0E0,0E0,0E0,0E0,0E0],"parents":[2147483647,0,0,1,1,2,2,3,3,4,4,5,5,6,6],"right_children":[2,4,6,8,10,12,14,-1,-1,-1,-1,-1,-1,-1,-1],"split_conditions":[1.0733334E1,1.13E1,1.17E1,8E0,1.39E1,1.4266666E1,1.5833333E1,-5.1136125E-2,2.9313449E-2,-1.3643569E-1,-2.931048E-1,1.0697631E-1,3.6893663E-1,-3.168063E-2,6.1967075E-2],"split_indices":[2,5,5,2,5,2,2,0,0,0,0,0,0,0,0],"split_type":[0,0,0,0,0,0,0,0,0,0,0,0,0,0,0],"sum_hessian":[2.7448E4,1.3683E4,1.3765E4,1.2131E4,1.552E3,2.992E3,1.0773E4,6.451E3,5.68E3,1.242E3,3.1E2,2.733E3,2.59E2,6.785E3,3.988E3],"tree_param":{"num_deleted":"0","num_feature":"7","num_nodes":"15","size_leaf_vector":"1"}},{"base_weights":[3.2172226E-3,1.5721583E-1,-6.583743E-2,3.1791317E-1,1.0621597E-1,-4.9981683E-2,-7.225932E-1,7.8443505E-2,3.2399673E-2,5.6807347E-2,1.30196735E-2,-6.295057E-3,-9.715714E-2,-6.7832154E-1,-1.11168616E-1],"categories":[],"categories_nodes":[],"categories_segments":[],"categories_sizes":[],"default_left":[0,0,0,0,0,0,0,0,0,0,0,0,0,0,0],"id":57,"left_children":[1,3,5,7,9,11,13,-1,-1,-1,-1,-1,-1,-1,-1],"loss_changes":[2.9178214E2,6.9484116E1,1.9697928E2,3.65403E1,4.387599E1,1.2676997E2,1.0629874E2,0E0,0E0,0E0,0E0,0E0,0E0,0E0,0E0],"parents":[2147483647,0,0,1,1,2,2,3,3,4,4,5,5,6,6],"right_children":[2,4,6,8,10,12,14,-1,-1,-1,-1,-1,-1,-1,-1],"split_conditions":[8.2E0,5.5E0,2.38E1,2E0,4.3E0,2.24E1,3E0,7.8443505E-2,3.2399673E-2,5.6807347E-2,1.30196735E-2,-6.295057E-3,-9.715714E-2,-6.7832154E-1,-1.11168616E-1],"split_indices":[6,5,6,3,6,5,4,0,0,0,0,0,0,0,0],"split_type":[0,0,0,0,0,0,0,0,0,0,0,0,0,0,0],"sum_hessian":[2.7435E4,8.495E3,1.894E4,2.045E3,6.45E3,1.8494E4,4.46E2,9.83E2,1.062E3,7.66E2,5.684E3,1.803E4,4.64E2,1E1,4.36E2],"tree_param":{"num_deleted":"0","num_feature":"7","num_nodes":"15","size_leaf_vector":"1"}},{"base_weights":[-3.3279443E-3,-1.23394094E-1,2.3244657E-1,-4.3032616E-2,-5.8902705E-1,8.522153E-1,1.0364335E-1,-1.388867E-1,2.2402008E-3,-7.882104E-2,-2.0167603E-1,2.799479E-1,1.1653678E-1,-1.159655E-3,1.0318882E-1],"categories":[],"categories_nodes":[],"categories_segments":[],"categories_sizes":[],"default_left":[0,0,0,0,0,0,0,0,0,0,0,0,0,0,0],"id":58,"left_children":[1,3,5,7,9,11,13,-1,-1,-1,-1,-1,-1,-1,-1],"loss_changes":[7.76015E2,6.79511E2,7.380223E2,6.660408E2,2.0274115E2,2.1387695E2,4.2091226E2,0E0,0E0,0E0,0E0,0E0,0E0,0E0,0E0],"parents":[2147483647,0,0,1,1,2,2,3,3,4,4,5,5,6,6],"right_children":[2,4,6,8,10,12,14,-1,-1,-1,-1,-1,-1,-1,-1],"split_conditions":[1.2766666E1,1.32E1,1.2E1,5.4E0,1.68E1,7.7E0,1.8666666E1,-1.388867E-1,2.2402008E-3,-7.882104E-2,-2.0167603E-1,2.799479E-1,1.1653678E-1,-1.159655E-3,1.0318882E-1],"split_indices":[2,6,6,2,6,6,2,0,0,0,0,0,0,0,0],"split_type":[0,0,0,0,0,0,0,0,0,0,0,0,0,0,0],"sum_hessian":[2.7414E4,1.8165E4,9.249E3,1.5492E4,2.673E3,1.591E3,7.658E3,1.057E3,1.4435E4,2.189E3,4.84E2,2.89E2,1.302E3,6.267E3,1.391E3],"tree_param":{"num_deleted":"0","num_feature":"7","num_nodes":"15","size_leaf_vector":"1"}},{"base_weights":[3.2093152E-3,4.655484E-2,-2.894134E-1,1.8677215E-1,-4.0667347E-4,-3.1659183E-1,7.592815E-1,7.889674E-2,2.532909E-2,3.2131965E-4,-4.1432098E-1,-5.956877E-2,1.039626E-1,1.6894905E-1,-1.6943178E-1],"categories":[],"categories_nodes":[],"categories_segments":[],"categories_sizes":[],"default_left":[0,0,0,0,0,0,0,0,0,0,0,0,0,0,0],"id":59,"left_children":[1,3,5,7,9,11,13,-1,-1,-1,-1,-1,-1,-1,-1],"loss_changes":[3.4754874E2,1.5725296E2,1.00611176E2,6.3875748E1,9.914319E1,9.689523E1,3.5000416E1,0E0,0E0,0E0,0E0,0E0,0E0,0E0,0E0],"parents":[2147483647,0,0,1,1,2,2,3,3,4,4,5,5,6,6],"right_children":[2,4,6,8,10,12,14,-1,-1,-1,-1,-1,-1,-1,-1],"split_conditions":[1.74E1,7E0,7.8E1,3.8E0,2.72E1,1.78E1,1.65E2,7.889674E-2,2.532909E-2,3.2131965E-4,-4.1432098E-1,-5.956877E-2,1.039626E-1,1.6894905E-1,-1.6943178E-1],"split_indices":[5,6,4,6,6,1,4,0,0,0,0,0,0,0,0],"split_type":[0,0,0,0,0,0,0,0,0,0,0,0,0,0,0],"sum_hessian":[2.7407E4,2.3872E4,3.535E3,5.991E3,1.7881E4,3.446E3,8.9E1,7.51E2,5.24E3,1.7864E4,1.7E1,3.336E3,1.1E2,7.9E1,1E1],"tree_param":{"num_deleted":"0","num_feature":"7","num_nodes":"15","size_leaf_vector":"1"}},{"base_weights":[-4.1915434E-3,-2.2262326E-1,1.1109851E-1,-1.0378427E-1,-6.7446834E-1,6.386447E-1,4.023606E-2,-1.1154691E-1,5.490849E-4,-1.666465E-1,-8.0979645E-2,6.0047764E-2,1.7996211E-1,-1.0702445E-2,5.4306906E-2],"categories":[],"categories_nodes":[],"categories_segments":[],"categories_sizes":[],"default_left":[0,0,0,0,0,0,0,0,0,0,0,0,0,0,0],"id":60,"left_children":[1,3,5,7,9,11,13,-1,-1,-1,-1,-1,-1,-1,-1],"loss_changes":[6.9327374E2,5.1045892E2,6.733141E2,4.4027216E2,1.1850513E2,2.5205774E2,4.5020776E2,0E0,0E0,0E0,0E0,0E0,0E0,0E0,0E0],"parents":[2147483647,0,0,1,1,2,2,3,3,4,4,5,5,6,6],"right_children":[2,4,6,8,10,12,14,-1,-1,-1,-1,-1,-1,-1,-1],"split_conditions":[9.1E0,9.5E0,7.9E0,5.5333333E0,8E0,1.0966666E1,1.5666667E1,-1.1154691E-1,5.490849E-4,-1.666465E-1,-8.0979645E-2,6.0047764E-2,1.7996211E-1,-1.0702445E-2,5.4306906E-2],"split_indices":[2,6,6,2,2,2,2,0,0,0,0,0,0,0,0],"split_type":[0,0,0,0,0,0,0,0,0,0,0,0,0,0,0],"sum_hessian":[2.7528E4,9.511E3,1.8017E4,7.531E3,1.98E3,2.133E3,1.5884E4,1.234E3,6.297E3,8.03E2,1.177E3,1.252E3,8.81E2,1.1581E4,4.303E3],"tree_param":{"num_deleted":"0","num_feature":"7","num_nodes":"15","size_leaf_vector":"1"}},{"base_weights":[2.7057389E-3,-1.0421127E-1,1.8382956E-1,-4.135994E-2,-5.175811E-1,3.3941653E-1,-1.7115732E-1,-5.142606E-2,1.3016717E-2,-1.7764749E-1,-7.1414486E-2,4.654042E-2,2.2810496E-1,-5.6352496E-2,1.1495263E-1],"categories":[],"categories_nodes":[],"categories_segments":[],"categories_sizes":[],"default_left":[0,0,0,0,0,0,0,0,0,0,0,0,0,0,0],"id":61,"left_children":[1,3,5,7,9,11,13,-1,-1,-1,-1,-1,-1,-1,-1],"loss_changes":[5.320076E2,4.485866E2,5.633036E2,4.5400314E2,1.19197754E2,4.783282E2,4.106518E2,0E0,0E0,0E0,0E0,0E0,0E0,0E0,0E0],"parents":[2147483647,0,0,1,1,2,2,3,3,4,4,5,5,6,6],"right_children":[2,4,6,8,10,12,14,-1,-1,-1,-1,-1,-1,-1,-1],"split_conditions":[1.2366667E1,1.32E1,1.78E1,7.3E0,9.366667E0,1.8166666E1,2.08E1,-5.142606E-2,1.3016717E-2,-1.7764749E-1,-7.1414486E-2,4.654042E-2,2.2810496E-1,-5.6352496E-2,1.1495263E-1],"split_indices":[2,6,6,2,2,2,2,0,0,0,0,0,0,0,0],"split_type":[0,0,0,0,0,0,0,0,0,0,0,0,0,0,0],"sum_hessian":[2.7471E4,1.7273E4,1.0198E4,1.4994E4,2.279E3,7.091E3,3.107E3,4.681E3,1.0313E4,3.73E2,1.906E3,6.634E3,4.57E2,2.618E3,4.89E2],"tree_param":{"num_deleted":"0","num_feature":"7","num_nodes":"15","size_leaf_vector":"1"}},{"base_weights":[1.8045063E-3,-5.797129E-2,2.424731E-1,-3.0766752E-2,-7.7898073E-1,8.077892E-1,9.079196E-2,-1.6380449E-1,-2.1883643E-3,-1.1993659E-1,-3.0566832E-1,2.4189082E-1,1.12560086E-1,3.7447933E-2,-6.556953E-2],"categories":[],"categories_nodes":[],"categories_segments":[],"categories_sizes":[],"default_left":[0,0,0,0,0,0,0,0,0,0,0,0,0,0,0],"id":62,"left_children":[1,3,5,7,9,11,13,-1,-1,-1,-1,-1,-1,-1,-1],"loss_changes":[3.959379E2,4.320862E2,4.692646E2,3.5315735E2,6.351068E1,1.05177185E2,2.601031E2,0E0,0E0,0E0,0E0,0E0,0E0,0E0,0E0],"parents":[2147483647,0,0,1,1,2,2,3,3,4,4,5,5,6,6],"right_children":[2,4,6,8,10,12,14,-1,-1,-1,-1,-1,-1,-1,-1],"split_conditions":[1.4866667E1,1.76E1,1.44E1,4.6E0,2.18E1,1.03E1,2.15E1,-1.6380449E-1,-2.1883643E-3,-1.1993659E-1,-3.0566832E-1,2.4189082E-1,1.12560086E-1,3.7447933E-2,-6.556953E-2],"split_indices":[2,6,6,2,6,6,6,0,0,0,0,0,0,0,0],"split_type":[0,0,0,0,0,0,0,0,0,0,0,0,0,0,0],"sum_hessian":[2.7518E4,2.2042E4,5.476E3,2.1241E4,8.01E2,1.158E3,4.318E3,4.06E2,2.0835E4,7.42E2,5.9E1,2.33E2,9.25E2,3.402E3,9.16E2],"tree_param":{"num_deleted":"0","num_feature":"7","num_nodes":"15","size_leaf_vector":"1"}},{"base_weights":[1.1529936E-3,-1.4550267E-1,8.347352E-2,-3.8795684E-2,-4.9749047E-1,3.9940912E-1,-6.2631075E-3,-5.266195E-2,1.5196062E-2,-1.2918131E-1,-5.8732107E-2,5.1231846E-2,1.5988299E-1,-5.2425466E-3,1.6459945E-1],"categories":[],"categories_nodes":[],"categories_segments":[],"categories_sizes":[],"default_left":[0,0,0,0,0,0,0,0,0,0,0,0,0,0,0],"id":63,"left_children":[1,3,5,7,9,11,13,-1,-1,-1,-1,-1,-1,-1,-1],"loss_changes":[3.317035E2,3.708025E2,4.9910452E2,2.588175E2,9.067444E1,2.0868207E2,3.2102167E2,0E0,0E0,0E0,0E0,0E0,0E0,0E0,0E0],"parents":[2147483647,0,0,1,1,2,2,3,3,4,4,5,5,6,6],"right_children":[2,4,6,8,10,12,14,-1,-1,-1,-1,-1,-1,-1,-1],"split_conditions":[9.266666E0,9.4E0,9.9E0,6.3E0,8E0,1.3033334E1,2.1866667E1,-5.266195E-2,1.5196062E-2,-1.2918131E-1,-5.8732107E-2,5.1231846E-2,1.5988299E-1,-5.2425466E-3,1.6459945E-1],"split_indices":[2,6,6,2,2,2,2,0,0,0,0,0,0,0,0],"split_type":[0,0,0,0,0,0,0,0,0,0,0,0,0,0,0],"sum_hessian":[2.7477E4,9.877E3,1.76E4,7.58E3,2.297E3,3.894E3,1.3706E4,2.442E3,5.138E3,8.68E2,1.429E3,3.274E3,6.2E2,1.337E4,3.36E2],"tree_param":{"num_deleted":"0","num_feature":"7","num_nodes":"15","size_leaf_vector":"1"}},{"base_weights":[1.0172518E-3,8.078622E-2,-3.157734E-1,-5.320316E-3,6.9418365E-1,-8.806352E-1,1.7094374E-2,3.33755E-2,-3.321817E-2,2.5241145E-1,8.923608E-2,-1.3100238E-1,-4.1271424E-1,3.1088075E-2,-1.23941176E-1],"categories":[],"categories_nodes":[],"categories_segments":[],"categories_sizes":[],"default_left":[0,0,0,0,0,0,0,0,0,0,0,0,0,0,0],"id":64,"left_children":[1,3,5,7,9,11,13,-1,-1,-1,-1,-1,-1,-1,-1],"loss_changes":[6.9310724E2,1.1576659E3,1.0376089E3,7.2270654E2,3.6437634E2,3.647649E2,4.207989E2,0E0,0E0,0E0,0E0,0E0,0E0,0E0,0E0],"parents":[2147483647,0,0,1,1,2,2,3,3,4,4,5,5,6,6],"right_children":[2,4,6,8,10,12,14,-1,-1,-1,-1,-1,-1,-1,-1],"split_conditions":[1.57E1,1.3733334E1,1.5666667E1,8.5E0,1.2E1,2.01E1,2.24E1,3.33755E-2,-3.321817E-2,2.5241145E-1,8.923608E-2,-1.3100238E-1,-4.1271424E-1,3.1088075E-2,-1.23941176E-1],"split_indices":[5,2,2,5,5,5,5,0,0,0,0,0,0,0,0],"split_type":[0,0,0,0,0,0,0,0,0,0,0,0,0,0,0],"sum_hessian":[2.7431E4,2.1914E4,5.517E3,1.9216E4,2.698E3,2.046E3,3.471E3,9.321E3,9.895E3,4.94E2,2.204E3,1.9E3,1.46E2,2.841E3,6.3E2],"tree_param":{"num_deleted":"0","num_feature":"7","num_nodes":"15","size_leaf_vector":"1"}},{"base_weights":[-9.149286E-4,5.538212E-2,-3.6717236E-1,3.5901973E-1,9.869999E-3,-2.9021123E-1,-6.5809566E-1,6.6766515E-2,-2.8072834E-2,2.1966442E-3,-2.27952E-1,-4.900912E-2,-1.1740401E0,-1.243514E-1,2.527744E-1],"categories":[],"categories_nodes":[],"categories_segments":[],"categories_sizes":[],"default_left":[0,0,0,0,0,0,0,0,0,0,0,0,0,0,0],"id":65,"left_children":[1,3,5,7,9,11,13,-1,-1,-1,-1,-1,-1,-1,-1],"loss_changes":[5.665724E2,3.2894336E2,8.166257E1,4.875998E1,8.076025E1,8.570151E1,1.0815161E2,0E0,0E0,0E0,0E0,0E0,0E0,0E0,0E0],"parents":[2147483647,0,0,1,1,2,2,3,3,4,4,5,5,6,6],"right_children":[2,4,6,8,10,12,14,-1,-1,-1,-1,-1,-1,-1,-1],"split_conditions":[1.73E1,5.4E0,2.2E1,7E0,2.55E1,3.33E1,2.21E1,6.6766515E-2,-2.8072834E-2,2.1966442E-3,-2.27952E-1,-4.900912E-2,-1.1740401E0,-1.243514E-1,2.527744E-1],"split_indices":[5,5,5,3,6,6,1,0,0,0,0,0,0,0,0],"split_type":[0,0,0,0,0,0,0,0,0,0,0,0,0,0,0],"sum_hessian":[2.7473E4,2.3812E4,3.661E3,3.103E3,2.0709E4,2.896E3,7.65E2,2.935E3,1.68E2,2.0664E4,4.5E1,2.894E3,2E0,7.42E2,2.3E1],"tree_param":{"num_deleted":"0","num_feature":"7","num_nodes":"15","size_leaf_vector":"1"}},{"base_weights":[-3.0155191E-3,-1.3052666E-1,1.1117097E-1,-6.645744E-2,-5.002093E-1,4.9570516E-1,2.4695748E-2,-5.1257476E-2,6.4368565E-3,-1.5627524E-1,-6.533201E-2,7.0546575E-2,1.9311768E-1,-6.009622E-3,8.788061E-2],"categories":[],"categories_nodes":[],"categories_segments":[],"categories_sizes":[],"default_left":[0,0,0,0,0,0,0,0,0,0,0,0,0,0,0],"id":66,"left_children":[1,3,5,7,9,11,13,-1,-1,-1,-1,-1,-1,-1,-1],"loss_changes":[4.003057E2,3.0748865E2,4.8209543E2,2.6738705E2,9.36651E1,1.4134735E2,3.447624E2,0E0,0E0,0E0,0E0,0E0,0E0,0E0,0E0],"parents":[2147483647,0,0,1,1,2,2,3,3,4,4,5,5,6,6],"right_children":[2,4,6,8,10,12,14,-1,-1,-1,-1,-1,-1,-1,-1],"split_conditions":[1.0433333E1,1.14E1,1.03E1,6.733333E0,8.466666E0,1.44E1,1.8866667E1,-5.1257476E-2,6.4368565E-3,-1.5627524E-1,-6.533201E-2,7.0546575E-2,1.9311768E-1,-6.009622E-3,8.788061E-2],"split_indices":[2,6,6,2,2,2,2,0,0,0,0,0,0,0,0],"split_type":[0,0,0,0,0,0,0,0,0,0,0,0,0,0,0],"sum_hessian":[2.7493E4,1.299E4,1.4503E4,1.1072E4,1.918E3,2.662E3,1.1841E4,3.425E3,7.647E3,4.32E2,1.486E3,2.347E3,3.15E2,1.0548E4,1.293E3],"tree_param":{"num_deleted":"0","num_feature":"7","num_nodes":"15","size_leaf_vector":"1"}},{"base_weights":[3.4042154E-3,9.20945E-2,-2.1854042E-1,-3.89478E-2,5.4186535E-1,-9.249458E-1,-4.614598E-2,1.1256579E-2,-7.7640414E-2,2.62752E-1,7.47729E-2,-1.2992366E-1,-2.91452E-1,8.2235724E-2,-2.7960787E-2],"categories":[],"categories_nodes":[],"categories_segments":[],"categories_sizes":[],"default_left":[0,0,0,0,0,0,0,0,0,0,0,0,0,0,0],"id":67,"left_children":[1,3,5,7,9,11,13,-1,-1,-1,-1,-1,-1,-1,-1],"loss_changes":[5.4068774E2,1.1570172E3,9.546878E2,6.5706213E2,4.6449622E2,1.9889062E2,3.8663184E2,0E0,0E0,0E0,0E0,0E0,0E0,0E0,0E0],"parents":[2147483647,0,0,1,1,2,2,3,3,4,4,5,5,6,6],"right_children":[2,4,6,8,10,12,14,-1,-1,-1,-1,-1,-1,-1,-1],"split_conditions":[1.41E1,1.1633333E1,1.3266666E1,1.04E1,8.9E0,1.7E1,1.25E1,1.1256579E-2,-7.7640414E-2,2.62752E-1,7.47729E-2,-1.2992366E-1,-2.91452E-1,8.2235724E-2,-2.7960787E-2],"split_indices":[5,2,2,5,5,5,6,0,0,0,0,0,0,0,0],"split_type":[0,0,0,0,0,0,0,0,0,0,0,0,0,0,0],"sum_hessian":[2.747E4,1.9628E4,7.842E3,1.5199E4,4.429E3,1.538E3,6.304E3,1.2131E4,3.068E3,4.29E2,4E3,1.264E3,2.74E2,1.146E3,5.158E3],"tree_param":{"num_deleted":"0","num_feature":"7","num_nodes":"15","size_leaf_vector":"1"}},{"base_weights":[1.7038792E-4,-3.4215696E-2,3.4383047E-1,1.1884764E-2,-3.7935096E-1,6.902098E-1,-1.19866595E-1,-2.5770789E-2,2.0537177E-2,-5.3027403E-2,-2.2373682E-1,8.9317575E-2,1.8947335E-1,-6.2955335E-2,1.727386E-1],"categories":[],"categories_nodes":[],"categories_segments":[],"categories_sizes":[],"default_left":[0,0,0,0,0,0,0,0,0,0,0,0,0,0,0],"id":68,"left_children":[1,3,5,7,9,11,13,-1,-1,-1,-1,-1,-1,-1,-1],"loss_changes":[3.2491733E2,3.9766837E2,4.018826E2,3.849644E2,1.9102472E2,1.0007916E2,2.9717477E2,0E0,0E0,0E0,0E0,0E0,0E0,0E0,0E0],